tree
version=v4
num_class=3
num_tree_per_iteration=3
label_index=0
max_feature_idx=72
objective=multiclass num_class:3
feature_names=price bid ask spread volume bid_qty1 ask_qty1 bid_qty2 ask_qty2 microsecond tick_id price_momentum_1 price_momentum_5 price_momentum_10 price_momentum_20 price_momentum_50 price_momentum_100 price_acceleration price_jerk price_velocity volume_momentum_1 volume_momentum_5 volume_momentum_10 volume_momentum_20 volume_acceleration volume_velocity spread_1 spread_2 spread_5 spread_10 spread_volatility spread_trend spread_momentum bid_ask_imbalance_1 bid_ask_imbalance_5 bid_ask_imbalance_10 bid_ask_ratio order_flow_imbalance vwap vwap_trend vwap_momentum vwap_volatility rsi_14 rsi_21 macd macd_signal macd_histogram stochastic_k stochastic_d williams_r atr_14 atr_21 cci adx mfi hour minute second day_of_week order_book_imbalance order_flow_pressure liquidity_ratio realized_volatility_1 realized_volatility_5 realized_volatility_10 parkinson_volatility garman_klass_volatility amihud_illiquidity kyle_lambda roll_spread effective_spread quoted_spread realized_spread
feature_infos=[85.200872715064008:500] [85.200372715064006:499.99932937864793] [85.201372715064011:500.00928500907918] [0.001:0.059084529622800794] [321:9625] [115:4002] [116:3945] [87:3048] [84:3028] [92725:992620] [0:249] [-0.25318340462893174:0.11617647423964939] [-0.2666270469260178:0.31642255845549405] [-0.31500082232762816:0.33832076594145244] [-0.38473488180635596:0.49741306218998194] [-0.46144811953599785:0.3704360049310178] [-0.63189385096871864:0.29519257597829895] [-141.75357323943189:385.77173325975735] [-1329.4329407364442:179.23824915759675] [-46.639433125118529:38.886585770733177] [-0.96014799154334041:1.2591797806390082] [-0.9642359995716886:1.2673386129109669] [-0.96456985255118277:1.2883185416166945] [-0.96483840404253085:1.3539450902794954] [-179.53868660601714:209.02197802206854] [-9083:5281] [0.001:0.059084529622800794] [0.001:0.041002450726706781] [0.0011477163782819:0.027701787412769872] [0.0011477163782819:0.023442557443681226] [0.0020883682265689734:0.018585631750982098] [-0.0010315610555261801:0.0093573465414033916] [-0.97793448516218784:46.000197617695136] [-0.14376996805111822:0.13131313131313133] [-0.045823793083104691:0.068571268507773897] [-0.027955632364009143:0.0492730793131207] [0.74860335195530725:1.3023255813953489] [-0.13562386980108498:0.10909090909090909] [167.67013141687841:462.96112553702994] [-9.387821847966709:2.5151403242172612] [-0.021015506380681948:0.012057338319118927] [0.025242369302304574:11.139243078706695] [0:92.967126789069013] [0:86.36941302857673] [-38.017838793797353:18.265150086447989] [-36.185295416695922:14.785785974763449] [-13.2038981339789:12.888768614363517] [0:100] [0:100] [-100:0] [0.16902358592947106:18.662108264525614] [0.18507150853674639:18.662108264525614] [-326.11937345809855:252.53003719376599] [7.358296150006546:100] [0:86.729457974636261] none none [43:47] none [-0.13562386980108498:0.10909090909090909] [-75945:76035] [8138.0913836628488:9588000] none [0.030268391663276564:4.5542464673386531] [0.090074293480698717:5.0340148903079367] [1.5430033629964805e-06:0.00016907423365546283] [0.0017171386367176638:0.095386048751842797] [9.2427304778709631e-07:0.00010505026250068706] [-0.0071423351569557363:0.002628661003704718] [0.076255492434463334:28.793096881574606] none [0.00099999999997635314:0.05908452962279398] none
tree_sizes=1056 1059 1069 1081 1083 1074 974 1185 1078 982 1053 1079 869 1076 1074 977 1076 1199 970 1083 1087 975 980 1077 976 1079 1196 860 1093 980 878 885 879 868 975 978 880 873 841 872 1090 983 882 980 977 954 1193 978 855 1086 951 959 968 1084 862 1082 971 873 965 980 974 1085 1080 874 1073 1188 870 1080 1282 1182 976 1171 1079 1198 1279 876 880 775 875 980 975 1072 985 1087 1302 878 1189 1079 776 770 987 981 1186 983 1087 978 1086 1067 985 967 1089 975 987 983 1089 972 1090 973 1094 880 1081 771 1092 1207 772 1067 1086 776 1086 1086 1081 982 1096 981 1091 1087 988 1191 1165 774 990 1194 1073 976 981 996 1089 846 984 877 866 772 1084 975 1185 982 1086 1069 1200 1197 986 985 985

Tree=0
num_leaves=9
num_cat=0
split_feature=8 49 52 63 68 23 7 12
split_gain=104.747 12.1635 10.9679 1.72229 2.32989 1.53059 1.33946 0.0270275
threshold=130.50000000000003 -30.476218092695394 -49.728017145494199 0.58667047790239224 -2.6940565949212339e-05 -0.017632954773038886 1241.5000000000002 -0.056731901615049367
decision_type=2 2 2 2 2 2 2 2
left_child=1 2 -1 4 -2 -5 -7 -8
right_child=3 -3 -4 5 -6 6 7 -9
leaf_value=-1.5455641231767696 -1.7230213150557758 -1.5977208328666441 -1.3975391986109995 -1.6903900332933792 -1.6638836290845169 -1.6993402452532869 -1.725765558131402 -1.7457251916268233
leaf_weight=10.822957456111906 13.816541433334352 11.974335908889769 11.053233146667482 11.053233146667479 11.974335908889769 11.053233146667479 10.822957456111906 35.923007726669312
leaf_count=47 60 52 48 48 52 48 47 156
internal_value=-1.66398 -1.5135 -1.46881 -1.71867 -1.69518 -1.72718 -1.73389 -1.74162
internal_weight=0 33.8505 21.8762 94.6433 25.7909 68.8524 57.7992 46.746
internal_count=558 147 95 411 112 299 251 203
is_linear=0
shrinkage=1


Tree=1
num_leaves=9
num_cat=0
split_feature=39 65 45 29 45 69 50 39
split_gain=15.8835 13.7481 12.8445 12.7903 5.12766 6.57182 4.30584 4.08081
threshold=-0.20148344577342658 8.3186458814298267e-05 -2.612446773011492 0.01064158529293875 -0.017240178352897692 0.33905039521435149 1.7352123024577322 -0.93299119366519612
decision_type=2 2 2 2 2 2 2 2
left_child=1 2 3 7 5 -2 -6 -1
right_child=4 -3 -4 -5 6 -7 -8 -9
leaf_value=-0.92333621526106724 -0.98117816361965138 -0.92328938274724281 -1.0650684650708393 -1.04942540672854 -1.1038404891588414 -1.057661605727704 -1.0337165067047518 -0.98938040312186337
leaf_weight=23.972439050674438 20.150745868682861 25.014719009399414 26.75185227394104 18.761039257049561 21.193025827407837 25.014719009399414 16.329052686691284 16.676479339599609
leaf_count=69 58 72 77 54 61 72 47 48
internal_value=-1.00945 -0.988511 -1.00773 -0.981595 -1.04649 -1.02325 -1.07392 -0.949912
internal_weight=0 111.177 86.1618 59.41 82.6875 45.1655 37.5221 40.6489
internal_count=558 320 248 171 238 130 108 117
is_linear=0
shrinkage=1


Tree=2
num_leaves=9
num_cat=0
split_feature=0 46 14 60 31 53 30 69
split_gain=30.1906 12.2452 8.98211 9.08003 5.87849 4.7993 3.87868 1.85746
threshold=89.26897015624948 -0.48786418164116746 0.011367911849507919 18568.000000000004 -0.00017139677061791544 30.654749014141171 0.0091085724881807741 0.32136756796667693
decision_type=2 2 2 2 2 2 2 2
left_child=4 5 6 -4 -1 -2 -3 -6
right_child=1 2 3 -5 7 -7 -8 -9
leaf_value=-0.81763911088386687 -0.71362940566318223 -0.80948504021800005 -0.72979516767947861 -0.82315067560953703 -0.90734553027892606 -0.77328326003863124 -0.86880653251110518 -0.8602392044856999
leaf_weight=19.274216532707214 28.911324799060822 31.505930870771408 25.204744696617126 17.420926481485367 21.127506583929062 27.799350768327713 17.420926481485367 18.162242501974106
leaf_count=52 78 85 68 47 57 75 47 49
internal_value=-0.806992 -0.779031 -0.801908 -0.768199 -0.86397 -0.742457 -0.831019 -0.886215
internal_weight=0 148.263 91.5525 42.6257 58.564 56.7107 48.9269 39.2897
internal_count=558 400 247 115 158 153 132 106
is_linear=0
shrinkage=1


Tree=3
num_leaves=9
num_cat=0
split_feature=8 31 12 63 5 11 66 33
split_gain=81.3644 6.22009 3.80877 1.6201 2.18661 0.906683 1.73499 0.797536
threshold=130.50000000000003 -0.00023426379459271429 -0.00089344162730514698 0.58667047790239224 3743.5000000000005 -0.017903411512791453 0.035788657622966354 0.0070537354562155551
decision_type=2 2 2 2 2 2 2 2
left_child=1 -1 -3 4 -2 -5 7 -7
right_child=3 2 -4 5 -6 6 -8 -9
leaf_value=0.060455455268072167 -0.057305325606193953 0.19287726707014488 0.10870272201924369 -0.080075009346591841 0.00058707362262205647 -0.079662359292772461 -0.023252984955447507 -0.040049898931510418
leaf_weight=12.20974589884281 13.202197790145876 12.398325800895691 13.262330994009972 20.416524559259415 11.968163087964056 18.835339814424518 15.82552833855152 10.24008587002754
leaf_count=48 59 47 52 93 53 87 72 47
internal_value=0 0.122407 0.150812 -0.0523781 -0.0293852 -0.0609354 -0.0516805 -0.066472
internal_weight=0 37.8704 25.6607 90.4878 25.1704 65.3175 44.901 29.0754
internal_count=558 147 99 411 112 299 206 134
is_linear=0
shrinkage=0.100287


Tree=4
num_leaves=9
num_cat=0
split_feature=39 65 45 29 45 51 66 22
split_gain=13.1725 11.0109 11.0423 10.6842 4.5134 6.66336 4.12627 3.50507
threshold=-0.20148344577342658 8.3186458814298267e-05 -2.612446773011492 0.01064158529293875 -0.017240178352897692 0.27913227054784623 0.016515549331743495 0.004297376694916367
decision_type=2 2 2 2 2 2 2 2
left_child=1 2 3 7 5 -2 -6 -1
right_child=4 -3 -4 -5 6 -7 -8 -9
leaf_value=0.023287481248652035 0.037351017148729987 0.076410587562492444 -0.052270033040337026 -0.037171463912507474 -0.090047034088819464 -0.042137809809233671 -0.020636093824869847 0.083057873976163488
leaf_weight=20.494664400815964 16.699812144041061 25.710916072130203 26.247866898775101 18.489104330539703 20.488456666469574 28.099579274654388 16.045164197683334 20.853637456893921
leaf_count=58 48 72 77 54 61 82 47 59
internal_value=0 0.0190163 0.00160729 0.0255472 -0.0339683 -0.0121684 -0.0601567 0.0539639
internal_weight=0 111.796 86.0853 59.8374 81.333 44.7994 36.5336 41.3483
internal_count=558 320 248 171 238 130 108 117
is_linear=0
shrinkage=0.100287


Tree=5
num_leaves=9
num_cat=0
split_feature=51 46 53 43 53 66 44 69
split_gain=28.6874 10.4729 7.00986 6.24632 4.64616 4.29977 3.41983 1.72842
threshold=0.31744767292705711 -0.48786418164116746 32.267825312100371 52.671906909226649 30.654749014141171 0.022388386674153941 -0.14270120466942868 2.3050923746927321
decision_type=2 2 2 2 2 2 2 2
left_child=6 4 3 5 -2 -3 -1 -4
right_child=1 2 7 -5 -6 -7 -8 -9
leaf_value=-0.093309369961133565 0.084371151576499062 0.028664327129250506 -0.054798429610230501 0.058385879186973612 0.028338380662443211 -0.039762878022948839 -0.035377995573957939 -0.0096068400748721399
leaf_weight=24.423319101333618 29.567802399396896 18.827968090772629 17.683294862508774 27.909102737903595 32.355161428451538 17.741734832525253 19.830254316329956 18.143723487854004
leaf_count=67 79 51 48 75 87 48 54 49
internal_value=0 0.0230722 0.00288407 0.0227586 0.0554607 -0.0041778 -0.0678758 -0.0324395
internal_weight=0 162.229 100.306 64.4788 61.923 36.5697 44.2536 35.827
internal_count=558 437 271 174 166 99 121 97
is_linear=0
shrinkage=0.100287


Tree=6
num_leaves=8
num_cat=0
split_feature=8 47 13 60 35 35 40
split_gain=64.6557 6.76913 6.23053 3.38511 1.51723 0.562096 0.50565
threshold=130.50000000000003 69.52378190730461 -0.0078711647333363759 18663.500000000004 -0.0037836695130390409 0.00276556647526731 -0.0027434502658799649
decision_type=2 2 2 2 2 2 2
left_child=1 2 -1 4 -2 6 -6
right_child=3 -3 -4 -5 5 -7 -8
leaf_value=0.079478366181012186 -0.026290343787083691 0.04275905079287369 0.17924379468811924 -0.0052025053812777642 -0.047455609669225081 -0.045942906891681616 -0.079553624238448528
leaf_weight=13.500837445259092 13.274627402424811 13.770200520753859 13.901384621858599 14.717174053192137 9.8037362843751819 15.130361527204512 33.596906974911697
leaf_count=48 63 52 47 68 47 72 161
internal_value=0 0.102298 0.131308 -0.0501402 -0.059125 -0.0662453 -0.072816
internal_weight=0 41.1724 27.4022 86.5228 71.8056 58.531 43.4006
internal_count=558 147 95 411 343 280 208
is_linear=0
shrinkage=0.100287


Tree=7
num_leaves=10
num_cat=0
split_feature=39 46 43 28 53 63 47 68 68
split_gain=11.1831 9.8246 5.93321 5.61291 4.0024 3.87652 3.84531 3.83495 5.11012
threshold=-0.0089693615060614847 -1.0123141231445507 52.401975709349124 0.010703377134149124 29.84186452623667 0.94963277814097358 93.846822518345633 3.2721721614854318e-05 -3.7481769062266523e-05
decision_type=2 2 2 2 2 2 2 2 2
left_child=1 5 7 4 -2 -1 -4 8 -3
right_child=3 2 6 -5 -6 -7 -8 -9 -10
leaf_value=-0.063794553471428872 -0.086287118524720929 0.053795623296759992 -0.040428112977326791 0.0072129262170800611 -0.020011976372873261 0.0025719253278911986 0.028177671055604297 0.085145316533542612 -0.013711455591624235
leaf_weight=18.608948409557343 24.122306942939758 32.485985964536667 16.314326912164688 17.236261785030365 15.932644158601759 15.999089211225508 16.10863795876503 18.439624518156052 16.714700788259506
leaf_count=55 73 92 48 51 47 47 46 52 47
internal_value=0 0.0129404 0.0289374 -0.039883 -0.0604491 -0.0328325 -0.00593932 0.0458383 0.0306056
internal_weight=0 134.671 100.063 57.2912 40.055 34.608 32.423 67.6403 49.2007
internal_count=558 387 285 171 120 102 94 191 139
is_linear=0
shrinkage=0.100287


Tree=8
num_leaves=9
num_cat=0
split_feature=51 46 53 45 52 30 22 44
split_gain=23.7253 8.62753 5.94222 5.13101 4.11859 5.32355 3.74672 2.92469
threshold=0.31744767292705711 -0.48786418164116746 32.267825312100371 -1.9551878800370075 -69.207435955540106 0.0087183295830822651 0.0014395533516328165 -0.14270120466942868
decision_type=2 2 2 2 2 2 2 2
left_child=7 4 3 -3 5 -2 -4 -1
right_child=1 2 6 -5 -6 -7 -8 -9
leaf_value=-0.086499291583163954 0.066814662375069778 -0.0085720680099388765 0.0026225977212972098 0.047658139715160135 0.085757781576167189 -0.0052801918983193825 -0.061585896693942453 -0.032355842320867183
leaf_weight=23.729851901531219 20.183053255081177 30.641686022281647 17.271596193313599 33.840389639139175 21.661962181329727 20.16471791267395 18.326426327228546 19.666028499603271
leaf_count=67 54 83 47 91 58 54 50 54
internal_value=0 0.020869 0.0024912 0.0207631 0.0502254 0.0305521 -0.0301613 -0.0624834
internal_weight=0 162.09 100.08 64.4821 62.0097 40.3478 35.598 43.3959
internal_count=558 437 271 174 166 108 97 121
is_linear=0
shrinkage=0.100287


Tree=9
num_leaves=8
num_cat=0
split_feature=8 23 60 40 35 19 12
split_gain=52.7108 5.91102 3.23617 2.8602 1.48982 0.777879 1.08056
threshold=130.50000000000003 -0.04835937156913233 18663.500000000004 -5.2575254193720771e-05 -0.0037836695130390409 -0.64117139237561804 -0.013931190099064626
decision_type=2 2 2 2 2 2 2
left_child=1 -1 4 -3 -2 -6 -7
right_child=2 3 -4 -5 5 6 -8
leaf_value=0.031414123759333022 -0.024297716595688083 0.077379392768082131 -0.0039270013430662207 0.14427820784817705 -0.078200729011254869 -0.024142102248770968 -0.06687351779809797
leaf_weight=13.693012982606886 12.918316081166266 14.490751415491102 14.519965142011641 15.485599726438524 26.527378112077709 11.186584979295729 17.770167082548149
leaf_count=47 63 48 68 52 135 56 89
internal_value=0 0.0879064 -0.0480283 0.112958 -0.0571556 -0.0644663 -0.0510598
internal_weight=0 43.6694 82.9224 29.9764 68.4024 55.4841 28.9568
internal_count=558 147 411 100 343 280 145
is_linear=0
shrinkage=0.100287


Tree=10
num_leaves=9
num_cat=0
split_feature=7 46 0 69 12 28 53 28
split_gain=10.3783 6.31868 9.3366 8.79414 4.26922 3.8807 3.30251 1.3308
threshold=1242.5000000000002 1.7061976636945728 114.12952443096317 1.352919542081094 -0.02271293087167919 0.010703377134149124 32.748041851961624 0.0070733678154072943
decision_type=2 2 2 2 2 2 2 2
left_child=5 2 3 -2 -4 6 7 -1
right_child=1 -3 4 -5 -6 -7 -8 -9
leaf_value=-0.041759731443063608 -0.01231234871897431 0.069569553375249601 0.0033780188110051146 0.072217380603190148 -0.060099821381581063 0 -0.012396526687712276 -0.085722473912287572
leaf_weight=15.491867482662199 21.368175387382507 19.236551493406296 20.578548789024353 28.366953104734421 21.073186874389648 27.94452315568924 19.606418877840042 17.107615083456039
leaf_count=47 62 54 61 80 62 82 57 53
internal_value=0 0.0174934 0.00628103 0.0356916 -0.0285035 -0.0298425 -0.0459494 -0.0655496
internal_weight=0 110.623 91.3869 49.7351 41.6517 80.1504 52.2059 32.5995
internal_count=558 319 265 142 123 239 157 100
is_linear=0
shrinkage=0.100287


Tree=11
num_leaves=9
num_cat=0
split_feature=51 65 16 41 10 18 69 28
split_gain=19.8584 7.97918 9.21482 5.83527 5.41777 6.03884 3.05873 2.61801
threshold=0.30478123627150694 8.3186458814298267e-05 -0.46072840321277408 0.60304396051512887 84.500000000000014 -0.54431189570292127 0.28149226870983229 0.0079385209249520274
decision_type=2 2 2 2 2 2 2 2
left_child=6 2 -2 -3 5 -4 -1 -6
right_child=1 3 4 -5 7 -7 -8 -9
leaf_value=-0.087203334602104013 -0.028726454931495841 0.024702268427533425 -0.013440876922720116 -0.049468270317866797 0.089804338682147267 0.058794863435481799 -0.03017438163292319 0.043495582636962099
leaf_weight=20.680128931999207 20.631265044212341 18.003034561872482 25.569455564022064 25.225758522748947 25.693633586168289 20.806606948375702 19.60862985253334 27.888567179441452
leaf_count=59 56 49 69 69 69 56 56 75
internal_value=0 0.0184378 0.0317221 -0.0182772 0.0443634 0.018752 -0.0600118 0.0661537
internal_weight=0 163.818 120.59 43.2288 99.9583 46.3761 40.2888 53.5822
internal_count=558 443 325 118 269 125 115 144
is_linear=0
shrinkage=0.100287


Tree=12
num_leaves=7
num_cat=0
split_feature=4 10 36 65 69 38
split_gain=47.2331 7.70163 2.07756 2.4315 1.25048 0.634379
threshold=414.50000000000006 82.500000000000014 1.0121424687519609 3.6690179068821833e-05 0.88780472850843206 438.2007467630977
decision_type=2 2 2 2 2 2
left_child=1 -1 4 -4 -2 -6
right_child=2 -3 3 -5 5 -7
leaf_value=0.11940817246769725 -0.028556380546703036 0.038023872273487969 -0.059647689588725718 0.0016169994901532581 -0.078006022323995172 -0.042138793772233868
leaf_weight=21.341600134968758 10.156578585505484 27.702103108167648 11.777673602104189 13.39579702913761 33.410114377737045 8.8421111553907377
leaf_count=70 51 91 62 67 175 47
internal_value=0 0.0739831 -0.0515749 -0.0266776 -0.0631551 -0.0710089
internal_weight=0 49.0437 77.5823 25.1735 52.4088 42.2522
internal_count=563 161 402 129 273 222
is_linear=0
shrinkage=0.100287


Tree=13
num_leaves=9
num_cat=0
split_feature=7 53 31 53 51 41 29 46
split_gain=10.4044 6.94933 8.99559 5.36077 5.17743 6.61129 3.9517 1.89445
threshold=1245.5000000000002 36.266890635184623 -9.0136059366894734e-05 50.608372380862455 0.28253881115750062 2.4065458702674865 0.0098687765763672639 0.057380563575383244
decision_type=2 2 2 2 2 2 2 2
left_child=4 2 -2 -3 -1 7 -4 -6
right_child=1 3 6 -5 5 -7 -8 -9
leaf_value=0.013658318081327002 0.050500392679797813 0.10077121322043119 -0.055315859069126082 0.020876532303976163 -0.082137389466965305 0.010933813237939681 0.0052974640082795897 -0.033659543618465161
leaf_weight=28.210386604070663 30.103625565767288 18.149533808231354 18.661124348640442 16.855533599853516 21.913299441337585 17.698756009340286 24.535365492105484 15.351116031408308
leaf_count=84 87 51 55 48 69 51 71 47
internal_value=0 0.0262354 0.00841418 0.0629561 -0.0208531 -0.03881 -0.0206659 -0.0627596
internal_weight=0 108.305 73.3001 35.0051 83.1736 54.9632 43.1965 37.2644
internal_count=563 312 213 99 251 167 126 116
is_linear=0
shrinkage=0.100287


Tree=14
num_leaves=9
num_cat=0
split_feature=51 53 39 15 45 51 39 39
split_gain=17.6287 7.7477 6.89325 6.02733 4.9953 5.81096 2.98838 2.2594
threshold=1.7695075964835285 36.266890635184623 -0.93299119366519612 -0.10470945941883929 -0.209589041046393 0.29189735843463321 -0.19392044641774384 -0.38772344554918314
decision_type=2 2 2 2 2 2 2 2
left_child=4 2 -2 -3 7 -6 -4 -1
right_child=1 3 6 -5 5 -7 -8 -9
leaf_value=-0.030583907163539883 -0.010629728192032412 0.016870623227136478 0.077193468518738331 -0.058226230242542018 -0.048779060932416192 0.031074222872751491 0.028842465650808457 -0.077718311837919385
leaf_weight=17.92775747179985 19.382243782281876 27.411444753408432 33.766740411520004 17.317885994911194 18.982462704181671 17.279767632484436 23.019845902919769 29.52543631196022
leaf_count=49 53 74 91 47 54 47 62 86
internal_value=0 0.0208739 0.0403426 -0.0119904 -0.038932 -0.0103707 0.0579689 -0.0603602
internal_weight=0 120.898 76.1688 44.7293 83.7154 36.2622 56.7866 47.4532
internal_count=563 327 206 121 236 101 153 135
is_linear=0
shrinkage=0.100287


Tree=15
num_leaves=8
num_cat=0
split_feature=8 33 35 27 60 39 61
split_gain=40.3378 5.04138 2.85586 2.03543 2.03593 0.821448 0.409037
threshold=130.50000000000003 0.03109888456661437 0.0011569199102040018 0.018187866632158833 18831.500000000004 -0.18279889001300545 2793309.7557086702
decision_type=2 2 2 2 2 2 2
left_child=1 2 -1 4 5 6 -2
right_child=3 -3 -4 -5 -6 -7 -8
leaf_value=0.075373488491447121 -0.076906055621783653 0.11583658941524078 0.015940669067148736 -0.0041922516427562763 -0.013292619221775872 -0.037321055909896657 -0.048028600975786463
leaf_weight=16.269421368837357 32.024267956614494 15.216549158096312 17.782349705696106 9.6220723986625654 10.70928157866001 12.648131936788557 10.805233374238012
leaf_count=49 179 47 57 51 52 68 60
internal_value=0 0.0674199 0.0449557 -0.0489726 -0.0552465 -0.0630344 -0.0701427
internal_weight=0 49.2683 34.0518 75.809 66.1869 55.4776 42.8295
internal_count=563 153 106 410 359 307 239
is_linear=0
shrinkage=0.100287


Tree=16
num_leaves=9
num_cat=0
split_feature=9 51 39 54 51 16 28 46
split_gain=8.44317 8.44339 10.706 6.43841 6.71823 4.11938 4.40745 2.40801
threshold=643018.00000000012 1.786437513401014 -0.9982222653959455 49.410809661976508 0.28253881115750062 -0.46072840321277408 0.0081893332539613572 0.10364192604919877
decision_type=2 2 2 2 2 2 2 2
left_child=3 -2 -3 4 -1 -4 -7 -5
right_child=1 2 5 7 -6 6 -8 -9
leaf_value=0.056046701312185379 0.071513464036375471 0.076557835996284851 0.031668690948684221 -0.081913008329597858 -0.028053334921378507 -0.05302297875463053 0.0032097286416164542 -0.026702351792033726
leaf_weight=16.030570030212402 26.669253945350647 17.868887901306152 17.883108168840408 15.89118918776512 23.024082094430923 26.237823992967606 28.936108589172363 18.243965893983841
leaf_count=47 75 49 50 51 70 81 86 54
internal_value=0 0.0220049 0.00723462 -0.0213054 0.00619198 -0.00965277 -0.0233499 -0.0530632
internal_weight=0 117.595 90.9259 73.1898 39.0547 73.057 55.1739 34.1352
internal_count=563 341 266 222 117 217 167 105
is_linear=0
shrinkage=0.100287


Tree=17
num_leaves=10
num_cat=0
split_feature=51 32 35 40 41 67 15 44 40
split_gain=14.6851 4.64227 5.38171 4.7218 4.26654 6.30164 4.24977 3.62796 2.67225
threshold=1.7695075964835285 -0.74305399433948038 0.00065723711941211287 -0.0013806576450189343 0.026266780325912346 1.7386588280637036e-06 -0.22722846139299988 -2.6118677522023783 -5.3155858368791879e-05
decision_type=2 2 2 2 2 2 2 2 2
left_child=4 -2 3 6 -1 -6 -3 -4 -7
right_child=1 2 7 -5 5 8 -8 -9 -10
leaf_value=0.0067300978762459517 0.058520164629188694 0.011206386313164514 -0.054175944799568658 -0.010391453743127407 -0.0027892345710168794 -0.094371222906173266 0.077831787124543902 0.0095427856348376215 -0.041950059268028514
leaf_weight=17.96440514922142 24.054448336362839 18.498519033193588 17.509215086698532 21.339921176433563 21.496228337287903 22.473855465650558 21.425671726465225 17.597601890563965 20.370192229747772
leaf_count=51 65 50 48 58 59 65 58 48 61
internal_value=0 0.0191434 0.00909279 0.0271116 -0.0357595 -0.0478286 0.0474712 -0.0219345 -0.0700102
internal_weight=0 120.425 96.3709 61.2641 82.3047 64.3403 39.9242 35.1068 42.844
internal_count=563 327 262 166 236 185 108 96 126
is_linear=0
shrinkage=0.100287


Tree=18
num_leaves=8
num_cat=0
split_feature=8 43 21 28 33 53 60
split_gain=33.8048 4.67916 4.50021 2.39365 1.95388 2.94053 0.401136
threshold=130.50000000000003 52.078805583218774 -0.013019372653924164 0.015956413723070096 0.0059393964651739128 29.491182838078 18568.000000000004
decision_type=2 2 2 2 2 2 2
left_child=1 2 -1 4 6 -6 -2
right_child=3 -3 -4 -5 5 -7 -8
leaf_value=-0.002535404810955598 -0.073001852133658576 0.09895851182205806 0.07213106540677576 0.00063955975097350641 0.0043848744128086514 -0.066704757378373489 -0.042160488384620498
leaf_weight=15.656143903732302 32.561634406447411 19.111651867628098 15.94478991627693 8.7255065590143186 11.969136700034143 10.66669426858425 8.6306822896003705
leaf_count=48 194 57 48 48 66 58 44
internal_value=0 0.0595163 0.0348613 -0.047056 -0.0537816 -0.0287197 -0.067058
internal_weight=0 50.7126 31.6009 72.5537 63.8281 22.6358 41.1923
internal_count=563 153 96 410 362 124 238
is_linear=0
shrinkage=0.100287


Tree=19
num_leaves=9
num_cat=0
split_feature=7 65 65 39 60 45 53 30
split_gain=7.87182 5.74157 9.45298 4.45352 3.60922 3.1592 4.82405 5.11107
threshold=1245.5000000000002 3.323222559329768e-05 8.2953789579042248e-05 -0.79029873179666843 -400.49999999999994 -0.017240178352897692 20.6945657876831 0.0096957670994769294
decision_type=2 2 2 2 2 2 2 2
left_child=5 3 4 -2 -3 6 -1 -8
right_child=1 2 -4 -5 -6 -7 7 -9
leaf_value=0.035246295544705715 0.092424579209776619 0.0073560657568466341 0.052697181643607406 0.017524640667122456 -0.047783598386916336 -0.052739787309956869 0.00048921413713995659 -0.070958181223362962
leaf_weight=18.618774443864822 17.369493275880814 23.044713318347931 28.420238137245178 15.828508406877516 23.745105147361755 20.308426976203918 26.775116115808487 15.624504834413527
leaf_count=56 47 68 78 48 71 68 78 49
internal_value=0 0.0226782 0.00709139 0.0573762 -0.0203914 -0.018529 -0.00681065 -0.0256687
internal_weight=0 108.408 75.2101 33.198 46.7898 81.3268 61.0184 42.3996
internal_count=563 312 217 95 139 251 183 127
is_linear=0
shrinkage=0.100287


Tree=20
num_leaves=9
num_cat=0
split_feature=51 34 45 51 40 15 23 67
split_gain=11.7033 5.74093 4.35582 4.62005 3.97287 6.26763 2.67464 2.22108
threshold=1.7695075964835285 0.0049580234600430442 -0.209589041046393 0.29189735843463321 -0.0014535555845166523 -0.27123726060246439 0.0085460774560266479 1.763130948711065e-06
decision_type=2 2 2 2 2 2 2 2
left_child=2 4 7 -4 5 -2 -7 -1
right_child=1 -3 3 -5 -6 6 -8 -9
leaf_value=-0.022932150111514248 -0.0010694770310998713 -0.031916891126914836 -0.040791621407125216 0.031233345229585218 -0.0009919287301532651 0.041854608311173949 0.094471751541815668 -0.070336611791619194
leaf_weight=17.266275644302368 22.830307573080063 19.681500226259232 18.197624772787094 17.236469656229019 33.2922343313694 26.768379300832748 17.248923480510712 28.156896024942398
leaf_count=48 62 54 54 47 91 73 47 87
internal_value=0 0.0171018 -0.0322188 -0.00537764 0.0269096 0.0409858 0.0630451 -0.0527616
internal_weight=0 119.821 80.8573 35.4341 100.14 66.8476 44.0173 45.4232
internal_count=563 327 236 101 273 182 120 135
is_linear=0
shrinkage=0.100287


Tree=21
num_leaves=8
num_cat=0
split_feature=8 43 21 28 36 4 33
split_gain=28.1713 3.86677 3.74361 2.30564 1.99152 2.53413 0.294894
threshold=130.50000000000003 52.078805583218774 -0.013019372653924164 0.015956413723070096 1.0121424687519609 4223.5000000000009 -0.014805497059651463
decision_type=2 2 2 2 2 2 2
left_child=1 2 -1 4 6 -6 -2
right_child=3 -3 -4 -5 5 -7 -8
leaf_value=-0.0040789411041271522 -0.045453580311903614 0.087568395420888873 0.063389757981913236 0.0018396130544145203 -0.064547468012839476 0.003114177601481105 -0.072198368204988317
leaf_weight=15.766570955514906 10.18747767806053 19.736016690731049 16.404560416936874 8.6088864952325803 9.5679006725549716 12.140028581023214 28.926512964069843
leaf_count=48 61 57 48 48 55 67 179
internal_value=0 0.0523659 0.0300261 -0.0451599 -0.0520306 -0.0263068 -0.0657927
internal_weight=0 51.9071 32.1711 69.4308 60.8219 21.7079 39.114
internal_count=563 153 96 410 362 122 240
is_linear=0
shrinkage=0.100287


Tree=22
num_leaves=8
num_cat=0
split_feature=20 43 68 60 6 52 33
split_gain=6.91352 3.89749 3.23031 4.45199 4.34479 3.74034 3.07763
threshold=-0.059758214769647704 29.937371296667028 3.2721721614854318e-05 -189.99999999999997 1740.5000000000002 -56.426151089352409 0.00098614064542153278
decision_type=2 2 2 2 2 2 2
left_child=-1 -2 3 5 6 -3 -4
right_child=1 2 4 -5 -6 -7 -8
leaf_value=-0.061633781718416623 0.042857254890350173 -0.014784023377885825 -0.031281236989218641 -0.041090523180800108 0.060834463456829177 0.036841162086689333 0.025773173611488613
leaf_weight=14.394191354513167 30.363593757152557 32.720478177070618 15.946414738893507 28.789800599217415 18.929389476776123 24.362671822309494 22.968295872211456
leaf_count=46 87 102 48 87 54 71 68
internal_value=0 0.0102669 0.00324594 -0.00897495 0.0216067 0.00704317 0.0020034
internal_weight=0 174.081 143.717 85.873 57.8441 57.0831 38.9147
internal_count=563 517 430 260 170 173 116
is_linear=0
shrinkage=0.100287


Tree=23
num_leaves=9
num_cat=0
split_feature=1 21 18 4 41 35 27 61
split_gain=9.98958 5.06559 4.06326 4.12996 5.64192 4.68159 3.48211 2.32166
threshold=89.268222532767069 -0.010822219010405696 4.3062843695181785 4204.5000000000009 2.4634058665468372 -4.951527535074183e-05 0.010766747394692229 1072132.405797021
decision_type=2 2 2 2 2 2 2 2
left_child=1 -1 3 4 -2 6 -5 -7
right_child=2 -3 -4 5 -6 7 -8 -9
leaf_value=-0.0080927259894589855 0.06465279332768338 -0.071126999820988149 0.055310534324269085 -0.010303995046621391 -0.0081052229684456002 -0.062752493611351809 0.042676958700877628 -0.010073766903464393
leaf_weight=26.243144452571869 22.421343237161636 26.106684774160385 18.170776814222336 29.707115411758423 19.776272058486938 16.943227410316467 20.962941229343414 18.181255280971527
leaf_count=80 62 80 50 82 54 47 58 50
internal_value=0 -0.0399099 0.0110669 0.00461809 0.0303157 -0.007889 0.0114007 -0.0360434
internal_weight=0 52.3498 146.163 127.992 42.1976 85.7945 50.6701 35.1245
internal_count=563 160 403 353 116 237 140 97
is_linear=0
shrinkage=0.100287


Tree=24
num_leaves=8
num_cat=0
split_feature=1 43 14 60 12 32 10
split_gain=21.5401 4.78659 3.03107 1.96067 1.95465 1.20502 0.162272
threshold=89.564243900684332 52.078805583218774 -0.0093505366865086464 18663.500000000004 -0.065800855370414621 2.996198370925311 69.500000000000014
decision_type=2 2 2 2 2 2 2
left_child=1 2 -1 4 -2 6 -6
right_child=3 -3 -4 -5 5 -7 -8
leaf_value=0.049887310830235516 -0.014616845887779097 0.085388853696317907 -0.0096920796584766267 -0.0033342608292125774 -0.049288684345299781 -0.021430758251251382 -0.075691420169609308
leaf_weight=17.886520937085152 13.346068084239958 19.10666036605835 15.693689122796057 12.123152673244475 8.1996965855360049 7.5548636317253104 23.463221535086632
leaf_count=60 86 56 47 64 51 47 149
internal_value=0 0.0452464 0.0217083 -0.0410037 -0.0493907 -0.0607658 -0.069563
internal_weight=0 52.6869 33.5802 64.687 52.5638 39.2178 31.6629
internal_count=560 163 107 397 333 247 200
is_linear=0
shrinkage=0.100287


Tree=25
num_leaves=9
num_cat=0
split_feature=30 5 54 60 5 41 64 30
split_gain=8.80472 5.62042 5.06882 4.84703 3.79343 4.54896 3.24813 0.743241
threshold=0.0047554458838891473 1676.5000000000002 63.542173611661404 -167.99999999999997 154.50000000000003 2.3930549234003666 1.0968967744019327 0.0089014571918645622
decision_type=2 2 2 2 2 2 2 2
left_child=-1 4 3 6 -2 7 -3 -6
right_child=1 2 -4 -5 5 -7 -8 -9
leaf_value=0.051623189085168393 0.0032040521073856323 -0.0091006974594308853 0.057471842466632159 -0.036099589992321643 -0.0865069707380315 -0.0035564463374773464 0.045577041715688035 -0.049872310543022116
leaf_weight=29.381836339831352 23.632716044783592 21.479608237743378 17.194113552570343 27.19363209605217 14.993908762931826 17.272824615240097 21.31500318646431 14.862779721617697
leaf_count=85 77 62 49 79 50 49 62 47
internal_value=0 -0.00801755 0.00889952 -0.00293166 -0.0290326 -0.0454528 0.0178709 -0.0690824
internal_weight=0 157.945 87.1824 69.9882 70.7622 47.1295 42.7946 29.8567
internal_count=560 475 252 203 223 146 124 97
is_linear=0
shrinkage=0.100287


Tree=26
num_leaves=10
num_cat=0
split_feature=51 45 28 29 39 27 31 60 37
split_gain=9.49621 4.92193 7.84535 5.30455 3.93377 3.36326 2.99474 2.38059 1.75381
threshold=0.28585935646245619 -1.7886635239414279 0.0082918872304525385 0.010495907509058619 -0.78874215203550768 0.0068671032266755666 0.00015180658116551777 -40.499999999999993 0.00033262666531838457
decision_type=2 2 2 2 2 2 2 2 2
left_child=-1 3 7 5 -5 8 -4 -3 -2
right_child=1 2 6 4 -6 -7 -8 -9 -10
leaf_value=-0.056323731885839584 0.016938361924574419 0.089246223880900741 -0.03381479874685276 0.057806513142363666 -0.0080405527646560133 -0.055789017388428529 0.020609943092748696 0.034772552735150605 -0.02709928139297749
leaf_weight=25.914434269070625 17.026915103197098 17.334056973457336 17.220038205385208 17.290679275989532 18.403876394033432 22.384946286678314 24.270329058170319 17.775755554437637 18.803290814161301
leaf_count=84 47 48 48 47 52 63 69 49 53
internal_value=0 0.00866592 0.0275417 -0.00660101 0.0235742 -0.0253567 -0.00168207 0.0623332 -0.00579871
internal_weight=0 170.51 76.6002 93.9097 35.6946 58.2152 41.4904 35.1098 35.8302
internal_count=560 476 214 262 99 163 117 97 100
is_linear=0
shrinkage=0.100287


Tree=27
num_leaves=7
num_cat=0
split_feature=8 31 38 23 12 35
split_gain=18.8651 4.01367 5.62886 2.25597 1.64557 2.05913
threshold=1194.0000000000002 -0.00025920970635953769 168.61240889237348 -0.013197516672278918 -0.072516413808071209 0.0012331551200050297
decision_type=2 2 2 2 2 2
left_child=1 -1 -3 -2 -5 -6
right_child=3 2 -4 4 5 -7
leaf_value=-0.0035676215114329082 0 0.020562517994966421 0.097446003513042057 -0.0095331034320356202 -0.074988831930846309 -0.025202392166098871
leaf_weight=14.388988919556139 11.978005491197107 20.94355309009552 18.61613729596138 9.3163425102829915 26.547641351819038 13.930550843477247
leaf_count=45 75 63 56 61 173 87
internal_value=0 0.0408638 0.0573303 -0.0401845 -0.0495613 -0.0583585
internal_weight=0 53.9487 39.5597 61.7725 49.7945 40.4782
internal_count=560 164 119 396 321 260
is_linear=0
shrinkage=0.100287


Tree=28
num_leaves=9
num_cat=0
split_feature=21 29 45 37 65 35 45 31
split_gain=4.99922 5.93197 6.01156 5.11577 4.09068 4.95899 3.47889 2.10699
threshold=-0.045911513533788688 0.007325734291023219 -4.1926123331577037 0.0070846427806210985 8.2953789579042248e-05 -0.0012450966959761222 -1.478140069007613 0.00026690614472242032
decision_type=2 2 2 2 2 2 2 2
left_child=-1 2 -2 4 5 -3 -5 -6
right_child=1 3 -4 6 7 -7 -8 -9
leaf_value=-0.051450494324976878 0.082556915725960703 -0.042391591342886586 0.0068630990781102085 -0.0038996316617589013 0.05678746638971538 0.020488899904163548 -0.064209461790436753 0.0070141672796430196
leaf_weight=16.279893055558205 17.937734991312027 23.932138845324516 26.494983196258545 19.727412015199661 19.713602244853973 26.053448513150215 19.701787874102592 16.360418796539307
leaf_count=54 49 74 83 57 55 78 63 47
internal_value=0 0.0064555 0.037913 -0.00460347 0.00897705 -0.00937421 -0.0345203 0.0347256
internal_weight=0 169.922 44.4327 125.489 86.0596 49.9856 39.4292 36.074
internal_count=560 506 132 374 254 152 120 102
is_linear=0
shrinkage=0.100287


Tree=29
num_leaves=8
num_cat=0
split_feature=1 66 1 16 65 28 69
split_gain=7.79837 5.83099 5.74147 4.88068 5.42135 3.84206 2.76163
threshold=89.268222532767069 0.020744632006327868 114.75609305658912 -0.46072840321277408 2.5572622324820503e-05 0.0092436071583803011 0.28149226870983229
decision_type=2 2 2 2 2 2 2
left_child=6 5 -3 -4 -5 -2 -1
right_child=1 2 3 4 -6 -7 -8
leaf_value=-0.064055489231600274 0.077576546043220035 -0.040136842478710445 -0.032884646693432537 0.00014913328235089269 0.059291574812969962 0.012440554624793076 -0.014279084422588788
leaf_weight=19.454268425703049 18.82943257689476 26.971360445022583 17.770060181617737 36.320503026247025 27.804803043603897 18.791685491800308 28.713798463344574
leaf_count=64 52 76 49 101 77 53 88
internal_value=0 0.0116424 -8.44158e-06 0.0130861 0.0260912 0.0455936 -0.0348115
internal_weight=0 146.488 108.867 81.8954 64.1253 37.6211 48.1681
internal_count=560 408 303 227 178 105 152
is_linear=0
shrinkage=0.100287


Tree=30
num_leaves=7
num_cat=0
split_feature=7 47 67 23 63 12
split_gain=16.0042 3.47854 4.29979 3.16682 1.57277 0.825474
threshold=1214.5000000000002 68.027883699084086 7.6706872281830124e-06 -0.013197516672278918 0.58667047790239224 -0.067241059899626907
decision_type=2 2 2 2 2 2
left_child=1 2 -1 -2 -5 -6
right_child=3 -3 -4 4 5 -7
leaf_value=0.012164809916901123 0.0068069365472177906 0.0017330811015437227 0.082916140416012571 -0.021209901343009818 -0.029914137551848088 -0.073902805219881379
leaf_weight=15.741947717964647 10.644638001918791 21.970174267888069 20.694540500640869 12.869453601539133 6.9761916771531096 25.007422804832462
leaf_count=54 66 70 67 79 46 178
internal_value=0 0.0339534 0.0529098 -0.0411377 -0.0528125 -0.0649316
internal_weight=0 58.4067 36.4365 55.4977 44.8531 31.9836
internal_count=560 191 121 369 303 224
is_linear=0
shrinkage=0.100287


Tree=31
num_leaves=7
num_cat=0
split_feature=30 21 65 45 23 50
split_gain=6.57789 4.07824 3.51893 4.61508 4.69442 3.48348
threshold=0.0047554458838891473 -0.045911513533788688 0.0001090128074547405 -0.067855988419896276 0.0028943490467991943 1.7352123024577322
decision_type=2 2 2 2 2 2
left_child=-1 -2 3 4 -3 -5
right_child=1 2 -4 5 -6 -7
leaf_value=0.044640140880116128 -0.060390994387056252 0.026538943653045564 0.034772653445223289 -0.076256405181796799 -0.020121337146326804 -0.01054772536597157
leaf_weight=29.528660014271736 12.974574461579321 43.977993980050087 22.007600516080856 14.866043820977209 42.312619358301163 19.054006323218346
leaf_count=85 45 129 63 53 125 60
internal_value=0 -0.00687037 -0.0018299 -0.00868297 0.00350148 -0.0399691
internal_weight=0 155.193 142.218 120.211 86.2906 33.9201
internal_count=560 475 430 367 254 113
is_linear=0
shrinkage=0.100287


Tree=32
num_leaves=7
num_cat=0
split_feature=51 65 45 29 34 24
split_gain=7.27079 4.03744 6.69571 6.41425 4.31665 3.27513
threshold=0.28585935646245619 0.0001090128074547405 -1.7886635239414279 0.010943076306586601 -0.00088469169217679023 -1.0908223523918641
decision_type=2 2 2 2 2 2
left_child=-1 2 3 5 -4 -2
right_child=1 -3 4 -5 -6 -7
leaf_value=-0.050727709878576666 -0.0041601147264403449 -0.032569562554332146 0.009778730479554288 0.041345146272590061 0.063671221843617676 -0.052875553306641912
leaf_weight=24.427844271063805 41.614473342895508 21.523091793060303 28.711283713579178 22.378176093101501 32.86490124464035 21.256818205118179
leaf_count=84 118 62 81 62 92 61
internal_value=0 0.00765715 0.013677 -0.00438213 0.0388559 -0.0209413
internal_weight=0 168.349 146.826 85.2495 61.5762 62.8713
internal_count=560 476 414 241 173 179
is_linear=0
shrinkage=0.100287


Tree=33
num_leaves=7
num_cat=0
split_feature=7 10 23 14 63 12
split_gain=13.6378 3.23092 3.03103 2.65988 1.5436 0.831917
threshold=1214.5000000000002 87.500000000000014 -0.013197516672278918 -0.0089249225786685576 0.58667047790239224 -0.067241059899626907
decision_type=2 2 2 2 2 2
left_child=1 -1 -2 -3 -4 -6
right_child=2 3 4 -5 5 -7
leaf_value=0.055065689022829566 0.007500292559317015 0.038707786037518753 -0.0198136462049717 -0.019879731175210594 -0.028405147035610648 -0.073192910249175194
leaf_weight=28.13176104426384 10.565447703003882 14.531992435455324 12.607291728258131 16.18765315413475 6.7922799214720717 23.387770041823391
leaf_count=87 66 51 79 53 46 178
internal_value=0 0.0305238 -0.039373 0.00743444 -0.05126 -0.0637685
internal_weight=0 58.8514 53.3528 30.7196 42.7873 30.18
internal_count=560 191 369 104 303 224
is_linear=0
shrinkage=0.100287


Tree=34
num_leaves=8
num_cat=0
split_feature=20 30 37 0 64 66 45
split_gain=5.55317 6.44284 3.3345 4.32335 8.01396 4.61643 3.97769
threshold=-0.059758214769647704 0.0047554458838891473 0.0070846427806210985 114.5085680342119 1.8750793064211677 0.020944144548929962 -1.478140069007613
decision_type=2 2 2 2 2 2 2
left_child=-1 -2 3 5 -5 -3 -4
right_child=1 2 6 4 -6 -7 -8
leaf_value=-0.061265079943027802 0.051853789169850048 0.0056713519988872878 0.0058022511776623506 -0.04663501678812991 0.035275089703606689 0.069379780552553116 -0.053808481240967487
leaf_weight=13.073476046323774 26.134754359722137 32.83370777964592 21.108126312494278 29.181467860937119 20.048189997673035 17.897503107786179 23.015907153487206
leaf_count=46 74 100 61 89 62 51 77
internal_value=0 0.00617357 -0.0020606 0.00797068 -0.0129879 0.0285629 -0.0250525
internal_weight=0 170.22 144.085 99.9609 49.2297 50.7312 44.124
internal_count=560 514 440 302 151 151 138
is_linear=0
shrinkage=0.100287


Tree=35
num_leaves=8
num_cat=0
split_feature=51 53 22 46 30 28 14
split_gain=6.43295 3.71666 5.42254 3.65578 4.1701 5.26452 2.64638
threshold=0.28585935646245619 31.609970411060331 0.0025727725828569308 -0.42588062016001393 0.0058352752415241687 0.01091580381082327 -0.09331969026425195
decision_type=2 2 2 2 2 2 2
left_child=-1 3 6 -2 -5 -6 -3
right_child=1 2 -4 4 5 -7 -8
leaf_value=-0.04829791147844361 0.048003061709485241 -0.010226528624692963 -0.042733327488960297 -0.032005351552539918 0.050146240067783288 -0.014717356398294516 0.043652267664840004
leaf_weight=23.778731063008308 31.071341514587402 19.053512871265411 29.850158154964447 19.887444943189621 28.697759091854095 21.766021996736526 16.911922752857208
leaf_count=84 89 53 85 56 81 64 48
internal_value=0 0.00728758 -0.0111209 0.0193703 0.00644909 0.0219316 0.0147969
internal_weight=0 167.238 65.8156 101.423 70.3512 50.4638 35.9654
internal_count=560 476 186 290 201 145 101
is_linear=0
shrinkage=0.100287


Tree=36
num_leaves=7
num_cat=0
split_feature=63 17 10 65 31 33
split_gain=11.6104 2.70299 4.73881 3.07387 1.90528 1.11509
threshold=0.58667047790239224 0.54525449640646195 88.500000000000014 8.3644102003638677e-05 0.00026327860459324589 0.0083306666209330381
decision_type=2 2 2 2 2 2
left_child=1 2 -1 -4 5 -2
right_child=4 -3 3 -5 -6 -7
leaf_value=0.068179773890655104 -0.067887101828148597 -0.013810011380205368 0.036804670373370749 -0.026008726798774556 -0.0035545386987832737 -0.024095971533418241
leaf_weight=24.970493733882904 20.248843371868137 13.294874481856821 17.69505608826876 13.619023978710173 10.895273223519323 10.180933639407156
leaf_count=84 160 52 67 51 72 72
internal_value=0 0.0259823 0.0356422 0.00904615 -0.0410172 -0.0538872
internal_weight=0 69.5794 56.2846 31.3141 41.3251 30.4298
internal_count=558 254 202 118 304 232
is_linear=0
shrinkage=0.100287


Tree=37
num_leaves=7
num_cat=0
split_feature=13 15 9 51 23 19
split_gain=4.99692 4.26935 4.7453 3.15595 4.67702 2.50846
threshold=0.036280973179706362 -0.29884235312567553 828120.00000000012 0.26889533800881493 0.007359403951824107 2.2895792095798488
decision_type=2 2 2 2 2 2
left_child=1 -1 3 -3 -5 -2
right_child=5 2 -4 4 -6 -7
leaf_value=0.03895382397652028 0.054780129478352826 0.025993657729650583 -0.063683546251093084 0.00028909370140046937 -0.046953449771886764 0.0012201688268750537
leaf_weight=15.225299805402754 19.757708132266998 20.90658888220787 18.494147628545761 56.509476527571678 32.915956795215607 16.750803053379059
leaf_count=43 56 67 58 177 108 49
internal_value=0 -0.0107434 -0.0167647 -0.00869628 -0.0169934 0.0306956
internal_weight=0 144.051 128.826 110.332 89.4254 36.5085
internal_count=558 453 410 352 285 105
is_linear=0
shrinkage=0.100287


Tree=38
num_leaves=7
num_cat=0
split_feature=9 60 43 41 60 69
split_gain=6.99903 4.44186 4.40276 3.87397 3.75416 4.55638
threshold=192225.00000000003 8398.5000000000018 32.199198052743483 2.4352815103005017 -19037.499999999996 0.46378151988459076
decision_type=2 2 2 2 2 2
left_child=-1 2 -2 -3 -4 -6
right_child=1 3 4 -5 5 -7
leaf_value=-0.049570552762474136 -0.015202803463923489 -0.041899120328453547 -0.012204151220559178 0.01784107311023268 0 0.054780577307485138
leaf_weight=23.319235295057297 28.303828507661819 26.93973508477211 16.97900515794754 17.778730511665344 21.236071020364761 53.93109592795372
leaf_count=81 81 77 49 50 66 154
internal_value=0 0.0089335 0.0190055 -0.0178553 0.0296729 0.0393241
internal_weight=0 165.168 120.45 44.7185 92.1462 75.1672
internal_count=558 477 350 127 269 220
is_linear=0
shrinkage=0.100287


Tree=39
num_leaves=7
num_cat=0
split_feature=63 43 43 31 7 61
split_gain=10.1011 2.84263 3.59419 1.78383 1.16136 0.403789
threshold=0.58667047790239224 52.078805583218774 42.003840367365008 0.00026327860459324589 1233.5000000000002 2542817.9019383476
decision_type=2 2 2 2 2 2
left_child=1 2 -1 4 -2 -6
right_child=3 -3 -4 -5 5 -7
leaf_value=0.034512461959242922 -0.012772210947579632 0.050081258781457118 -0.022622801400219106 -0.0032851545511296191 -0.072184789698686858 -0.032958257933877154
leaf_weight=23.620904967188835 6.7022793218493488 25.907038033008575 20.350228779017925 10.839777126908301 16.857601083815101 5.3943328931927672
leaf_count=90 48 92 72 72 139 45
internal_value=0 0.0237284 0.00776468 -0.039463 -0.0524369 -0.0635898
internal_weight=0 69.8782 43.9711 39.794 28.9542 22.2519
internal_count=558 254 162 304 232 184
is_linear=0
shrinkage=0.100287


Tree=40
num_leaves=9
num_cat=0
split_feature=13 31 28 53 15 31 19 51
split_gain=4.0117 5.29515 5.61151 4.75081 4.63338 4.28555 2.06699 1.24248
threshold=0.036280973179706362 0.00026327860459324589 0.0092436071583803011 42.322083292226729 -0.052990474431766237 3.7161829171829849e-05 2.2895792095798488 1.6221045292539491
decision_type=2 2 2 2 2 2 2 2
left_child=1 2 3 4 -1 -4 -2 -3
right_child=6 7 5 -5 -6 -7 -8 -9
leaf_value=-0.0017501598872065286 0.04941454861454854 -0.023751447549570294 0.061085771186390525 0.031282267592079242 -0.060402582246535656 -0.006071682359208453 0.00076555525285795095 -0.064841206990872452
leaf_weight=29.293207392096519 19.852828219532967 16.701979115605354 21.823811441659927 16.454124718904495 25.908948630094528 16.24645708501339 16.734699487686157 16.262174695730209
leaf_count=90 56 53 67 47 93 52 49 51
internal_value=0 -0.00949331 0.000987914 -0.0154049 -0.0296223 0.0321487 0.0276403 -0.0446504
internal_weight=0 142.691 109.727 71.6563 55.2022 38.0703 36.5875 32.9642
internal_count=558 453 349 230 183 119 105 104
is_linear=0
shrinkage=0.100287


Tree=41
num_leaves=8
num_cat=0
split_feature=51 68 68 15 65 2 64
split_gain=5.78437 3.79611 3.75804 3.54341 3.61913 2.8672 2.05567
threshold=0.30227393146191134 2.9808191527373944e-05 -3.1059153496585554e-05 -0.27759671066708902 8.4480649655079153e-05 116.38826794780178 0.1810935882608726
decision_type=2 2 2 2 2 2 2
left_child=6 2 3 -2 -5 -3 -1
right_child=1 5 -4 4 -6 -7 -8
leaf_value=-0.013281305095827364 -0.031102124645385185 -0.045018649366183404 0.056220842646829493 0.033444292775514868 -0.018178683613716155 0.0046770917048089096 -0.067796929664600838
leaf_weight=15.775945633649828 16.774043947458267 18.541510790586472 22.245535671710968 51.623767852783203 18.057126045227051 29.915090560913086 13.677254170179365
leaf_count=58 48 56 63 148 52 84 49
internal_value=0 0.00901658 0.0194696 0.00976914 0.0198552 -0.0141309 -0.0392889
internal_weight=0 157.157 108.7 86.4549 69.6809 48.4566 29.4532
internal_count=558 451 311 248 200 140 107
is_linear=0
shrinkage=0.100287


Tree=42
num_leaves=7
num_cat=0
split_feature=63 37 23 20 12 33
split_gain=8.69516 2.53476 2.69695 3.51784 1.75664 1.07783
threshold=0.58667047790239224 -0.005800044239353248 -0.022005122812270569 -0.0011687716195517004 -0.065800855370414621 0.0083306666209330381
decision_type=2 2 2 2 2 2
left_child=1 -1 -3 -4 -2 -6
right_child=4 2 3 -5 5 -7
leaf_value=-0.004808962122665082 -0.0018483089589040895 -0.0016404407769874667 0.091420417321789835 0.022835126597098826 -0.066336316738295112 -0.022050542581492073
leaf_weight=23.732910186052322 10.6263245716691 13.581485301256178 12.874933488667009 19.934291712939739 17.82153054326773 9.9200719371438009
leaf_count=88 72 41 51 74 156 76
internal_value=0 0.0213182 0.0349583 0.0504722 -0.0379643 -0.0512097
internal_weight=0 70.1236 46.3907 32.8092 38.3679 27.7416
internal_count=558 254 166 125 304 232
is_linear=0
shrinkage=0.100287


Tree=43
num_leaves=8
num_cat=0
split_feature=46 13 13 51 23 67 19
split_gain=3.49045 4.99203 3.79208 3.95579 4.17063 2.49714 1.45868
threshold=-1.0123141231445507 -0.064138792023748711 0.036280973179706362 0.26889533800881493 0.0133375688267684 7.0483163722592527e-06 2.2895792095798488
decision_type=2 2 2 2 2 2 2
left_child=5 -2 3 -3 -5 -1 -4
right_child=1 2 6 4 -6 -7 -8
leaf_value=-0.049291629297457923 0.061048103966711752 0.026069216848180997 0.044831009139727637 -0.0083724174658737181 -0.064971413209917714 0.0022027771187836105 0.0032885512496646742
leaf_weight=22.823981553316116 14.569603472948073 20.77773717045784 19.873290032148361 50.382263645529747 17.94573900103569 15.236741513013838 16.169596642255783
leaf_count=77 42 67 56 160 60 49 47
internal_value=0 0.00579732 -0.00058897 -0.0118006 -0.0235537 -0.0283827 0.026674
internal_weight=0 139.718 125.149 89.1057 68.328 38.0607 36.0429
internal_count=558 432 390 287 220 126 103
is_linear=0
shrinkage=0.100287


Tree=44
num_leaves=8
num_cat=0
split_feature=51 28 30 10 13 51 69
split_gain=5.05755 3.20239 4.16321 3.90804 3.5852 3.09228 2.00926
threshold=0.30227393146191134 0.015195490063752619 0.0058352752415241687 85.500000000000014 0.0056029964577205557 6.3743648776206348 0.28149226870983229
decision_type=2 2 2 2 2 2 2
left_child=6 2 4 -4 -2 -5 -1
right_child=1 -3 3 5 -6 -7 -8
leaf_value=-0.064348174055829835 0.01682448796307489 -0.02746113694636014 -0.0033398176571274685 0.026433932876209109 -0.041563420380214884 0.078009346907079988 -0.010028117721935985
leaf_weight=14.044225439429285 20.927632570266724 21.204334646463394 30.060611248016357 46.850888848304749 20.705724030733109 16.334282726049423 14.747003689408301
leaf_count=54 60 62 88 135 59 47 53
internal_value=0 0.00841592 0.0141847 0.0259924 -0.0119233 0.0401436 -0.0372087
internal_weight=0 156.083 134.879 93.2458 41.6334 63.1852 28.7912
internal_count=558 451 389 270 119 182 107
is_linear=0
shrinkage=0.100287


Tree=45
num_leaves=8
num_cat=0
split_feature=63 43 43 10 31 12 33
split_gain=7.52818 2.80762 3.03848 2.8698 2.2962 2.01039 1.42071
threshold=0.63472490697646122 52.078805583218774 42.003840367365008 88.500000000000014 -8.5229285079884605e-05 -0.065800855370414621 0.0083306666209330381
decision_type=2 2 2 2 2 2 2
left_child=1 2 4 -3 -1 -2 -7
right_child=5 3 -4 -5 -6 6 -8
leaf_value=-0.0051991545209176919 0 0.078415787907082202 -0.02479472412530331 0.011352496467010274 0.055121954254935768 -0.071250049487597361 -0.019375749388931197
leaf_weight=11.210045181214811 10.151504158973692 12.873577535152437 20.663124069571495 13.891955681145189 13.33658294379711 15.878341212868692 9.4601782411336881
leaf_count=42 69 39 75 58 53 148 74
internal_value=0 0.0187052 0.00309185 0.0443902 0.0271431 -0.0376333 -0.0526642
internal_weight=0 71.9753 45.2098 26.7655 24.5466 35.49 25.3385
internal_count=558 267 170 97 95 291 222
is_linear=0
shrinkage=0.100287


Tree=46
num_leaves=10
num_cat=0
split_feature=19 31 28 28 69 52 13 44 60
split_gain=3.22722 3.54678 5.8272 4.89757 4.73104 3.47101 3.78419 2.59524 1.47817
threshold=-10.042509833752659 -6.1999811394943544e-05 0.0091470335460528355 0.0049793596975544951 1.7048316343343457 -87.272483695462327 0.0056029964577205557 0.12576955653519664 -98.999999999999986
decision_type=2 2 2 2 2 2 2 2 2
left_child=-1 2 3 -2 -5 -3 8 -8 -7
right_child=1 5 -4 4 -6 6 7 -9 -10
leaf_value=0.047108520800893658 0.032811136678235472 0.022114418796871399 0.057868901439706674 -0.06557692086878307 0.0093928186835944855 -0.03357885139247032 0.024654924034323053 -0.031313968812312874 -0.076324897304470687
leaf_weight=12.745894476771353 20.202651098370552 16.937964856624603 19.663713216781616 17.339165337383747 15.794272080063818 27.689144715666771 17.07939800620079 15.911911904811857 13.277342423796652
leaf_count=41 60 53 59 60 47 90 49 51 48
internal_value=0 -0.00496616 0.011365 -0.00563286 -0.0295381 -0.0182333 -0.0276896 -0.00193536 -0.048005
internal_weight=0 163.896 72.9998 53.3361 33.1334 90.8958 73.9578 32.9913 40.9665
internal_count=558 517 226 167 107 291 238 100 138
is_linear=0
shrinkage=0.100287


Tree=47
num_leaves=8
num_cat=0
split_feature=46 9 66 61 37 37 39
split_gain=5.0298 4.52689 3.37049 4.13678 2.81526 3.66541 4.92195
threshold=-0.42588062016001393 174225.00000000003 0.021536795444210718 975543.84324582585 -0.0085693342937248045 0.010170278289173796 -0.39626513530198626
decision_type=2 2 2 2 2 2 2
left_child=2 -2 -1 -4 -3 6 -6
right_child=1 4 3 -5 5 -7 -8
leaf_value=0.061923378116613116 -0.06319027422745857 0.023915119909924013 -0.019696129703759838 0.045548533344791919 -0.0038610855524902391 0.015440321202956122 -0.066544339845353379
leaf_weight=17.794080764055252 14.17881242930889 28.369629353284836 21.827875643968582 17.266167193651199 33.468796133995056 29.717272475361824 20.591871052980423
leaf_count=52 57 86 63 51 96 91 62
internal_value=0 -0.0100607 0.0258015 0.00882658 -0.00314216 -0.0124985 -0.0281158
internal_weight=0 126.326 56.8881 39.094 112.148 83.7779 54.0607
internal_count=558 392 166 114 335 249 158
is_linear=0
shrinkage=0.100287


Tree=48
num_leaves=7
num_cat=0
split_feature=69 59 52 43 24 34
split_gain=7.19332 4.62037 2.57547 4.18609 2.91935 2.10978
threshold=2.8073069446116583 0.036580719065414505 54.960614351526182 52.078805583218774 -1.5187370820443196 -0.0037125576650423519
decision_type=2 2 2 2 2 2
left_child=1 2 3 4 -1 -2
right_child=5 -3 -4 -5 -6 -7
leaf_value=0.024453073606008718 0 0.074386686389403878 -0.031742976768849102 0.062764377708702065 -0.025926805678373771 -0.066132643802388466
leaf_weight=24.126956619322293 6.6602130979299572 11.379439890384672 14.391135558485983 14.037484414875506 21.932180218398578 16.762007527053356
leaf_count=109 55 32 72 61 102 143
internal_value=0 0.015204 0.00584176 0.0151324 0.000153265 -0.0473054
internal_weight=0 85.8672 74.4878 60.0966 46.0591 23.4222
internal_count=574 376 344 272 211 198
is_linear=0
shrinkage=0.100287


Tree=49
num_leaves=9
num_cat=0
split_feature=65 65 40 5 53 64 47 18
split_gain=3.00225 5.74052 4.85982 4.33526 4.27049 4.27032 2.50378 2.01832
threshold=8.2953789579042248e-05 5.2829894874921477e-05 -0.0011491742649459289 154.50000000000003 32.509583964656052 2.0192992489306487 41.736307542216352 -0.92598982218484382
decision_type=2 2 2 2 2 2 2 2
left_child=1 5 -2 -4 -3 6 7 -1
right_child=2 4 3 -5 -6 -7 -8 -9
leaf_value=0.040490923667935746 0.056712142783523871 -0.063879500058951738 0.034592128825919631 -0.03643937717986008 0.0025515829106006263 0.045294895110383579 -0.026181396265854119 -0.0093760678763521992
leaf_weight=15.036716833710672 22.672628819942474 24.709838844835758 16.138085782527924 18.184414595365524 15.326379224658011 22.330009430646896 30.496663421392441 16.827826797962189
leaf_count=47 63 91 54 60 47 67 91 54
internal_value=0 -0.0069101 0.0208193 -0.00262856 -0.0381858 0.0077513 -0.00554485 0.0137977
internal_weight=0 124.727 56.9951 34.3225 40.0362 84.6912 62.3612 31.8645
internal_count=574 397 177 114 138 259 192 101
is_linear=0
shrinkage=0.100287


Tree=50
num_leaves=8
num_cat=0
split_feature=65 10 38 51 66 63 67
split_gain=5.62336 3.66313 4.55312 3.51067 4.57279 4.9182 2.55016
threshold=0.0001090128074547405 84.500000000000014 234.46388366306735 6.3743648776206348 0.021709228925003061 0.44671446901796913 5.3749205161480379e-06
decision_type=2 2 2 2 2 2 2
left_child=1 2 -1 4 5 -3 -4
right_child=-2 3 6 -5 -6 -7 -8
leaf_value=-0.059287539330158907 -0.0481059134723789 0 0.028759272044135802 0.04680185773978842 -0.025323024335490305 0.067948808485447626 -0.020113425606728665
leaf_weight=17.078454285860062 23.818074509501457 30.013992965221405 19.231499969959259 26.46211975812912 30.86715242266655 16.527092009782791 23.831741839647293
leaf_count=65 78 93 55 76 89 49 69
internal_value=0 0.00385955 -0.0156979 0.0153248 0.00431276 0.024287 0.00141195
internal_weight=0 164.012 60.1417 103.87 77.4082 46.5411 43.0632
internal_count=574 496 189 307 231 142 124
is_linear=0
shrinkage=0.100287


Tree=51
num_leaves=8
num_cat=0
split_feature=69 7 59 68 38 21 28
split_gain=6.24606 4.34871 4.19352 4.44291 4.82279 2.43883 1.3111
threshold=2.8073069446116583 2820.5000000000005 -0.0076536398467432938 9.1376547521279875e-05 168.82110865863848 0.016281473082298107 0.0098332805307582757
decision_type=2 2 2 2 2 2 2
left_child=1 2 -1 4 -4 -2 -3
right_child=5 6 3 -5 -6 -7 -8
leaf_value=-0.0091430895597824878 -0.065722492698400803 0 0.026372561344245007 -0.001395149534370779 0.10741606596295207 0.0067823406331137303 -0.061101341599921387
leaf_weight=24.283236544579268 16.368562996387485 6.6861430257558814 17.068999320268635 15.382107704877852 13.932120546698568 5.998077653348445 8.3071676045656186
leaf_count=91 144 49 48 56 74 54 58
internal_value=0 0.0135881 0.0241162 0.0418033 0.0635906 -0.0457406 -0.0348499
internal_weight=0 85.6598 70.6665 46.3832 31.0011 22.3666 14.9933
internal_count=574 376 269 178 122 198 107
is_linear=0
shrinkage=0.100287


Tree=52
num_leaves=8
num_cat=0
split_feature=43 48 54 30 48 27 67
split_gain=2.92249 3.78408 3.52791 5.57263 3.33256 2.83633 3.54032
threshold=29.937371296667028 76.443068727490939 49.488631221841153 0.0061301961388957786 90.037304164413499 0.0099832142347950244 6.5730574638891451e-06
decision_type=2 2 2 2 2 2 2
left_child=-1 2 5 -4 -3 6 -2
right_child=1 4 3 -5 -6 -7 -8
leaf_value=0.029309406515949158 0.010241708910088082 0.049286366100973623 0.012104321738529057 -0.066224782433100177 -0.0034273829862444664 0.023381791976077756 -0.054567071824926684
leaf_weight=31.658472418785095 17.603831768035889 20.510416403412819 13.658377736806868 25.642448835074902 27.859837412834167 27.7506462931633 15.638363733887671
leaf_count=92 56 63 43 91 85 88 56
internal_value=0 -0.00415265 -0.0153351 -0.038705 0.0187197 0 -0.0199357
internal_weight=0 148.664 100.294 39.3008 48.3703 60.9928 33.2422
internal_count=574 482 334 134 148 200 112
is_linear=0
shrinkage=0.100287


Tree=53
num_leaves=9
num_cat=0
split_feature=1 68 68 68 10 46 65 5
split_gain=4.94999 2.72521 5.04094 3.72451 4.41874 5.84077 3.85884 3.06191
threshold=87.714243612407927 1.2814699608952342e-05 8.3140638551404983e-05 -3.1059153496585554e-05 139.50000000000003 -0.69063087144189872 5.3260608318452531e-05 1655.5000000000002
decision_type=2 2 2 2 2 2 2 2
left_child=-1 3 -3 4 5 -2 -6 -4
right_child=1 2 7 -5 6 -7 -8 -9
leaf_value=-0.043564492407213523 0.019131461121421126 -0.064273429236307314 0.035428291264942673 0.055306210619575788 0.00025241610267628603 -0.049486132485514041 0.068555626739775402 -0.017702986884862177
leaf_weight=25.214737623929977 25.3254374563694 14.374323531985281 18.081278532743454 18.040729090571404 18.103456854820251 24.00025087594986 15.926883161067961 26.789093494415283
leaf_count=92 75 46 58 52 53 73 47 78
internal_value=0 0.00407171 -0.012873 0.014115 0.00494751 -0.0140212 0.0327929 0.00344255
internal_weight=0 160.641 59.2447 101.397 83.356 49.3257 34.0303 44.8704
internal_count=574 482 182 300 248 148 100 136
is_linear=0
shrinkage=0.100287


Tree=54
num_leaves=7
num_cat=0
split_feature=41 10 6 53 31 5
split_gain=6.06898 5.24868 3.9965 3.46027 2.71235 2.3326
threshold=3.0397531558064057 81.500000000000014 150.50000000000003 40.13374178694415 -6.399471554622981e-05 3776.0000000000005
decision_type=2 2 2 2 2 2
left_child=1 4 -3 5 -1 -4
right_child=-2 2 3 -5 -6 -7
leaf_value=0.0095342460277109079 -0.070635755623933788 0.027296291332293925 -0.053581446589409498 0.029380549113428002 0.068635179210109698 0.01016644679176581
leaf_weight=15.331598848104475 10.577227264642714 21.319672763347626 26.97007542103529 8.7310855910181981 17.34757673740387 6.8335652425885192
leaf_count=58 97 62 178 52 76 51
internal_value=0 0.0088501 -0.00770263 -0.0256087 0.0415076 -0.0402932
internal_weight=0 96.5336 63.8544 42.5347 32.6792 33.8036
internal_count=574 477 343 281 134 229
is_linear=0
shrinkage=0.100287


Tree=55
num_leaves=9
num_cat=0
split_feature=43 65 65 24 25 7 53 30
split_gain=2.50304 3.2099 5.49204 3.30103 2.97447 2.89903 3.39277 2.47966
threshold=29.937371296667028 8.2953789579042248e-05 5.241024384945523e-05 -1.3366733737581094 82.500000000000014 2820.5000000000005 24.28194161499086 0.0069007403404840019
decision_type=2 2 2 2 2 2 2 2
left_child=-1 2 4 -4 7 6 -3 -2
right_child=1 5 3 -5 -6 -7 -8 -9
leaf_value=0.027184693712760156 0.0067379839923613072 0.03282845632457685 -0.080033332092930273 -0.011917567290227565 0.039749964050352846 0.050571009765619075 -0.03310590577367057 -0.037280348608880257
leaf_weight=31.715089589357376 33.324012279510498 15.194197818636896 16.438499018549923 13.65262623131275 15.588477313518522 16.915499672293663 15.897562786936758 20.403590157628059
leaf_count=92 102 49 61 52 47 50 53 68
internal_value=0 -0.00377972 -0.014136 -0.0498077 0.00122247 0.0173501 -0.000432171 -0.00977573
internal_weight=0 147.414 99.4072 30.0911 69.3161 48.0073 31.0918 53.7276
internal_count=574 482 330 113 217 152 102 170
is_linear=0
shrinkage=0.100287


Tree=56
num_leaves=8
num_cat=0
split_feature=65 10 21 0 15 0 53
split_gain=4.44713 3.11645 3.76324 3.72502 3.3352 5.90469 4.9464
threshold=0.0001090128074547405 84.500000000000014 0.015161595368481275 114.62098386126813 -0.29884235312567553 179.35883988004659 32.509583964656052
decision_type=2 2 2 2 2 2 2
left_child=1 2 3 -1 -3 6 -6
right_child=-2 4 -4 -5 5 -7 -8
leaf_value=-0.032498260095915658 -0.043505703758108805 -0.026387004978143159 -0.055161061147997237 0.027296243794822185 0.024279199006794407 0.071588019232039196 -0.037637164082114385
leaf_weight=18.398821711540222 22.776022598147392 16.54775533080101 16.408934056758881 23.883769199252129 49.644733890891075 18.954332575201988 17.294718280434608
leaf_count=62 78 47 57 70 150 56 54
internal_value=0 0.00366514 -0.01462 0.000923248 0.0142842 0.0223155 0.00802404
internal_weight=0 161.133 58.6915 42.2826 102.442 85.8938 66.9395
internal_count=574 496 189 132 307 260 204
is_linear=0
shrinkage=0.100287


Tree=57
num_leaves=7
num_cat=0
split_feature=41 10 49 13 69 11
split_gain=5.5194 4.30225 3.97202 4.99504 4.05261 2.44014
threshold=3.0397531558064057 82.500000000000014 -29.17668148225124 -0.0032634957127120052 0.47889669420945358 0.0021304982027515744
decision_type=2 2 2 2 2 2
left_child=1 5 3 4 -3 -1
right_child=-2 2 -4 -5 -6 -7
leaf_value=0.058779870397115803 -0.070027897853360971 0.025516494442647437 -0.049998383233415357 0.059336154960502374 -0.044570292582619568 0.0025400117367226169
leaf_weight=20.290035739541054 9.8957978300750238 14.626077957451342 16.16353852674365 13.208639562129973 18.406791388988495 13.399209953844545
leaf_count=82 97 55 93 59 133 55
internal_value=0 0.00807265 -0.00733772 0.00738626 -0.0131398 0.0369382
internal_weight=0 96.0943 62.405 46.2415 33.0329 33.6892
internal_count=574 477 340 247 188 137
is_linear=0
shrinkage=0.100287


Tree=58
num_leaves=8
num_cat=0
split_feature=41 51 16 65 40 54 40
split_gain=2.51716 3.78243 5.48276 3.58717 3.86982 3.64047 3.24802
threshold=3.8036881995918566 6.3013803210064969 -0.46072840321277408 8.2953789579042248e-05 -0.0011491742649459289 35.687372205199217 -0.0019823825495633991
decision_type=2 2 2 2 2 2 2
left_child=1 2 -1 5 -5 -4 -3
right_child=-2 6 3 4 -6 -7 -8
leaf_value=0.069756057823243262 0.04009621395263506 -0.060284565376314672 0.02750052610778236 0.05076082633046039 -0.0032095162547638493 -0.031361739548157783 0
leaf_weight=12.090751856565474 15.450273990631102 18.254772186279297 13.316073983907698 21.406068205833435 33.952178299427032 46.200799450278282 16.986229807138443
leaf_count=34 47 58 43 61 114 159 58
internal_value=0 -0.00203922 0.00594331 -0.000734162 0.0174886 -0.0179204 -0.0310975
internal_weight=0 162.207 126.966 114.875 55.3582 59.5169 35.241
internal_count=574 527 411 377 175 202 116
is_linear=0
shrinkage=0.100287


Tree=59
num_leaves=8
num_cat=0
split_feature=1 68 68 12 10 32 22
split_gain=3.89115 2.19661 4.26881 3.59762 3.28774 3.04052 2.77311
threshold=87.714243612407927 1.2814699608952342e-05 8.3140638551404983e-05 -0.075718219834958675 139.50000000000003 0.34027619347772803 -0.0047855593953449174
decision_type=2 2 2 2 2 2 2
left_child=-1 3 -3 -2 5 -5 -4
right_child=1 2 6 4 -6 -7 -8
leaf_value=-0.039433648385817033 -0.019358065262531383 -0.060104252818233839 0.035092379765696582 0.028178479909165131 0.049567764592020551 -0.02515040957584818 -0.016136696558003351
leaf_weight=24.055686697363853 25.400652140378952 13.780143707990645 17.058279305696487 26.109865486621857 30.127684652805328 17.883471727371216 27.388818085193634
leaf_count=92 74 46 51 80 91 55 85
internal_value=0 0.00371587 -0.011611 0.0128281 0.024064 0.00617007 0.00326211
internal_weight=0 157.749 58.2272 99.5217 74.121 43.9933 44.4471
internal_count=574 482 182 300 226 135 136
is_linear=0
shrinkage=0.100287


Tree=60
num_leaves=8
num_cat=0
split_feature=4 30 36 60 45 45 35
split_gain=5.68612 4.65272 2.89875 3.9282 2.13439 3.84468 1.27628
threshold=381.50000000000006 0.0081165366853884514 1.017107453717585 -659.49999999999989 -2.7424657593074286 -1.5049707284160245 -0.0012450966959761222
decision_type=2 2 2 2 2 2 2
left_child=1 -1 4 -4 -2 -6 -7
right_child=2 -3 3 -5 5 6 -8
leaf_value=-0.0041290213025789715 -0.06652265251510367 0.065512086033835654 -0.036578239950872081 0.044631393547829142 0.045017270895069787 -0.01250561516716713 -0.061858718646135222
leaf_weight=19.525916427373886 14.264595955610273 18.236156731843948 10.454819835722448 13.427198238670824 7.0178456529974964 11.210308428853752 11.696652937680481
leaf_count=56 137 53 63 77 47 70 80
internal_value=0 0.0292595 -0.0191612 0.0084896 -0.0343995 -0.0183618 -0.0385562
internal_weight=0 37.7621 68.0714 23.882 44.1894 29.9248 22.907
internal_count=583 109 474 140 334 197 150
is_linear=0
shrinkage=0.100287


Tree=61
num_leaves=9
num_cat=0
split_feature=20 51 9 14 5 34 15 22
split_gain=4.14836 3.93601 4.47707 6.60359 4.56412 3.65558 3.37935 2.37594
threshold=-0.059758214769647704 0.28006402102163247 727018.00000000012 -0.02148182416725258 1680.5000000000002 -0.0026300419295646753 -0.23621837093792089 0.00042443934827007817
decision_type=2 2 2 2 2 2 2 2
left_child=-1 -2 3 7 6 -6 -4 -3
right_child=1 2 4 -5 5 -7 -8 -9
leaf_value=-0.055468415173944678 0.049722894746188143 -0.020614445915060692 0.017814076718243584 -0.063526842642462417 0.065925364475541648 0.012193048427134961 -0.043803949270860426 0.033546094390308701
leaf_weight=11.987319387495516 17.706082746386528 15.857683837413786 16.321767091751099 23.073604010045528 19.485092163085938 38.99614092707634 18.967455893754959 16.185704991221428
leaf_count=47 58 49 48 87 59 119 65 51
internal_value=0 0.0052322 -9.78187e-06 -0.0227507 0.0132227 0.0304596 -0.0149543 0.00633609
internal_weight=0 166.594 148.887 55.117 93.7705 58.4812 35.2892 32.0434
internal_count=583 536 478 187 291 178 113 100
is_linear=0
shrinkage=0.100287


Tree=62
num_leaves=9
num_cat=0
split_feature=51 64 12 9 9 65 65 7
split_gain=4.21299 4.77677 3.81481 5.8379 3.59896 3.19277 3.43655 5.38301
threshold=0.31744767292705711 0.18221468674597421 -0.0071280886879822583 733018.00000000012 798069.00000000012 8.2953789579042248e-05 5.8037643278582346e-05 1244.5000000000002
decision_type=2 2 2 2 2 2 2 2
left_child=1 -1 5 -4 -5 6 7 -2
right_child=2 -3 3 4 -6 -7 -8 -9
leaf_value=0.001706416688363318 0.029526386720765383 -0.077753180148187787 0.061698371841018146 -0.030345361087979524 0.025246680575887272 -0.047336674085114883 0.036856011994646762 -0.042677736111116658
leaf_weight=16.202901355922226 16.917874842882156 13.646984510123728 25.631121829152107 19.638658002018929 28.415339678525925 16.60832417011261 19.387939274311066 25.915640458464622
leaf_count=68 50 57 77 62 84 50 60 75
internal_value=0 -0.034363 0.00674498 0.0231786 0.00221211 -0.00845341 0.00179022 -0.0138292
internal_weight=0 29.8499 152.515 73.6851 48.054 78.8298 62.2215 42.8335
internal_count=583 125 458 223 146 235 185 125
is_linear=0
shrinkage=0.100287


Tree=63
num_leaves=7
num_cat=0
split_feature=4 60 7 24 23 31
split_gain=4.69812 2.7319 2.61553 2.1646 0.678545 1.6089
threshold=381.50000000000006 18663.500000000004 1214.5000000000002 -1.3366733737581094 0.021063262850266388 0.00025663195195093578
decision_type=2 2 2 2 2 2
left_child=3 2 -2 -1 5 -4
right_child=1 -3 4 -5 -6 -7
leaf_value=0.047037990352863733 -0.00042155329208173713 0.026341560312774785 -0.066386642293325707 -0.00066444835887943777 -0.0063788588206750421 -0.010585736992885045
leaf_weight=21.440993130207062 22.762783899903297 11.193488903343676 20.137695539742712 16.14712005853653 4.7380064614117137 7.9340508207678786
leaf_count=62 91 70 206 47 48 59
internal_value=0 -0.0179717 -0.0271967 0.0262536 -0.0452593 -0.0512546
internal_weight=0 66.766 55.5725 37.5881 32.8098 28.0717
internal_count=583 474 404 109 313 265
is_linear=0
shrinkage=0.100287


Tree=64
num_leaves=9
num_cat=0
split_feature=20 51 9 14 5 15 60 14
split_gain=3.07777 2.793 3.80662 5.3518 3.67278 3.04389 2.46424 2.12487
threshold=-0.040403117696605866 0.28006402102163247 727018.00000000012 -0.02148182416725258 1680.5000000000002 -0.23621837093792089 -8529.4999999999982 -0.097977725822382997
decision_type=2 2 2 2 2 2 2 2
left_child=-1 -2 3 7 5 -4 -6 -3
right_child=1 2 4 -5 6 -7 -8 -9
leaf_value=-0.040948872206565477 0.042849508186541402 -0.021957742743182733 0.017948725981844632 -0.059040196600521233 0.060355698552326226 -0.04262608905930744 0.014399596998911706 0.030014231362398523
leaf_weight=15.73532449454069 17.583837628364563 14.545999690890314 15.564083963632582 21.552906647324562 17.072107404470444 17.198925018310547 41.261894702911377 16.72192157804966
leaf_count=62 57 48 45 84 51 60 126 50
internal_value=0 0.00528699 0.000559863 -0.0207225 0.0130679 -0.0134733 0.0282109 0.00540044
internal_weight=0 161.502 143.918 52.8208 91.097 32.763 58.334 31.2679
internal_count=583 521 464 182 282 105 177 98
is_linear=0
shrinkage=0.100287


Tree=65
num_leaves=10
num_cat=0
split_feature=51 64 66 53 6 61 29 34 54
split_gain=3.65182 4.49173 3.65561 4.28941 3.09146 2.96078 2.77926 2.41415 2.28274
threshold=0.31744767292705711 0.18221468674597421 0.021411328068812043 32.509583964656052 1725.0000000000002 1087232.2337035083 0.0083617654096174079 -0.0014372333875463776 43.60733159878658
decision_type=2 2 2 2 2 2 2 2 2
left_child=1 -1 3 8 5 6 -4 -6 -2
right_child=2 -3 4 -5 7 -7 -8 -9 -10
leaf_value=0.0022525056458771986 0.077816176270898985 -0.075933863795999104 -0.038692823281140695 -0.010158586133619172 -0.057285468558592234 0.040684899881784677 0.014432126251921328 -0.0056789137624828866 0.02330871983333567
leaf_weight=16.095108374953274 15.553157508373259 12.995015993714331 16.001219406723976 18.373311117291451 15.619492247700689 20.039551720023155 25.058831423521042 23.351276606321335 17.528641030192375
leaf_count=68 47 57 47 58 47 60 75 70 54
internal_value=0 -0.0324072 0.00629863 0.0280198 -0.00475559 0.00914787 -0.00599636 -0.0268637 0.0495958
internal_weight=0 29.0901 151.525 51.4551 100.07 61.0996 41.0601 38.9708 33.0818
internal_count=583 125 458 159 299 182 122 117 101
is_linear=0
shrinkage=0.100287


Tree=66
num_leaves=7
num_cat=0
split_feature=21 32 69 52 52 21
split_gain=4.11278 2.69668 2.70894 3.79962 5.17396 3.98836
threshold=-0.056651996474324111 4.7000682999167642 0.31430509589358319 5.0280639342304312 54.960614351526182 0.040138105069345349
decision_type=2 2 2 2 2 2
left_child=-1 2 -2 5 -5 -4
right_child=1 -3 3 4 -6 -7
leaf_value=0.046692278801757137 0.026367240353791507 -0.05660329423580937 -0.050652471406805046 0.066507068161817576 -0.034247076155947818 0.036207788474424393
leaf_weight=14.688590444624422 21.543163619935513 10.960944175720213 29.402000736445189 10.74229706078768 9.361067056655882 6.1741068549454203
leaf_count=42 70 69 241 66 74 21
internal_value=0 -0.0103256 -0.00347743 -0.0153165 0.0189929 -0.0350954
internal_weight=0 88.1836 77.2226 55.6795 20.1034 35.5761
internal_count=583 541 472 402 140 262
is_linear=0
shrinkage=0.100287


Tree=67
num_leaves=9
num_cat=0
split_feature=20 51 11 69 18 16 34 28
split_gain=3.27719 2.89987 3.23102 4.6981 3.42403 2.89477 2.60892 3.03151
threshold=-0.059758214769647704 0.28006402102163247 -0.0068310655022550395 1.8331042259281816 -1.4234971484463863 -0.26257761249190703 -0.0039971828780667549 0.009228039766898349
decision_type=2 2 2 2 2 2 2 2
left_child=-1 -2 6 4 -4 -5 -3 -8
right_child=1 2 3 5 -6 -7 7 -9
leaf_value=-0.050866179313167947 0.042455397088962531 0.056261658237595692 0.00023817532119386789 -0.014458428464008102 -0.061957188678235735 0.03135193313360031 -0.020739212830735373 0.033961121563930788
leaf_weight=11.224568665027617 18.100849002599716 14.184693843126295 13.545848056674002 28.933950081467625 23.534532777965069 26.039726078510288 20.407823070883751 19.836017951369286
leaf_count=47 58 45 48 89 84 82 70 60
internal_value=0 0.00476108 0 -0.0113834 -0.0389511 0.00701272 0.0194028 0.00590106
internal_weight=0 164.583 146.483 92.0541 37.0804 54.9737 54.4285 40.2438
internal_count=583 536 478 303 132 171 175 130
is_linear=0
shrinkage=0.100287


Tree=68
num_leaves=11
num_cat=0
split_feature=28 39 15 45 27 2 45 16 11 28
split_gain=3.26896 5.54439 3.77136 3.66325 3.76483 2.74349 5.36651 2.55322 2.40474 1.47932
threshold=0.0082918872304525385 -0.39563032384815522 -0.27123726060246439 -1.9551878800370075 0.0046029203362540393 88.523299951344214 0.33818446642079958 1.0000000180025095e-35 -0.0050474286822704819 0.011559544670463986
decision_type=2 2 2 2 2 2 2 2 2 2
left_child=3 2 -2 4 -1 -5 -7 9 -4 -3
right_child=1 7 8 5 -6 6 -8 -9 -10 -11
leaf_value=0.026285606118114306 -0.027713693733639449 -0.030639522898412184 0 -0.0048258624928837401 -0.038534616211412138 0.089232364514274645 0.0067504065441825068 -0.007803959956579655 0.053509091333454314 -0.079885147629995087
leaf_weight=16.31853298842907 17.151957705616951 13.439157947897913 15.754777222871779 12.486790172755716 19.478157311677933 16.542416200041771 15.925190076231955 18.698595106601715 18.764831379055977 14.224814206361769
leaf_count=50 49 51 48 47 61 55 48 58 57 59
internal_value=0 -0.0122233 0.0101477 0.0150019 -0.00860841 0.0340795 0.0494254 -0.0374096 0.0294041 -0.0567641
internal_weight=0 98.0341 51.6716 80.7511 35.7967 44.9544 32.4676 46.3626 34.5196 27.664
internal_count=583 322 154 261 111 150 103 168 105 110
is_linear=0
shrinkage=0.100287


Tree=69
num_leaves=10
num_cat=0
split_feature=21 37 21 21 21 31 67 21 21
split_gain=3.48745 2.5457 4.25726 4.73845 5.47413 2.71165 2.82178 0.402413 0.0946554
threshold=-0.056651996474324111 -0.0038400616854983309 0.027901660441648882 0.0010030336728864555 -0.015721839645843613 0.00022145753119264016 8.4126234888438178e-06 0.015593295594004688 0.018374391905428559
decision_type=2 2 2 2 2 2 2 2 2
left_child=-1 5 3 4 -3 6 8 -5 -2
right_child=1 2 -4 7 -6 -7 -8 -9 -10
leaf_value=0.042893234828580623 -0.06101968376273071 -0.036517523650898776 0.0485883553092454 -0.075009433769271494 0.055244841847085557 0.013268376638742639 0 -0.033265413510360275 -0.093366612109249375
leaf_weight=14.612193204462526 9.3797849863767677 12.12895924225449 14.956092115491627 8.5890646092593652 13.66391052678228 8.8174151554703695 7.3555451631546012 5.8820531070232382 5.9242786131799212
leaf_count=42 84 67 58 74 99 51 34 41 33
internal_value=0 -0.00978534 0.00296914 -0.0137476 0.0115917 -0.0325113 -0.0509106 -0.0595233 -0.0752435
internal_weight=0 86.6971 55.2201 40.264 25.7929 31.477 22.6596 14.4711 15.3041
internal_count=583 541 339 281 166 202 151 115 117
is_linear=0
shrinkage=0.100287


Tree=70
num_leaves=8
num_cat=0
split_feature=41 10 46 14 54 69 9
split_gain=2.62579 2.68872 3.82771 5.03571 4.45288 3.11532 2.87927
threshold=3.9289586896052509 174.50000000000003 -1.0123141231445507 -0.00069994093244946088 57.771059322429885 2.7437117785704621 237225.00000000003
decision_type=2 2 2 2 2 2 2
left_child=1 2 -1 6 -5 -3 -4
right_child=-2 5 3 4 -6 -7 -8
leaf_value=-0.048912818264660228 0.040215409669667114 0.040772040677635943 0.052579946214063804 -0.068207165886737697 0.0050948358038223765 -0.011791106619926718 0.0019237968773829083
leaf_weight=21.543827891349792 15.598833769559858 25.741286352276802 15.296194478869436 17.356497101485729 15.238505914807318 19.509907126426697 44.303172677755356
leaf_count=76 48 80 49 75 54 63 138
internal_value=0 -0.00268462 -0.0109853 -0.00190458 -0.0336441 0.0178367 0.0152602
internal_weight=0 158.989 113.738 92.1944 32.595 45.2512 59.5994
internal_count=583 535 392 316 129 143 187
is_linear=0
shrinkage=0.100287


Tree=71
num_leaves=10
num_cat=0
split_feature=51 64 12 69 45 41 68 28 19
split_gain=2.79666 4.11675 3.15204 4.23668 3.04699 2.92421 2.41132 2.30906 2.18041
threshold=0.31744767292705711 0.18221468674597421 -0.0071280886879822583 1.0094946493151069 -1.5988335768989044 2.60879495257227 -0.00012013773464144416 0.009228039766898349 -0.13675567889016091
decision_type=2 2 2 2 2 2 2 2 2
left_child=1 -1 6 -4 5 -5 7 -2 -8
right_child=2 -3 3 4 -6 -7 8 -9 -10
leaf_value=0.0038210188370182818 0.035240783682057394 -0.073107411466974678 0.062051230172746608 -0.044334469536986394 0.035713933361128068 0.015113167835857576 -0.048562016098638146 -0.012661378996291512 0
leaf_weight=15.757010668516161 17.796787306666374 11.968969263136385 18.367798194289207 15.553808107972143 21.187537550926208 17.120602697134018 20.634517475962639 22.548885628581047 16.085807055234909
leaf_count=68 56 57 57 50 66 50 62 68 49
internal_value=0 -0.0291016 0.00549809 0.0205861 0.00605128 -0.0128317 -0.00847392 0.0081748 -0.0271055
internal_weight=0 27.726 149.296 72.2297 53.8619 32.6744 77.066 40.3457 36.7203
internal_count=583 125 458 223 166 100 235 124 111
is_linear=0
shrinkage=0.100287


Tree=72
num_leaves=9
num_cat=0
split_feature=63 48 37 17 1 47 11 15
split_gain=3.64525 3.06349 2.38095 3.46222 2.33118 1.63035 1.52142 1.3827
threshold=0.58667047790239224 14.691432237629266 -0.005800044239353248 -1.2971331808034963 88.438060600971298 1.7642975029595138 -0.0010225542050862344 0.040802440883967346
decision_type=2 2 2 2 2 2 2 2
left_child=2 5 6 -4 -5 -2 -1 -3
right_child=1 7 3 4 -6 -7 -8 -9
leaf_value=0.014130556810051311 -0.023427529791901304 -0.070075584630368851 -0.0079876353781610978 0.017215164127432295 0.077642888512818101 0.048059887349370188 -0.035219958318899187 -0.0020169224126835436
leaf_weight=10.579637058079244 6.9194477908313292 14.556106682866814 18.631160996854305 13.952645525336267 13.260109342634676 5.5813147630542517 14.172577597200869 4.3259090743958941
leaf_count=47 61 171 65 43 62 55 49 37
internal_value=0 -0.0299311 0.0110428 0.024657 0.0474405 0.0075739 -0.0136051 -0.0553613
internal_weight=0 31.3828 70.5961 45.8439 27.2128 12.5008 24.7522 18.882
internal_count=590 324 266 170 105 116 96 208
is_linear=0
shrinkage=0.100287


Tree=73
num_leaves=10
num_cat=0
split_feature=30 43 23 24 11 31 61 21 34
split_gain=3.09755 4.53702 4.90508 3.55483 4.54424 3.04232 2.39393 2.30539 1.98398
threshold=0.012485780750946177 55.359943202260773 0.0055678122979557773 -1.5135475852882336 -0.0014751013595821203 -0.00010284052645256215 774130.66054601886 -0.0023291730042466758 -0.0013725166199943541
decision_type=2 2 2 2 2 2 2 2 2
left_child=1 2 3 4 -1 -4 -5 -3 -7
right_child=-2 7 5 6 -6 8 -8 -9 -10
leaf_value=-0.017825424480316873 -0.030701347259816287 -0.054260252396241264 0.021910158291609302 0.086710714905184852 0.051053121921808796 -0.057529786047417687 0.028616189198912519 -0.00059836777312507713 -0.0032198031922502563
leaf_weight=22.077158033847809 27.317187592387199 15.678217291831968 18.015454366803169 15.027877002954485 16.649189546704292 13.756976410746576 15.721782207489012 17.493410721421242 14.34637914597988
leaf_count=77 92 59 57 47 51 47 49 62 49
internal_value=0 0.00594688 0.0154059 0.0322575 0.0115093 -0.00969949 0.0577487 -0.026514 -0.0304684
internal_weight=0 148.766 115.595 69.476 38.7263 46.1188 30.7497 33.1716 28.1034
internal_count=590 498 377 224 128 153 96 121 96
is_linear=0
shrinkage=0.100287


Tree=74
num_leaves=11
num_cat=0
split_feature=1 29 66 48 27 69 37 23 65 34
split_gain=2.99588 3.09201 3.59547 3.3043 5.62957 3.2895 3.38178 2.45779 1.95428 1.44307
threshold=87.714243612407927 0.006860002907640066 0.021378328203138553 10.855576284145146 0.008750974365066588 3.783670536396726 -0.0037489294304656122 -0.0017860565282624139 2.8714120461227019e-05 -0.0021879943844799713
decision_type=2 2 2 2 2 2 2 2 2 2
left_child=9 8 3 -3 -5 7 -7 -4 -2 -1
right_child=1 2 5 4 -6 6 -8 -9 -10 -11
leaf_value=-0.0090656257604816888 0 0.075766280465595137 -0.050685582697320777 0.063363082551890507 -0.018038588172569918 0.053738806725734313 -0.005154804853539488 0.0014824253810967656 -0.048228021010535554 -0.063018679019759521
leaf_weight=11.719991907477381 18.05451475083828 13.789855316281317 16.785525679588318 14.811731100082396 19.414409309625626 16.357126787304878 23.176023945212364 18.486249759793282 14.899171233177183 9.6642425581812841
leaf_count=47 56 45 50 50 68 51 69 56 51 47
internal_value=0 0.00551929 0.0129099 0.0342862 0.0169046 -0.000665562 0.0189714 -0.0230583 -0.0215347 -0.034373
internal_weight=0 155.775 122.821 48.016 34.2261 74.8049 39.5332 35.2718 32.9537 21.3842
internal_count=590 496 389 163 118 226 120 106 107 94
is_linear=0
shrinkage=0.100287


Tree=75
num_leaves=7
num_cat=0
split_feature=41 23 42 63 66 23
split_gain=3.25688 2.71904 2.68686 2.16279 2.64067 1.63554
threshold=2.9910573360801664 0.024828524392539245 28.765078877216961 0.80894517839811808 0.0035049227439409424 -0.0051348251002614744
decision_type=2 2 2 2 2 2
left_child=1 2 -1 4 -4 -5
right_child=-2 -3 3 5 -6 -7
leaf_value=-0.050425845010790331 -0.05811608769097866 0.034294565747214692 -0.028117001200609948 0.0055431139919405077 0.026461384877026969 -0.068554566712619711
leaf_weight=11.107340903952716 9.1223528757691366 22.686588060110807 11.5569901317358 4.8563882634043694 35.329547103494406 6.445909094065426
leaf_count=57 111 82 34 50 184 72
internal_value=0 0.00419574 -0.00550942 0.00293261 0.0126626 -0.0358387
internal_weight=0 91.9828 69.2962 58.1888 46.8865 11.3023
internal_count=590 479 397 340 218 122
is_linear=0
shrinkage=0.100287


Tree=76
num_leaves=7
num_cat=0
split_feature=41 46 42 65 65 17
split_gain=2.48773 3.15924 4.00157 2.66243 4.15586 2.74123
threshold=3.9289586896052509 -2.3834477043840874 29.160845270018829 4.7837557485157934e-05 8.2953789579042248e-05 -1.1216499577533183
decision_type=2 2 2 2 2 2
left_child=1 -1 -3 5 -5 -4
right_child=-2 2 3 4 -6 -7
leaf_value=-0.046978995773670026 0.038856481264706026 0.043816346266553764 0.037796024188403957 -0.045036514083930772 0.0015284174818902731 -0.010887441142947091
leaf_weight=15.019934356212614 15.185941547155378 19.014296323060989 23.367361947894096 31.097635038197041 48.854289308190346 22.275491751730442
leaf_count=55 47 61 71 123 163 70
internal_value=0 -0.00342114 0.00105055 -0.00535734 -0.0164589 0.0137726
internal_weight=0 159.629 144.609 125.595 79.9519 45.6429
internal_count=590 543 488 427 286 141
is_linear=0
shrinkage=0.100287


Tree=77
num_leaves=6
num_cat=0
split_feature=2 34 23 34 33
split_gain=2.71113 2.69474 2.97849 3.16694 2.3697
threshold=87.616236735343662 -0.0073784941902372237 -0.033767622539036417 0.0072916786265791482 -0.014662376093333285
decision_type=2 2 2 2 2
left_child=-1 -2 -3 4 -4
right_child=1 2 3 -5 -6
leaf_value=-0.034301970764048381 -0.036402966791826023 0.056461499218411808 -0.023682819760479448 -0.036700004555025083 0.016779553353333674
leaf_weight=19.707283839583397 14.064874112606047 12.188879176974295 16.739798054099083 15.998699530959128 96.744034066796303
leaf_count=89 49 41 53 54 304
internal_value=0 0.00503098 0.00927801 0.00466717 0.0106638
internal_weight=0 155.736 141.671 129.483 113.484
internal_count=590 501 452 411 357
is_linear=0
shrinkage=0.100287


Tree=78
num_leaves=7
num_cat=0
split_feature=41 52 43 31 23 67
split_gain=2.92873 2.62866 4.7323 3.93176 2.63792 3.86573
threshold=2.9910573360801664 54.960614351526182 62.19612619345849 -0.00038811021981775292 0.024828524392539245 8.9028330798927312e-06
decision_type=2 2 2 2 2 2
left_child=1 3 -3 -1 5 -5
right_child=-2 2 -4 4 -6 -7
leaf_value=-0.037858508857265272 -0.057026356519207635 -0.085705230841352315 0.019106015491359714 -0.0079364399052087552 0.057619311326810654 0.056280055994336269
leaf_weight=12.893089309334753 8.5990335904061777 8.2321723662316817 8.528303921222685 33.161923812702298 15.934509713202713 12.873197842389343
leaf_count=53 111 51 45 222 59 49
internal_value=0 0.00364945 -0.0318506 0.0118328 0.0224646 0.00984288
internal_weight=0 91.6232 16.7605 74.8627 61.9696 46.0351
internal_count=590 479 96 383 330 271
is_linear=0
shrinkage=0.100287


Tree=79
num_leaves=8
num_cat=0
split_feature=30 43 24 46 23 63 68
split_gain=2.63034 3.89317 4.35696 5.02093 3.82037 3.35307 2.20295
threshold=0.012485780750946177 52.730918750284566 -0.31804876117826353 -2.1690002174453871 0.006806073498681676 0.85624976402840203 9.6539373741547251e-05
decision_type=2 2 2 2 2 2 2
left_child=1 2 3 -1 -5 6 -3
right_child=-2 5 -4 4 -6 -7 -8
leaf_value=-0.050528077591859712 -0.028303851387107611 -0.06958589052762644 0.061232163326296135 0.033950134270185124 -0.01284404445315185 0.015511931993815693 -0.0092224975330827824
leaf_weight=12.903068006038664 26.970123872160912 13.867079474031927 17.723781302571297 47.494369104504585 27.13692057877779 15.813162103295324 11.893530938774346
leaf_count=50 92 59 56 148 88 50 47
internal_value=0 0.00568079 0.0160135 0.00660742 0.0167559 -0.0201065 -0.0424755
internal_weight=0 146.832 105.258 87.5344 74.6313 41.5738 25.7606
internal_count=590 498 342 286 236 156 106
is_linear=0
shrinkage=0.100287


Tree=80
num_leaves=8
num_cat=0
split_feature=2 66 0 67 7 46 27
split_gain=2.35425 2.53907 3.00213 2.87001 2.77227 2.60532 2.97476
threshold=87.616236735343662 0.021411328068812043 114.62098386126813 5.5068809492080364e-06 1250.5000000000002 -0.42588062016001393 0.0068671032266755666
decision_type=2 2 2 2 2 2 2
left_child=-1 5 -3 -4 -5 -2 -7
right_child=1 2 3 4 -6 6 -8
leaf_value=-0.032339425941782227 0.05954436640931584 -0.036353044109722961 0.043106153684007456 0.016820951790371279 -0.026538609558186908 0.037837549680489815 -0.014267080067443707
leaf_weight=19.28380498290062 13.682440653443335 23.371437892317772 15.37829267978668 28.54216742515564 30.212386548519135 19.806142047047615 24.011703737080097
leaf_count=89 47 73 46 88 92 69 86
internal_value=0 0.00467465 -0.00506698 0.00466149 -0.00524769 0.0214071 0.00901475
internal_weight=0 155.005 97.5043 74.1328 58.7546 57.5003 43.8178
internal_count=590 501 299 226 180 202 155
is_linear=0
shrinkage=0.100287


Tree=81
num_leaves=9
num_cat=0
split_feature=63 48 37 51 7 53 18 3
split_gain=2.6806 2.87083 2.04816 3.209 2.44387 2.207 1.77497 1.39662
threshold=0.58667047790239224 14.691432237629266 -0.005800044239353248 0.27147863371697284 107.50000000000001 27.918690720580496 -0.73407022532818034 0.0026135682608868461
decision_type=2 2 2 2 2 2 2 2
left_child=2 6 4 -4 -1 -5 -2 -3
right_child=1 7 3 5 -6 -7 -8 -9
leaf_value=0.020795253055469271 -0.027989735613125618 -0.0006113327861386903 -0.012370971382713985 0.070895232770281799 -0.042414330771237949 0.013688525793436435 0.047216209567391934 -0.06984957585081987
leaf_weight=10.700173154473307 5.9499729722738266 4.3235716223716762 16.757039666175842 13.910447411239149 13.568320803344248 14.70005978643894 6.1913594268262404 12.811124805361031
leaf_count=32 56 50 49 57 64 64 60 158
internal_value=0 -0.0269649 0.00909621 0.0217724 -0.0140137 0.0422179 0.00932811 -0.0533498
internal_weight=0 29.276 69.636 45.3675 24.2685 28.6105 12.1413 17.1347
internal_count=590 324 266 170 96 121 116 208
is_linear=0
shrinkage=0.100287


Tree=82
num_leaves=8
num_cat=0
split_feature=41 24 45 35 40 32 10
split_gain=2.23791 2.33544 2.83119 3.97202 2.97167 2.83036 2.49219
threshold=3.9800893073724795 -4.144236239878512 -0.067855988419896276 0.0050850981074703622 -0.0011221958096193638 -0.15965170985573754 80.500000000000014
decision_type=2 2 2 2 2 2 2
left_child=1 -1 3 5 -4 -3 -6
right_child=-2 2 4 -5 6 -7 -8
leaf_value=-0.040073802791362877 0.038352661228730274 0.01939317311791941 0.017312154778184034 0.048673359239382916 -0.0068088032308038903 -0.016617812931204717 -0.074550645135602875
leaf_weight=15.311268493533133 14.173502758145331 39.916961140930653 11.177194036543368 20.349856242537498 10.460359662771227 48.369400098919868 12.62775484472513
leaf_count=53 44 131 41 65 40 159 57
internal_value=0 -0.00303024 0.000878958 0.0089038 -0.0240825 -0.000172044 -0.0447084
internal_weight=0 158.213 142.902 108.636 34.2653 88.2864 23.0881
internal_count=590 546 493 355 138 290 97
is_linear=0
shrinkage=0.100287


Tree=83
num_leaves=9
num_cat=0
split_feature=2 53 22 37 30 22 41 33
split_gain=1.98988 2.23907 3.79822 3.16991 3.69299 3.39035 1.74294 1.65114
threshold=87.616236735343662 32.509583964656052 -0.0047855593953449174 -0.0022342209465525046 0.006846980605428884 0.00056016508702572143 2.766958038478069 -0.014360816912392096
decision_type=2 2 2 2 2 2 2 2
left_child=-1 3 -3 7 -5 -6 -4 -2
right_child=1 2 6 4 5 -7 -8 -9
leaf_value=-0.03012727350592365 0.0090412366402442823 0.021667694783214335 -0.049143451133890743 -0.040129368772809093 -0.016814035080540711 0.045593757763149757 -0.0058650375150621588 0.052032439129002087
leaf_weight=18.811856798827648 15.773131549358366 23.042773842811584 20.853905916213989 17.017630219459534 15.788239449262617 18.735597744584084 18.441584557294846 24.163861647248268
leaf_count=89 53 72 71 55 53 61 55 81
internal_value=0 0.00428987 -0.0102219 0.0143328 -0.00185453 0.0167002 -0.0292893 0.0355018
internal_weight=0 153.817 62.3383 91.4785 51.5415 34.5238 39.2955 39.937
internal_count=590 501 198 303 169 114 126 134
is_linear=0
shrinkage=0.100287


Tree=84
num_leaves=11
num_cat=0
split_feature=37 31 44 15 52 46 20 36 40 41
split_gain=2.2393 3.13553 3.19201 2.80512 4.40127 3.49199 1.54976 1.48406 1.09733 0.291925
threshold=0.044536707363648689 -9.4337174135363967e-05 0.1361869347288476 -0.072729027216646744 -66.92382428971446 -0.071314470804477406 -0.0071824679548511674 1.0203663336469611 -0.0019823825495633991 0.02685132698330429
decision_type=2 2 2 2 2 2 2 2 2 2
left_child=1 2 7 4 -3 -5 -7 9 -6 -1
right_child=-2 3 -4 5 8 6 -8 -9 -10 -11
leaf_value=-0.045936565914753431 0.043781649416231243 0.076386466627350449 0.019052383529104693 -0.061413530595523416 -0.039938946210853636 0.037171363400536478 -0.015925877689302939 -0.015944012131013062 0.019389155720065842 -0.083071440028230512
leaf_weight=6.7367111146450105 8.6384957954287511 11.338425762951376 8.3709897473454458 10.28648864477873 6.0340320244431496 10.259911783039572 11.249849662184713 9.0435052067041379 5.9015650004148466 9.608117785304783
leaf_count=21 27 72 48 63 61 40 66 50 33 95
internal_value=0 -0.00913758 -0.0331888 0.00540281 0.031931 -0.0136351 0.00883569 -0.0509743 -0.00956737 -0.0691803
internal_weight=0 88.8296 33.7593 55.0703 23.274 31.7963 21.5098 25.3883 11.9356 16.3448
internal_count=576 549 214 335 166 169 106 166 94 116
is_linear=0
shrinkage=0.100287


Tree=85
num_leaves=7
num_cat=0
split_feature=13 37 2 13 37 14
split_gain=2.82264 3.75123 4.17161 4.05822 3.55776 3.36989
threshold=-0.11493177999366049 0.010170278289173796 87.337645223652331 -0.040782650998764151 0.00041803719939602552 -0.005158674228666337
decision_type=2 2 2 2 2 2
left_child=-1 2 -2 -4 -5 -3
right_child=1 5 3 4 -6 -7
leaf_value=-0.028031951308631068 0.07480987021056483 0.011539248160456286 0.049113237073918063 -0.016836343308022299 0.028198941648176684 -0.048162363776063255
leaf_weight=22.492253750562668 12.086764775216578 19.088565111160278 22.742929130792618 44.963594205677509 28.795296985656023 18.168688304722309
leaf_count=79 38 64 76 153 93 73
internal_value=0 0.00993438 0.0194108 0.0122202 0.000577154 -0.0172765
internal_weight=0 145.846 108.589 96.5018 73.7589 37.2573
internal_count=576 497 360 322 246 137
is_linear=0
shrinkage=0.100287


Tree=86
num_leaves=10
num_cat=0
split_feature=51 50 45 24 32 21 31 34 53
split_gain=2.40006 3.59672 3.33671 3.38752 3.28888 3.1443 2.6948 2.50688 1.35171
threshold=1.7631757794063334 1.9605833923220277 -0.209589041046393 -1.453742845187433 -0.74305399433948038 0.0043156149275647157 -7.4814712137437011e-05 0.0020728617760791515 24.684666119698335
decision_type=2 2 2 2 2 2 2 2 2
left_child=2 -2 8 -4 -3 7 -7 -6 -1
right_child=1 4 3 -5 5 6 -8 -9 -10
leaf_value=-0.016612576816097197 0.05011586015576134 0.035187923379959109 0.044461152386454761 -0.025129484019874145 -0.0064251821731559763 0.042033182436750985 -0.01630372668226197 -0.058532667595234802 -0.058263061112551945
leaf_weight=16.30404394119978 16.207521617412567 19.502001360058784 13.161967456340792 14.575321450829504 21.263851597905159 15.399343281984331 15.777874663472174 17.407589346170425 17.832391686737537
leaf_count=69 53 61 47 56 68 49 48 52 73
internal_value=0 0.00686736 -0.0179501 0.00745163 -0.000892375 -0.0112211 0.0121264 -0.0303796 -0.0389412
internal_weight=0 105.558 61.8737 27.7373 89.3507 69.8487 31.1772 38.6714 34.1364
internal_count=576 331 245 103 278 217 97 120 142
is_linear=0
shrinkage=0.100287


Tree=87
num_leaves=9
num_cat=0
split_feature=11 66 69 5 27 30 27 20
split_gain=2.17352 3.28775 2.61432 2.23499 1.98296 1.60651 2.32777 1.62984
threshold=-0.013429704914105221 0.033154636698440938 0.30693094855032238 151.50000000000003 0.012453226952115808 0.0094133042987087617 0.0065502844016711269 -0.0037588892841425854
decision_type=2 2 2 2 2 2 2 2
left_child=4 2 3 -2 -1 6 -4 -7
right_child=1 -3 5 -5 -6 7 -8 -9
leaf_value=-0.069764225032625693 -0.0098581782798401549 0.05330093617895016 -0.0047017807915043985 0.042813304095583364 0.012391376068901016 -0.033300289162177754 -0.069623357154414464 0.026291782068781046
leaf_weight=8.5468786675482971 15.926877319812776 10.759034767746924 11.015231015160682 15.59040282666683 4.0161780193448058 8.129788067191841 12.230655092746018 10.27649233676493
leaf_count=99 48 91 65 51 40 43 76 63
internal_value=0 0.00181649 -0.00565706 0.0158333 -0.0425619 -0.0222527 -0.0396899 0
internal_weight=0 83.9285 73.1694 31.5173 12.5631 41.6522 23.2459 18.4063
internal_count=576 437 346 99 139 247 141 106
is_linear=0
shrinkage=0.100287


Tree=88
num_leaves=6
num_cat=0
split_feature=20 21 31 33 0
split_gain=2.55831 2.75137 2.37827 2.28917 3.92973
threshold=-0.033194958450556304 -0.017854197794948398 0.00037009841594844286 0.016952045741764711 115.42760854449091
decision_type=2 2 2 2 2
left_child=-1 -2 3 4 -3
right_child=1 2 -4 -5 -6
leaf_value=-0.029692234077618444 0.038972842159254055 0.037244591284123711 -0.03089674126874498 -0.025443004597744286 -0.0048522377431495442
leaf_weight=19.356897871941328 25.196988426148891 41.734211787581444 17.947620466351509 16.474192351102829 46.562431529164314
leaf_count=80 84 140 59 60 153
internal_value=0 0.00885384 0.00251493 0.00840869 0.0149162
internal_weight=0 147.915 122.718 104.771 88.2966
internal_count=576 496 412 353 293
is_linear=0
shrinkage=0.100287


Tree=89
num_leaves=6
num_cat=0
split_feature=42 43 14 18 60
split_gain=2.12109 4.6373 2.58086 3.11216 3.15176
threshold=17.633314670630437 29.937371296667028 -0.075208265114121028 -3.2439439830730543 8550.0000000000018
decision_type=2 2 2 2 2
left_child=-1 -2 -3 -4 -5
right_child=1 2 3 4 -6
leaf_value=0.036155259247329687 -0.052697718083838253 0.027569854809617454 -0.049599736207498107 0.013528188743961167 -0.026088229991881182
leaf_weight=13.241071090102194 18.21278740465641 28.783873587846756 14.222669117152689 61.730681590735912 29.810653388500214
leaf_count=42 62 93 53 233 93
internal_value=0 -0.00541155 0.000937154 -0.00620754 0.000452057
internal_weight=0 152.761 134.548 105.764 91.5413
internal_count=576 534 472 379 326
is_linear=0
shrinkage=0.100287


Tree=90
num_leaves=8
num_cat=0
split_feature=67 52 32 45 30 30 51
split_gain=1.86371 2.42479 3.36942 2.08008 3.55355 3.54739 1.92264
threshold=6.3194220442893303e-06 -66.92382428971446 -1.0000000180025095e-35 1.0000000180025095e-35 0.0096281486688935079 0.0055788685322412388 1.5905803671187169
decision_type=2 2 2 2 2 2 2
left_child=1 -1 -3 4 5 -2 -4
right_child=3 2 6 -5 -6 -7 -8
leaf_value=0.02390732101136778 0.010017180125464074 -0.077382500004874219 0.039054727074964289 0.038672965174232445 0.027900643260638756 -0.063661076092467905 -0.03332691448580348
leaf_weight=8.334610987454651 12.055309772491457 11.562785955145955 5.7968246340751657 15.369415797293184 19.672640863806009 13.510522719472645 9.3905491922050697
leaf_count=69 59 101 31 69 84 75 88
internal_value=0 -0.0220018 -0.036882 0.00691131 -0.00366334 -0.0285188 -0.00467137
internal_weight=0 35.0848 26.7502 60.6079 45.2385 25.5658 15.1874
internal_count=576 289 220 287 218 134 119
is_linear=0
shrinkage=0.100287


Tree=91
num_leaves=8
num_cat=0
split_feature=20 51 35 35 23 30 45
split_gain=2.22713 2.6553 4.35728 3.22702 2.96536 2.51932 3.15724
threshold=-0.033194958450556304 1.786437513401014 -0.0029918796067066405 -0.001865446954388929 -0.0031814860581948485 0.0056805925013224002 -7.20395947848142
decision_type=2 2 2 2 2 2 2
left_child=-1 3 -3 -2 -5 -4 -7
right_child=1 2 5 4 -6 6 -8
leaf_value=-0.028142618334686335 0.053704409805101189 -0.045942873850905806 0.033603090923297697 0.04176988196249605 -0.019250445502121894 0.025698355539291871 -0.02687073874814919
leaf_weight=19.060502778738737 23.284588605165482 18.357816144824028 25.868187263607979 13.049084588885306 19.994588673114777 19.202285245060921 27.817706428468227
leaf_count=80 76 63 80 44 74 58 101
internal_value=0 0.00806886 -0.00236532 0.0251807 0.00450455 0.00849066 -0.00509102
internal_weight=0 147.574 91.246 56.3283 33.0437 72.8882 47.02
internal_count=576 496 302 194 118 239 159
is_linear=0
shrinkage=0.100287


Tree=92
num_leaves=10
num_cat=0
split_feature=51 41 50 5 6 41 20 24 20
split_gain=2.02484 3.75876 3.47157 3.09346 3.01148 3.4463 3.67431 2.65292 1.30027
threshold=1.7695075964835285 0.026266780325912346 1.9605833923220277 3785.5000000000005 1726.5000000000002 2.3930549234003666 0.0041153787896625058 -1.6674918039539712 0.0030138474070051662
decision_type=2 2 2 2 2 2 2 2 2
left_child=1 -1 -2 7 5 -4 -7 -3 -6
right_child=2 3 4 -5 8 6 -8 -9 -10
leaf_value=0.027217219585311554 0.050591887234786019 -0.010338860861845321 0.043833313712615819 0.011734123827782418 -0.0042312627973861349 -0.037102254326222224 0.027815313960548968 -0.068621185662139164 -0.045981341302741584
leaf_weight=14.777459152042864 15.316180929541586 13.771813809871668 22.033053681254387 12.376810491085051 15.776626855134966 18.567161738872528 16.194170936942101 20.541757948696617 15.791139125823973
leaf_count=56 51 59 76 40 49 55 48 92 50
internal_value=0 -0.0161731 0.0067478 -0.0302496 -0.000766952 0.0128645 -0.00646767 -0.0457854 -0.0256786
internal_weight=0 61.4678 103.678 46.6904 88.3622 56.7944 34.7613 34.3136 31.5678
internal_count=576 247 329 191 278 179 103 151 99
is_linear=0
shrinkage=0.100287


Tree=93
num_leaves=8
num_cat=0
split_feature=11 16 46 25 23 35 3
split_gain=1.94588 2.18397 5.92809 3.88315 3.4515 2.72909 1.77372
threshold=-0.013429704914105221 -0.34670544560394606 0.23133423146453716 36.500000000000007 0.0037147997049135077 -0.0038831485772799967 0.011603414072137604
decision_type=2 2 2 2 2 2 2
left_child=6 2 -2 4 5 -3 -1
right_child=1 3 -4 -5 -6 -7 -8
leaf_value=-0.068907827400222582 0.11645959271440778 0.022930948355726739 -0.031981335732613463 -0.056540601272142527 0.037089139563367381 -0.032554869906238945 0.0091398609863788359
leaf_weight=7.7801156099885684 5.4248084500431997 13.666737139224997 4.9424292705953121 11.697955040261148 22.683570172637701 24.161354597657926 4.1303832940757275
leaf_count=99 42 47 61 77 92 118 40
internal_value=0 0.00211291 0.0449173 -0.00391984 0.0061372 -0.0121274 -0.0409035
internal_weight=0 82.5769 10.3672 72.2096 60.5117 37.8281 11.9105
internal_count=576 437 103 334 257 165 139
is_linear=0
shrinkage=0.100287


Tree=94
num_leaves=9
num_cat=0
split_feature=17 17 33 35 23 33 33 0
split_gain=2.31501 2.83108 3.05338 5.31558 2.96396 2.40648 2.85018 1.63917
threshold=1.8426467874184869 -1.1655452569664861 0.003902112651900015 0.0029768406982134559 -0.0083287295056502213 -0.0054769431663483697 0.012101019260582454 114.12952443096317
decision_type=2 2 2 2 2 2 2 2
left_child=1 2 4 -4 -1 -3 7 -7
right_child=-2 5 3 -5 -6 6 -8 -9
leaf_value=-0.0051980493252707675 0.038693746870163435 -0.040679851256605157 -0.047212114973595669 0.034393916491639698 0.05038889017731147 0.036032175096871399 -0.033956591766131458 -0.0079222001242275544
leaf_weight=14.10686671733856 16.631680198013783 23.675482660531998 17.38241840898991 14.522041901946066 27.526904232800007 17.853171050548553 18.031172953546047 15.337638959288595
leaf_count=51 58 87 62 50 91 58 68 51
