tree
version=v4
num_class=3
num_tree_per_iteration=3
label_index=0
max_feature_idx=72
objective=multiclass num_class:3
feature_names=price bid ask spread volume bid_qty1 ask_qty1 bid_qty2 ask_qty2 microsecond tick_id price_momentum_1 price_momentum_5 price_momentum_10 price_momentum_20 price_momentum_50 price_momentum_100 price_acceleration price_jerk price_velocity volume_momentum_1 volume_momentum_5 volume_momentum_10 volume_momentum_20 volume_acceleration volume_velocity spread_1 spread_2 spread_5 spread_10 spread_volatility spread_trend spread_momentum bid_ask_imbalance_1 bid_ask_imbalance_5 bid_ask_imbalance_10 bid_ask_ratio order_flow_imbalance vwap vwap_trend vwap_momentum vwap_volatility rsi_14 rsi_21 macd macd_signal macd_histogram stochastic_k stochastic_d williams_r atr_14 atr_21 cci adx mfi hour minute second day_of_week order_book_imbalance order_flow_pressure liquidity_ratio realized_volatility_1 realized_volatility_5 realized_volatility_10 parkinson_volatility garman_klass_volatility amihud_illiquidity kyle_lambda roll_spread effective_spread quoted_spread realized_spread
feature_infos=[162.32347444635775:349.42547353293935] [162.29864248410976:349.42465813827079] [162.34830640860574:349.42628892760791] [0.001:0.074881758636492449] [3210:9108] [1229:3717] [1228:3740] [911:2814] [906:2794] [51022:891247] [0:249] [-0.039143349429216157:0.41623789334468952] [-0.080907820948191378:0.41092996913366875] [-0.12679561684755714:0.50617894340669412] [-0.11426513403729688:0.47684309312409434] [-0.10814380896421572:0.55072220484866596] [-0.11789892147482028:0.5675515399537534] [-182.8872559643672:267.45088304812026] [-268.98627038870535:409.50755178004272] [-9.8610720649007249:83.788371311048792] [-0.56104817484838088:1.6929798131967462] [-0.57785847914603283:1.6612466124661247] [-0.57972928359194453:1.7646149087534799] [-0.57620776934081652:1.7401793999381381] [-105.97297297300614:196.05746791133842] [-4903:5619] [0.001:0.074881758636492449] [0.001:0.049663924495959133] [0.0017996118251216748:0.049663924495959133] [0.0029986718030360696:0.049663924495959133] [0.0019740010056471728:0.034410591010242846] [-0.048663924495959132:0.0011654705600149897] [-0.98157806295978578:38.99462868165844] [-0.064672897196261681:0.057611598626478445] [-0.020476962032175878:0.018416989399475624] [-0.016141477850749219:0.015410348604751455] [0.8785112359550562:1.1222672064777328] [-0.037504641663572223:0.038937073260749216] [162.32347444635775:265.99411641016621] [-0.042680665850193603:2.2162295388595488] [-0.00100355624395565:0.013653167210833317] [0.015951823550562318:2.6266343924597293] [7.302035761914226:100] [19.441401899135002:100] [-5.9840993709049144:22.277051740050382] [-5.0977792428591675:18.348539662924189] [-3.5896142795304549:10.207177047322016] [0:100] [0:100] [-100:0] [0.87935064930683937:8.6097452167262549] [0.91201260585792931:6.4523314565629262] [-276.71481767735747:652.61234060372078] [6.1012310892212938:100] [20.709314926330464:100] none none [13:16] none [-0.037504641663572223:0.038937073260749216] [-71030:53492] [61645.77202774382:9093000] none [0.021545931589446243:6.6905202854303711] [0.13372522300183595:6.7795289091665714] [7.9392610428284053e-06:0.00018374561439486322] [0.0026206314687299147:0.13237679280167788] [5.1911338562526637e-07:7.7055591152237848e-06] [-0.0007611701239618946:0.0019805638763293258] [0.018895844492014598:20.322229505591189] none [0.00099999999997635314:0.07488175863647939] none
tree_sizes=1057 1065 856 868 968 970 981 963 975 974 867 870 981 870 870 980 984 975 976 1066 980

Tree=0
num_leaves=9
num_cat=0
split_feature=38 51 11 11 20 31 5 10
split_gain=44.9718 6.03677 5.83779 5.66261 3.05255 3.53814 0.915875 0.669531
threshold=253.50194456987208 2.8278795728186084 -0.011640604991635604 -0.00036586596055476756 -0.0016375386017386526 0.00024979499989629073 1386.5000000000002 122.50000000000001
decision_type=2 2 2 2 2 2 2 2
left_child=1 2 -1 -2 7 6 -6 -4
right_child=3 -3 4 -5 5 -7 -8 -9
leaf_value=-1.413562679446531 -1.2638726610775677 -1.4059614059869157 -1.5015905863759447 -1.3588805489773403 -1.476248690378247 -1.4255844479126074 -1.5184851837077431 -1.5353896588669835
leaf_weight=14.152451395988463 15.241101503372191 16.874076664447784 13.608126342296602 18.234889298677444 13.608126342296602 13.608126342296599 13.608126342296599 18.234889298677444
leaf_count=52 56 62 50 67 50 50 50 67
internal_value=-1.4348 -1.46888 -1.48111 -1.31561 -1.49427 -1.47345 -1.49738 -1.52096
internal_weight=0 103.694 86.8198 33.476 72.6674 40.8244 27.2163 31.843
internal_count=504 381 319 123 267 150 100 117
is_linear=0
shrinkage=1


Tree=1
num_leaves=9
num_cat=0
split_feature=0 43 45 18 19 32 65 30
split_gain=29.7603 7.92181 6.56333 6.34511 7.41456 3.99012 3.60827 3.61074
threshold=276.72791180994801 67.971668843801226 0.27509022529078814 -1.8909950352600817 1.4348160371554715 0.20881734119584996 2.2303633812284957e-05 0.01093534452561694
decision_type=2 2 2 2 2 2 2 2
left_child=1 3 -2 -1 5 -5 -4 -8
right_child=2 -3 6 4 -6 -7 7 -9
leaf_value=-0.88375819790540466 -0.87833834651301468 -0.90602433408364424 -0.99373828742252268 -0.75333374137237175 -0.86830449070609572 -0.82074231748482307 -0.8980802341177867 -0.96877260432431356
leaf_weight=18.931588768959045 20.751933842897415 19.659726798534393 19.659726798534393 25.84890004992485 19.295657783746719 21.116002857685089 19.295657783746719 18.931588768959045
leaf_count=52 57 54 54 71 53 58 53 52
internal_value=-0.880359 -0.84024 -0.933814 -0.825057 -0.808285 -0.783631 -0.953702 -0.933099
internal_weight=0 104.852 78.6389 85.1921 66.2606 46.9649 57.887 38.2272
internal_count=504 288 216 234 182 129 159 105
is_linear=0
shrinkage=1


Tree=2
num_leaves=7
num_cat=0
split_feature=14 25 28 60 22 12
split_gain=12.967 5.10889 4.60705 5.49228 6.18289 5.67131
threshold=0.031749389848375061 -29.499999999999996 0.015098079822995781 -7713.9999999999991 -0.010463691775654758 -0.00089427672517583534
decision_type=2 2 2 2 2 2
left_child=2 -2 3 -1 -5 -6
right_child=1 -3 -4 4 5 -7
leaf_value=-1.1166380207066853 -0.96067021222210425 -1.038477712069102 -1.1301603249837204 -1.1005940203224571 -0.98797665458408601 -1.0651546075450042
leaf_weight=25.498446822166443 17.6789231300354 30.258156895637512 20.398757457733154 26.178405404090881 22.09865391254425 29.238219022750854
leaf_count=75 52 89 60 77 65 86
internal_value=-1.05785 -1.00977 -1.08024 -1.07035 -1.05512 -1.03193
internal_weight=0 47.9371 123.412 103.014 77.5153 51.3369
internal_count=504 141 363 303 228 151
is_linear=0
shrinkage=1


Tree=3
num_leaves=7
num_cat=0
split_feature=0 39 28 32 35 63
split_gain=35.0156 6.65131 6.56317 3.65255 2.96304 0.184376
threshold=318.4311869962267 0.42303978031360207 0.009701287345575486 1.4963616420349224 -0.002198353117204246 0.35833562213075948
decision_type=2 2 2 2 2 2
left_child=1 3 -2 4 -1 -6
right_child=2 -3 -4 -5 5 -7
leaf_value=-0.039542437609104572 0.13235532658738317 0.026259913814612672 0.043232687353057762 -0.013724325043107157 -0.081479241552398024 -0.099327757508009831
leaf_weight=25.020834386348724 19.898817807435989 16.376380413770676 24.246437579393387 21.4471675157547 13.089653193950651 19.500784799456596
leaf_count=95 68 61 84 81 50 74
internal_value=0 -0.0404268 0.0834167 -0.0542427 -0.0693224 -0.0921739
internal_weight=0 95.4348 44.1453 79.0584 57.6113 32.5904
internal_count=513 361 152 300 219 124
is_linear=0
shrinkage=0.114985


Tree=4
num_leaves=8
num_cat=0
split_feature=1 1 9 51 40 64 35
split_gain=23.1827 8.27469 9.63804 10.5286 6.85182 4.27843 3.75604
threshold=279.21698842809855 182.80995268789471 669747.00000000012 1.9217826226287416 0.00028492901908472318 0.56011378853498595 -0.00018594043839631296
decision_type=2 2 2 2 2 2 2
left_child=1 -1 3 -3 -2 -4 -6
right_child=4 2 5 -5 6 -7 -8
leaf_value=0.099276176387971857 -0.0051161737498970341 0.045740043142592196 0.023266148445346552 -0.058557856057823161 -0.044403992651164563 0.10002886865412232 -0.10850464799601371
leaf_weight=19.535568386316299 27.279551982879639 21.916401565074921 19.761503934860229 30.740390211343765 23.660731911659241 18.681379765272141 24.743252813816071
leaf_count=53 76 60 54 84 66 51 69
internal_value=0 0.0313752 0.0168093 -0.0151451 -0.0512085 0.060579 -0.07718
internal_weight=0 110.635 91.0997 52.6568 75.6835 38.4429 48.404
internal_count=513 302 249 144 211 105 135
is_linear=0
shrinkage=0.114985


Tree=5
num_leaves=8
num_cat=0
split_feature=40 10 44 6 0 35 6
split_gain=12.5329 8.80147 10.8384 10.0698 7.28175 7.10211 4.13906
threshold=0.00029583260033239084 60.500000000000007 5.4848020394621964 3418.5000000000005 276.72791180994801 0.00022422752007708222 1370.5000000000002
decision_type=2 2 2 2 2 2 2
left_child=5 2 -2 -3 -5 6 -1
right_child=1 3 -4 4 -6 -7 -8
leaf_value=0.040459888502792155 -0.057688099853727963 0.11305995667210801 0.054322646317598589 -0.036810183041255537 0.064631088472002524 -0.075773234803980308 -0.040251514206712975
leaf_weight=16.841679126024246 27.082782447338104 24.428259372711182 19.744862645864487 17.221952766180038 20.473193615674973 31.523591011762619 16.75343719124794
leaf_count=50 80 72 57 51 59 94 50
internal_value=0 0.0271846 -0.0104554 0.0555581 0.0182826 -0.0365753 0.000206226
internal_weight=0 108.951 46.8276 62.1234 37.6951 65.1187 33.5951
internal_count=513 319 137 182 110 194 100
is_linear=0
shrinkage=0.114985


Tree=6
num_leaves=8
num_cat=0
split_feature=0 35 23 23 66 27 37
split_gain=21.243 7.90508 5.92396 3.16603 3.46181 1.8136 1.0109
threshold=278.86183069781617 0.00033320495193659816 -0.0063765803510534283 -0.0080235769341982493 0.014232250774426953 0.0087935778509144417 0.0040126934603607941
decision_type=2 2 2 2 2 2 2
left_child=3 -2 -3 5 6 -1 -5
right_child=1 2 -4 4 -6 -7 -8
leaf_value=-0.043701403734353675 0.003422833093629929 0.13878553058242471 0.040766202821986793 -0.09291442328034695 -0.0090150240522374157 0.015101194526467925 -0.052434715446444485
leaf_weight=12.710534855723383 27.602259784936905 15.423994392156599 17.307125121355057 23.103070706129074 12.860259145498274 15.247912541031836 12.669291362166403
leaf_count=50 95 51 59 91 50 60 50
internal_value=0 0.0487532 0.0869714 -0.0424708 -0.0601961 -0.0116294 -0.078589
internal_weight=0 60.3334 32.7311 76.5911 48.6326 27.9584 35.7724
internal_count=506 205 110 301 191 110 141
is_linear=0
shrinkage=0.114985


Tree=7
num_leaves=8
num_cat=0
split_feature=0 35 69 0 9 16 48
split_gain=16.2238 7.64233 6.01846 5.69263 5.45233 4.44018 4.15822
threshold=276.72791180994801 -0.00011939859764309415 1.010820443229822 185.85263705722983 261204.50000000003 0.011343123425374803 49.60806847399612
decision_type=2 2 2 2 2 2 2
left_child=2 -2 -1 -4 -5 -6 -3
right_child=1 6 3 4 5 -7 -8
leaf_value=-0.026159755571403712 0.0010746923900454113 -0.032269818732653381 0.090387457541483349 -0.027765626113558924 0.088050940012598389 0.01244510265365982 -0.10296221660927864
leaf_weight=20.93122786283493 33.723577588796616 19.852791875600815 23.767982602119446 18.62297135591507 18.983620285987854 22.383097589015961 24.70425933599472
leaf_count=57 95 56 64 51 51 61 71
internal_value=0 -0.0402191 0.0289831 0.0427655 0.0238908 0.0471497 -0.0714732
internal_weight=0 78.2806 104.689 83.7577 59.9897 41.3667 44.5571
internal_count=506 222 284 227 163 112 127
is_linear=0
shrinkage=0.114985


Tree=8
num_leaves=8
num_cat=0
split_feature=15 0 38 3 64 33 27
split_gain=10.4344 6.23658 7.02761 7.64742 5.68131 4.41082 3.50358
threshold=-0.030431394800482511 185.54350746096927 204.75626679581305 0.007187387801360549 0.63676816054324381 -0.00072661219952476397 0.013003610234330233
decision_type=2 2 2 2 2 2 2
left_child=-1 -2 4 5 -3 -4 -5
right_child=1 2 3 6 -6 -7 -8
leaf_value=-0.056523073263538205 -0.045658881099327579 0.021361792019305614 0.085134904627865715 -0.055968660180910471 0.10880062639071451 0.0072798427450300792 0.011099202572254096
leaf_weight=32.160983860492706 18.670481264591217 19.410855114459991 17.891370296478271 24.266113877296448 19.904723793268204 20.819496244192123 17.882203042507172
leaf_count=98 57 56 52 72 57 61 53
internal_value=0 0.0161592 0.0257656 0.00637373 0.0656403 0.0432713 -0.0275123
internal_weight=0 138.845 120.175 80.8592 39.3156 38.7109 42.1483
internal_count=506 408 351 238 113 113 125
is_linear=0
shrinkage=0.114985


Tree=9
num_leaves=8
num_cat=0
split_feature=0 24 64 31 30 19 24
split_gain=13.3509 5.36676 6.66125 4.35639 3.6755 1.77006 0.392594
threshold=278.86183069781617 -1.6871054003012251 0.26697337144682826 0.00038455159878331369 0.0069226679281188435 -0.92937180895918903 -1.3370761121593753
decision_type=2 2 2 2 2 2 2
left_child=3 -2 -3 4 -1 -6 -7
right_child=1 2 -4 -5 5 6 -8
leaf_value=-0.005603383912246419 0.084259434145935716 0.064165111186037072 -0.035700880330061788 0.02380325609228575 -0.031020311410210135 -0.09637758237858908 -0.068409365047636603
leaf_weight=18.910395726561546 22.729793176054955 17.111968249082565 18.2384974360466 14.178577959537504 12.250028163194655 14.805426746606825 12.230686828494074
leaf_count=77 75 54 63 56 50 61 50
internal_value=0 0.0406738 0.0126389 -0.0333389 -0.0472635 -0.0673107 -0.083742
internal_weight=0 58.0803 35.3505 72.3751 58.1965 39.2861 27.0361
internal_count=486 192 117 294 238 161 111
is_linear=0
shrinkage=0.114985


Tree=10
num_leaves=7
num_cat=0
split_feature=0 22 44 29 60 69
split_gain=10.8527 10.821 8.27927 6.48715 5.79731 2.71285
threshold=279.22241664023471 0.019880230767713506 1.0000000180025095e-35 0.012203599354815268 116.00000000000001 2.3382099423088456
decision_type=2 2 2 2 2 2
left_child=1 3 -2 4 -1 -4
right_child=2 -3 5 -5 -6 -7
leaf_value=-0.014657553353814707 0.029998570739613015 -0.058792660306715289 -0.08388665862058968 0.083374224959041815 0.055896478310298509 -0.027647732466434146
leaf_weight=33.849199384450912 17.761965721845627 18.171165466308594 29.094521462917328 28.911038607358932 28.23929962515831 18.605943232774734
leaf_count=92 50 50 85 78 77 54
internal_value=0 0.0222081 -0.0370044 0.038386 0.0174314 -0.0619571
internal_weight=0 109.171 65.4624 90.9995 62.0885 47.7005
internal_count=486 297 189 247 169 139
is_linear=0
shrinkage=0.114985


Tree=11
num_leaves=7
num_cat=0
split_feature=40 51 22 34 69 48
split_gain=8.9846 6.50215 6.33857 7.34019 7.611 2.03091
threshold=0.00027165069553403148 1.8111280697636283 0.019331714649092339 0.0023877946985592052 2.3630620038193295 67.561463905939533
decision_type=2 2 2 2 2 2
left_child=1 -1 3 4 -2 -6
right_child=2 -3 -4 -5 5 -7
leaf_value=-0.083429882825470494 0.025231011146123843 -0.0011819199254828874 0.079798166365217443 0.057517624433657599 -0.023544181328419154 -0.07962346989923029
leaf_weight=23.91423436999321 33.368451416492462 27.123107969760895 18.576808273792267 26.556857645511627 16.866510987281799 17.315622538328171
leaf_count=74 98 82 53 78 50 51
internal_value=0 -0.0397264 0.0184243 0.00630482 -0.0138292 -0.051962
internal_weight=0 51.0373 112.684 94.1074 67.5506 34.1821
internal_count=486 156 330 277 199 101
is_linear=0
shrinkage=0.114985


Tree=12
num_leaves=8
num_cat=0
split_feature=66 17 21 23 31 14 39
split_gain=19.3848 4.7352 4.90759 5.70798 3.82585 2.35884 1.56257
threshold=0.0064129964958539324 1.1649972628339997 -0.015902503974579759 -0.014600203316156577 0.00010922610771360658 0.022111783081105844 0.094042037319241822
decision_type=2 2 2 2 2 2 2
left_child=4 2 -2 -4 -1 6 -5
right_child=1 -3 3 5 -6 -7 -8
leaf_value=0.089689509109323301 -0.096421450910472078 0.032747597482543508 0.040093637352247052 -0.089208245894739163 0.019038708640250146 -0.012834904177340324 -0.037937285685398628
leaf_weight=25.935507595539093 17.140007480978966 13.082986280322073 13.235661029815672 16.02937446534634 16.644590049982071 19.119776725769043 15.460590064525602
leaf_count=79 71 51 52 67 52 78 62
internal_value=0 -0.031425 -0.0417947 -0.0271224 0.0620795 -0.0447054 -0.0640479
internal_weight=0 94.0684 80.9854 63.8454 42.5801 50.6097 31.49
internal_count=512 381 330 259 131 207 129
is_linear=0
shrinkage=0.114985


Tree=13
num_leaves=7
num_cat=0
split_feature=0 35 51 9 0 67
split_gain=15.6218 5.93871 5.43532 5.38617 10.3827 4.06995
threshold=276.72791180994801 -0.00011939859764309415 1.793256970632215 669747.00000000012 186.27952237985258 1.1168079402241561e-06
decision_type=2 2 2 2 2 2
left_child=2 -2 -1 4 -4 -3
right_child=1 5 3 -5 -6 -7
leaf_value=0.086877196467399623 -0.0028509178137579561 -0.097656520741799771 0.056173623127647634 0.055162359538637094 -0.044763106275793399 -0.024270383102381898
leaf_weight=18.429651290178299 34.341467052698135 24.367852449417114 22.779127806425095 32.86957523226738 32.971662849187851 16.949871927499771
leaf_count=50 98 73 61 88 92 50
internal_value=0 -0.0381919 0.0300661 0.0182467 -0.00351808 -0.0675596
internal_weight=0 75.6592 107.05 88.6204 55.7508 41.3177
internal_count=512 221 291 241 153 123
is_linear=0
shrinkage=0.114985


Tree=14
num_leaves=7
num_cat=0
split_feature=50 34 17 52 52 10
split_gain=8.18719 8.68009 8.61067 5.6945 4.10461 3.88731
threshold=2.0178665952612396 0.0014037552357568938 -1.0175156292581236 -31.615798473888699 50.247175456818404 101.50000000000001
decision_type=2 2 2 2 2 2
left_child=3 2 -2 -1 5 -5
right_child=1 -3 -4 4 -6 -7
leaf_value=-0.070991897181293756 -0.043947532507814351 0.077158387399087328 0.046633141996597093 0.058588611142908982 -0.040267830605147353 -0.01694709227005636
leaf_weight=25.046056300401688 29.183191806077957 28.488925009965897 26.445644557476044 17.246640235185623 26.773920744657516 18.845757663249969
leaf_count=78 87 82 77 50 80 58
internal_value=0 0.0255486 -0.00088333 -0.0246317 -0.00615627 0.0191462
internal_weight=0 84.1178 55.6288 87.9124 62.8663 36.0924
internal_count=512 246 164 266 188 108
is_linear=0
shrinkage=0.114985


Tree=15
num_leaves=8
num_cat=0
split_feature=64 66 17 44 41 22 21
split_gain=12.316 5.46946 5.27044 2.74854 3.64899 2.45652 1.65017
threshold=0.26697337144682826 0.014931819100345521 0.45528718186938782 3.5101461642249494 0.29090074600992682 -0.0095451769452302142 0.010867796473438053
decision_type=2 2 2 2 2 2 2
left_child=-1 2 3 4 5 -2 -7
right_child=1 -3 -4 -5 -6 6 -8
leaf_value=0.06415398311929317 0.0094893832274898574 0.047211147282238221 0.030019666491171555 0.0041226342928205552 -0.091296975713150291 -0.079603960554965769 -0.021094156727551175
leaf_weight=30.334621101617813 12.608330741524691 14.159540861845015 16.022544637322426 13.473824381828306 21.471916928887367 13.755051180720335 11.893807068467138
leaf_count=90 51 56 63 54 89 59 49
internal_value=0 -0.0191667 -0.0297036 -0.0427785 -0.0533603 -0.0320576 -0.0524846
internal_weight=0 103.385 89.2255 73.2029 59.7291 38.2572 25.6489
internal_count=511 421 365 302 248 159 108
is_linear=0
shrinkage=0.114985


Tree=16
num_leaves=8
num_cat=0
split_feature=17 40 23 69 23 30 28
split_gain=7.34502 5.30525 14.7865 9.42103 6.80688 4.33494 3.76995
threshold=1.7418383600353771 0.00027733047477673805 0.0059925499026263216 2.3661966499251794 0.0026384352229459345 0.0079351749268254858 0.011952223529400853
decision_type=2 2 2 2 2 2 2
left_child=1 2 -1 4 -3 -5 -7
right_child=-2 3 -4 5 -6 6 -8
leaf_value=-0.010469260382359515 -0.067604406590708543 -0.010144565841186459 0.11056153443396513 -0.022241378820465136 -0.098368595435475367 0.078573334358832139 0.0076224511775006415
leaf_weight=33.646923869848251 18.538248687982559 31.067609667778015 22.113753646612167 17.510628223419189 18.417890906333923 21.810171395540237 18.141594052314758
leaf_count=93 53 90 61 50 54 60 50
internal_value=0 0.00877767 0.0375316 -0.00621368 -0.0429884 0.0254544 0.0463627
internal_weight=0 162.709 55.7607 106.948 49.4855 57.4624 39.9518
internal_count=511 458 154 304 144 160 110
is_linear=0
shrinkage=0.114985


Tree=17
num_leaves=8
num_cat=0
split_feature=40 10 9 49 51 40 44
split_gain=6.33647 6.41858 7.38254 5.02077 3.57056 2.3702 2.31233
threshold=0.00027165069553403148 71.500000000000014 753747.00000000012 -21.455791136476567 1.8111280697636283 0.00035374038863433826 0.8434207608685399
decision_type=2 2 2 2 2 2 2
left_child=4 3 5 -2 -1 -3 -4
right_child=1 2 6 -5 -6 -7 -8
leaf_value=-0.070739431999600227 -0.049830436506187702 0.038891311027995604 -0.034699628568344874 0.023649144742641511 -0.0083594668853409909 0.096924863887980162 0.025564890769741298
leaf_weight=21.510950595140457 28.566790282726288 17.087560802698135 16.303381055593491 21.576293647289276 27.833844065666199 20.475063979625702 17.395158231258392
leaf_count=70 83 50 51 64 85 58 50
internal_value=0 0.0133054 0.0354832 -0.0182105 -0.035559 0.0705353 -0.00358783
internal_weight=0 121.404 71.2612 50.1431 49.3448 37.5626 33.6985
internal_count=511 356 209 147 155 108 101
is_linear=0
shrinkage=0.114985


Tree=18
num_leaves=8
num_cat=0
split_feature=64 5 60 18 50 29 27
split_gain=10.2074 5.61527 3.13362 2.69297 2.50185 2.24794 2.67284
threshold=0.27010812405435197 3519.5000000000005 6971.5000000000009 -0.53544755670329458 1.970382431606448 0.0094353167640643578 0.010946752806130996
decision_type=2 2 2 2 2 2 2
left_child=3 2 5 -1 -4 -2 -7
right_child=1 -3 4 -5 -6 6 -8
leaf_value=0.081867526606360402 -0.088470987436013421 0.025636620109932413 0.029076570115532944 0.017786362412188908 -0.042857528190645783 0.0010622973000440493 -0.065868839613859836
leaf_weight=17.400594532489777 17.249440684914589 24.197404429316521 13.328671962022783 17.297228932380676 12.275998115539549 13.866724684834479 18.282093688845634
leaf_count=50 75 99 53 50 49 58 76
internal_value=0 -0.0225214 -0.0380604 0.0499319 -0.00540787 -0.0549807 -0.0369988
internal_weight=0 99.2003 75.0029 34.6978 25.6047 49.3983 32.1488
internal_count=510 410 311 100 102 209 134
is_linear=0
shrinkage=0.114985


Tree=19
num_leaves=9
num_cat=0
split_feature=44 32 0 47 9 30 6 8
split_gain=5.65417 4.49868 6.13636 5.05161 4.33047 6.32291 5.58696 2.71884
threshold=5.626780087170915 0.69626839495002801 186.27952237985258 80.475419919034735 347887.00000000006 0.0075064528266647222 3542.5000000000005 1158.5000000000002
decision_type=2 2 2 2 2 2 2 2
left_child=1 2 -1 7 5 -4 -6 -3
right_child=-2 3 4 -5 6 -7 -8 -9
leaf_value=0.077110615607668923 -0.066164369173905654 -0.031596625361801071 0.02684539813334787 -0.07225245836599678 0.070871004226743917 -0.061669719063280622 -0.012491921010332536 0.029009581512162975
leaf_weight=18.504463016986847 17.411439627408981 18.49055477976799 19.48555999994278 18.608776718378067 21.737366408109665 23.572588890790939 20.791336119174957 20.781619623303413
leaf_count=50 52 52 56 53 61 69 58 59
internal_value=0 0.00278537 0.0170757 -0.022911 0.00409119 -0.0216112 0.0301162 0.000470609
internal_weight=0 161.972 104.091 57.881 85.5869 43.0581 42.5287 39.2722
internal_count=510 458 294 164 244 125 119 111
is_linear=0
shrinkage=0.114985


Tree=20
num_leaves=8
num_cat=0
split_feature=42 51 29 66 5 16 40
split_gain=6.9013 6.97551 12.7239 4.66492 4.49396 7.25108 0.938794
threshold=70.668194934434823 1.8111280697636283 0.0086347132289205323 0.0044265963502715241 3516.5000000000005 -0.0083034604302980024 0.00028089525670915721
decision_type=2 2 2 2 2 2 2
left_child=1 3 -3 -1 5 -4 -5
right_child=-2 2 4 6 -6 -7 -8
leaf_value=0.011436533004482946 0.061405991162670578 0.090315068080888766 -0.0493025377309785 -0.083442936747244623 -0.048602317590121388 0.045791143898059515 -0.044386921927330236
leaf_weight=16.845985591411591 26.15773218870163 22.813436299562454 16.316879749298096 15.602134793996809 24.212294429540634 30.249548494815826 17.092024981975555
leaf_count=54 75 66 51 53 72 88 51
internal_value=0 -0.00282163 0.0156453 -0.0377109 -0.00842412 0.0124661 -0.0630369
internal_weight=0 143.132 93.5922 49.5401 70.7787 46.5664 32.6942
internal_count=510 435 277 158 211 139 104
is_linear=0
shrinkage=0.114985


end of trees

feature_importances:
price=12
vwap_momentum=7
bid_ask_imbalance_10=6
atr_21=6
microsecond=5
volume_momentum_20=5
macd=5
realized_volatility_10=5
tick_id=4
price_acceleration=4
volume_momentum_10=4
spread_volatility=4
garman_klass_volatility=4
roll_spread=4
bid_qty1=3
ask_qty1=3
spread_2=3
spread_5=3
spread_10=3
spread_trend=3
spread_momentum=3
order_flow_pressure=3
bid=2
price_momentum_1=2
price_momentum_20=2
price_momentum_100=2
price_jerk=2
price_velocity=2
volume_momentum_5=2
volume_acceleration=2
bid_ask_imbalance_5=2
vwap=2
vwap_trend=2
stochastic_d=2
atr_14=2
cci=2
spread=1
ask_qty2=1
price_momentum_5=1
price_momentum_50=1
volume_momentum_1=1
volume_velocity=1
bid_ask_imbalance_1=1
order_flow_imbalance=1
vwap_volatility=1
rsi_14=1
rsi_21=1
macd_signal=1
stochastic_k=1
williams_r=1
realized_volatility_5=1
parkinson_volatility=1
amihud_illiquidity=1

parameters:
[boosting: gbdt]
[objective: multiclass]
[metric: multi_logloss]
[tree_learner: serial]
[device_type: cpu]
[data: ]
[valid: ]
[num_iterations: 61]
[learning_rate: 0.114985]
[num_leaves: 67]
[num_threads: 0]
[deterministic: 0]
[force_col_wise: 0]
[force_row_wise: 0]
[histogram_pool_size: -1]
[max_depth: 7]
[min_data_in_leaf: 50]
[min_sum_hessian_in_leaf: 0.0198108]
[bagging_fraction: 0.738661]
[pos_bagging_fraction: 1]
[neg_bagging_fraction: 1]
[bagging_freq: 1]
[bagging_seed: 400]
[feature_fraction: 0.827322]
[feature_fraction_bynode: 1]
[feature_fraction_seed: 30056]
[extra_trees: 0]
[extra_seed: 12879]
[early_stopping_round: 37]
[first_metric_only: 0]
[max_delta_step: 0]
[lambda_l1: 0.00115715]
[lambda_l2: 0.00394531]
[linear_lambda: 0]
[min_gain_to_split: 0]
[drop_rate: 0.1]
[max_drop: 50]
[skip_drop: 0.5]
[xgboost_dart_mode: 0]
[uniform_drop: 0]
[drop_seed: 17869]
[top_rate: 0.2]
[other_rate: 0.1]
[min_data_per_group: 100]
[max_cat_threshold: 32]
[cat_l2: 10]
[cat_smooth: 10]
[max_cat_to_onehot: 4]
[top_k: 20]
[monotone_constraints: ]
[monotone_constraints_method: basic]
[monotone_penalty: 0]
[feature_contri: ]
[forcedsplits_filename: ]
[refit_decay_rate: 0.9]
[cegb_tradeoff: 1]
[cegb_penalty_split: 0]
[cegb_penalty_feature_lazy: ]
[cegb_penalty_feature_coupled: ]
[path_smooth: 0]
[interaction_constraints: ]
[verbosity: -1]
[saved_feature_importance_type: 0]
[linear_tree: 0]
[max_bin: 255]
[max_bin_by_feature: ]
[min_data_in_bin: 3]
[bin_construct_sample_cnt: 200000]
[data_random_seed: 175]
[is_enable_sparse: 1]
[enable_bundle: 1]
[use_missing: 1]
[zero_as_missing: 0]
[feature_pre_filter: 1]
[pre_partition: 0]
[two_round: 0]
[header: 0]
[label_column: ]
[weight_column: ]
[group_column: ]
[ignore_column: ]
[categorical_feature: ]
[forcedbins_filename: ]
[precise_float_parser: 0]
[parser_config_file: ]
[objective_seed: 16083]
[num_class: 3]
[is_unbalance: 0]
[scale_pos_weight: 1]
[sigmoid: 1]
[boost_from_average: 1]
[reg_sqrt: 0]
[alpha: 0.9]
[fair_c: 1]
[poisson_max_delta_step: 0.7]
[tweedie_variance_power: 1.5]
[lambdarank_truncation_level: 30]
[lambdarank_norm: 1]
[label_gain: ]
[lambdarank_position_bias_regularization: 0]
[eval_at: ]
[multi_error_top_k: 1]
[auc_mu_weights: ]
[num_machines: 1]
[local_listen_port: 12400]
[time_out: 120]
[machine_list_filename: ]
[machines: ]
[gpu_platform_id: -1]
[gpu_device_id: -1]
[gpu_use_dp: 0]
[num_gpu: 1]

end of parameters

pandas_categorical:[]
