tree
version=v4
num_class=3
num_tree_per_iteration=3
label_index=0
max_feature_idx=72
objective=multiclass num_class:3
feature_names=price bid ask spread volume bid_qty1 ask_qty1 bid_qty2 ask_qty2 microsecond tick_id price_momentum_1 price_momentum_5 price_momentum_10 price_momentum_20 price_momentum_50 price_momentum_100 price_acceleration price_jerk price_velocity volume_momentum_1 volume_momentum_5 volume_momentum_10 volume_momentum_20 volume_acceleration volume_velocity spread_1 spread_2 spread_5 spread_10 spread_volatility spread_trend spread_momentum bid_ask_imbalance_1 bid_ask_imbalance_5 bid_ask_imbalance_10 bid_ask_ratio order_flow_imbalance vwap vwap_trend vwap_momentum vwap_volatility rsi_14 rsi_21 macd macd_signal macd_histogram stochastic_k stochastic_d williams_r atr_14 atr_21 cci adx mfi hour minute second day_of_week order_book_imbalance order_flow_pressure liquidity_ratio realized_volatility_1 realized_volatility_5 realized_volatility_10 parkinson_volatility garman_klass_volatility amihud_illiquidity kyle_lambda roll_spread effective_spread quoted_spread realized_spread
feature_infos=[69.380541800217387:395.97317594959691] [69.37396581180235:395.97255923765658] [69.387117788632423:395.97379266153723] [0.001:0.08316273408930179] [76:7149] [18:2944] [24:2878] [14:2200] [16:2188] [246:999246] [0:249] [-0.6791506136180836:4.0671069452699493] [-0.68846055718220089:4.2851713155169797] [-0.6896109418369254:4.2537978723975982] [-0.69011233409014761:4.4241336642851206] [-0.69599039575913202:4.4526417059907848] [-0.7510964898389243:4.5490146504963107] [-276.08900324816454:573.96149170022898] [-1370.4233854890149:207.66283580146842] [-176.4132654745319:300.20881483667483] [-0.98402555910543132:34.912500000000001] [-0.9872204472843451:34.036585365853661] [-0.98766700924974304:34.3125] [-0.98748137108792844:34.475000000000001] [-139.35694444444442:34.75821910749255] [-6468:2793] [0.001:0.08316273408930179] [0.001:0.049359426555774778] [0.0021436675622527419:0.030740375396677823] [0.0034335583858751033:0.030491986942934649] [0.0019790559543571623:0.025215411919818041] [-0.025228636997467753:0.0042322662870474858] [-0.97832012790298883:46.292831982920667] [-0.30769230769230771:0.30526315789473685] [-0.14527080306507661:0.15978709972518021] [-0.12185153826805986:0.083596886117873276] [0.52941176470588236:1.8787878787878789] [-0.29850746268656714:0.21739130434782608] [216.99024600263837:263.55883811760981] [-0.54792695251689305:1.2454410861819025] [-0.0025921141662571534:0.010217736674126954] [0.022645067373587246:2.1477016131137314] [0:99.167460238418172] [0:98.687379055428593] [-45.304479990638384:84.686933562737522] [-39.976249836236718:71.764715082699041] [-19.080367505325249:37.387512604591421] [0:100] [0:100] [-100:0] [0.25933502806189374:38.380556808178959] [0.27577205350714673:28.69792221074589] [-618.39985462750258:1229.2407987022173] [8.4781269108877009:100] [0:96.949256410204697] none none [27:31] none [-0.29850746268656714:0.21739130434782608] [-54548:54270] [1203.8330347034375:6982000] none [0.055136093905998829:64.700994404505124] [0.18582077381025139:64.744256257689131] [1.0663984335322422e-05:0.00024106428764726946] [0.0035120151041099111:1.2873273171508743] [7.3012807713280195e-07:0.00097122685186199365] [-0.18521249057016534:0.011190374732167651] [0.087903276462965474:74.496491321269772] none [0.00099999999997635314:0.083162734089285095] none
tree_sizes=1263 1164 1070 977 1281 968 1172 876 1170 1395 1286 1184 1272 1276 863 1176 870 867 1179 1073 1186

Tree=0
num_leaves=11
num_cat=0
split_feature=63 23 11 11 27 36 37 37 66 6
split_gain=20.4362 12.1627 8.66527 5.20912 6.58489 5.0282 1.9519 3.54819 1.38068 0.153919
threshold=0.69869564769958292 -0.090045045045045 0.00049601192252901616 -0.0012096119987813345 0.014232159692759221 1.0343436083649185 -0.00074554392885362627 0.0028784986430277003 0.041005309181103095 2728.5000000000005
decision_type=2 2 2 2 2 2 2 2 2 2
left_child=1 2 -1 4 -3 -5 9 -8 -9 -2
right_child=6 3 -4 5 -6 -7 7 8 -10 -11
leaf_value=-1.7715656308079921 -1.8941553580577208 -1.7908248021368496 -1.5840007044682427 -1.8622180726991069 -1.6583912272902419 -1.7548345098192131 -1.7664592022504153 -1.8373684609149006 -1.894140957111637 -1.8728234598371964
leaf_weight=5.1302570849657041 16.622032955288891 18.263715222477916 5.7458879351615906 16.416822671890262 5.3354673683643332 6.7719393521547309 4.9250468015670803 9.2344627529382723 9.6448833197355253 4.9250468015670767
leaf_count=25 81 89 28 80 26 33 24 45 47 24
internal_value=-1.81059 -1.77232 -1.67244 -1.79555 -1.76087 -1.83085 -1.86642 -1.8457 -1.86639 -1.88929
internal_weight=0 57.6641 10.8761 46.7879 23.5992 23.1888 45.3515 23.8044 18.8793 21.5471
internal_count=502 281 53 228 115 113 221 116 92 105
is_linear=0
shrinkage=1


Tree=1
num_leaves=10
num_cat=0
split_feature=38 54 30 35 54 38 64 53 24
split_gain=13.7362 13.9541 10.7303 7.8682 6.79705 6.64478 10.4942 4.13408 3.17773
threshold=256.70405511458188 49.719206749496614 0.010861910843215037 -0.0035661252530279509 36.3180340628764 244.06946474059501 0.37432475032619744 54.4742854371978 -0.94747901670897383
decision_type=2 2 2 2 2 2 2 2 2
left_child=1 5 3 -3 -2 -1 -7 8 -6
right_child=4 2 -4 -5 7 6 -8 -9 -10
leaf_value=-0.79797587679339799 -0.91220971684323582 -0.84775839692376964 -1.0203318982279304 -0.94867510139449218 -0.98181526469276315 -0.81386476510795869 -0.94019935235703878 -0.92315398710293672 -1.0352988090852708
leaf_weight=10.721991956233976 15.7255882024765 11.794191151857374 16.440387666225433 30.378977209329605 35.739973187446594 11.436791419982912 19.656985253095627 8.9349932968616468 18.584786057472229
leaf_count=30 44 33 46 85 100 32 55 25 52
internal_value=-0.937314 -0.91545 -0.948467 -0.920453 -0.973906 -0.869169 -0.893731 -0.989245 -1.00012
internal_weight=0 100.429 58.6136 42.1732 78.9853 41.8158 31.0938 63.2598 54.3248
internal_count=502 281 164 118 221 117 87 177 152
is_linear=0
shrinkage=1


Tree=2
num_leaves=9
num_cat=0
split_feature=63 68 0 60 43 30 31 15
split_gain=13.5754 9.41144 10.2086 9.464 7.62891 6.07876 5.28041 0.593743
threshold=0.21395361080644659 -0.00097934246571317312 245.36425985397969 183.50000000000003 47.590616073357801 0.0090347634727354475 -6.4760391609289494e-05 -0.057844158006530748
decision_type=2 2 2 2 2 2 2 2
left_child=4 5 3 -3 7 -2 -4 -1
right_child=1 2 6 -5 -6 -7 -8 -9
leaf_value=-0.9259852221785585 -0.79459169296152232 -0.85321649525523091 -0.72247560327015792 -0.78253252821392638 -0.79459302634983209 -0.68933955374358491 -0.79458129102288655 -0.88891247669205908
leaf_weight=10.371853709220888 10.371853709220888 51.859268546104431 19.632437378168106 34.819794595241547 9.6310070157051069 14.446510523557661 25.929634273052216 8.8901603221893328
leaf_count=28 28 140 53 94 26 39 70 24
internal_value=-0.810213 -0.792572 -0.803696 -0.82482 -0.87079 -0.733314 -0.763505 -0.908893
internal_weight=0 157.059 132.241 86.6791 28.893 24.8184 45.5621 19.262
internal_count=502 424 357 234 78 67 123 52
is_linear=0
shrinkage=1


Tree=3
num_leaves=8
num_cat=0
split_feature=63 16 34 21 69 59 43
split_gain=17.429 7.8152 5.27944 5.8884 1.97043 1.1647 2.46957
threshold=0.69869564769958292 -0.6886429881108761 -0.043662215919276895 -0.0031885813260643654 2.5981512906640698 0.0019574287828935583 52.724994488077002
decision_type=2 2 2 2 2 2 2
left_child=1 -1 -3 -4 -2 -6 -7
right_child=4 2 3 -5 5 6 -8
leaf_value=0.14949667991828214 -0.0081422422999663877 0.12339751906112113 0.046421003429003412 -0.026612197882920758 -0.082641678231574381 -0.082699262249753491 -0.00091339581501627247
leaf_weight=5.7974777519702902 8.4355086982250196 5.0474516451358786 24.838893860578537 23.748264864087105 18.544646382331848 8.6211062371730822 7.6819456666707984
leaf_count=26 43 24 117 114 95 44 39
internal_value=0 0.0338423 0.0213326 0.0107215 -0.0536449 -0.0646543 -0.0441763
internal_weight=0 59.4321 53.6346 48.5872 43.2832 34.8477 16.3031
internal_count=502 281 255 231 221 178 83
is_linear=0
shrinkage=0.104875


Tree=4
num_leaves=11
num_cat=0
split_feature=38 54 29 31 10 54 38 40 24 46
split_gain=11.4029 11.6668 9.83416 12.4935 6.7169 5.80483 5.51819 4.05956 3.29565 3.3564
threshold=256.70405511458188 49.719206749496614 0.01315010418188493 -0.00028718987559468593 99.500000000000014 36.439919081104541 255.9960435526568 -0.00059559949638732224 -0.74752661520388208 1.671471802903173
decision_type=2 2 2 2 2 2 2 2 2 2
left_child=1 4 3 -3 7 -2 -6 -1 9 -7
right_child=5 2 -4 -5 6 8 -8 -9 -10 -11
leaf_value=0.064672237102340102 0.021017671168348601 -0.070354093221932923 -0.095120286969654924 0.047611432476889821 0.14081311487577264 -0.052986205287888805 0.040178473785275969 -0.035242755223242925 -0.090040668091151133 0.0090051952529580301
leaf_weight=8.6477700173854846 16.849170386791229 14.243025779724119 11.989571988582609 32.179469376802444 13.944513946771623 31.719488531351089 10.521532118320463 9.2576889991760236 15.635286331176756 13.772855728864668
leaf_count=24 47 40 34 90 38 90 29 26 45 39
internal_value=0 0.0199346 -0.0104539 0.0114133 0.061829 -0.0334764 0.0975491 0.013007 -0.0484997 -0.0342155
internal_weight=0 100.784 58.4121 46.4225 42.3715 77.9768 24.466 17.9055 61.1276 45.4923
internal_count=502 281 164 130 117 221 67 50 174 129
is_linear=0
shrinkage=0.104875


Tree=5
num_leaves=8
num_cat=0
split_feature=16 0 54 21 51 27 29
split_gain=9.79612 10.9477 9.13258 10.5516 8.31533 7.15128 3.6612
threshold=0.93659563600864115 245.36425985397969 57.798289539252771 -0.014280083168864864 4.7100640004582788 0.0052491256467368649 0.013248570401169092
decision_type=2 2 2 2 2 2 2
left_child=1 2 5 -4 6 -1 -3
right_child=-2 4 3 -5 -6 -7 -8
leaf_value=-0.077229310335869314 0.082403868101380312 0.090445193033265994 -0.055230017699404929 0.074329448181188987 -0.046799611132148457 -0.015028163850181497 0.016467147556682226
leaf_weight=29.390013039112091 16.358928829431534 23.14231875538826 10.359137564897539 20.773856520652771 8.9308245778083784 65.96709132194519 10.796960234642027
leaf_count=80 44 62 28 56 24 179 29
internal_value=0 -0.00257579 -0.0180997 0.0312145 0.0432232 -0.0342021 0.0669178
internal_weight=0 169.36 126.49 31.133 42.8701 95.3571 33.9393
internal_count=502 458 343 84 115 259 91
is_linear=0
shrinkage=0.104875


Tree=6
num_leaves=10
num_cat=0
split_feature=64 8 18 54 25 53 45 22 64
split_gain=15.7975 9.63681 7.15308 5.6907 4.34845 5.39046 3.17029 1.80865 2.53067
threshold=0.57392413360523054 36.500000000000007 -1.7922482413982379 56.959809306818109 48.500000000000007 41.946489694339313 2.433824128171723 0.0041917060001850368 2.1008768789903631
decision_type=2 2 2 2 2 2 2 2 2
left_child=1 2 -1 -4 7 6 -6 8 -2
right_child=4 -3 3 -5 5 -7 -8 -9 -10
leaf_value=0.12015120985045223 -0.012020537848175894 0.17613963563732438 -0.024116267210066534 0.094614055030608851 -0.069091685269267511 0.10270372354466704 0.025774027042254774 -0.082006466605488812 -0.073539571797228531
leaf_weight=7.6301171630620948 19.238850459456447 6.0058142542839041 18.791027039289478 5.8111769855022422 7.7569063901901263 5.0845364630222312 7.7346866875886917 13.109672605991362 11.912176504731177
leaf_count=34 98 27 85 26 40 26 40 70 63
internal_value=0 0.0541899 0.031452 0.00392862 -0.0308013 0.00902644 -0.0217206 -0.0493193 -0.0355537
internal_weight=0 38.2381 32.2323 24.6022 64.8368 20.5761 15.4916 44.2607 31.151
internal_count=509 172 145 111 337 106 80 231 161
is_linear=0
shrinkage=0.104875


Tree=7
num_leaves=7
num_cat=0
split_feature=65 65 16 68 54 65
split_gain=10.2849 10.2642 8.13195 9.37131 5.3891 2.09262
threshold=0.00013031015631169771 2.7524165660048314e-05 0.31587316689254613 0.00067020283084406993 43.557900071688771 0.00014806804757973147
decision_type=2 2 2 2 2 2
left_child=1 -1 3 -3 -4 -2
right_child=5 2 4 -5 -6 -7
leaf_value=-0.073185148484035747 -0.11049270684685286 0.03787425420444826 0.008132710656346083 -0.043076037725540264 -0.090420124370734864 -0.040215899139213578
leaf_weight=16.414703637361526 9.7102890312671679 102.38955253362656 12.255750358104708 18.580638349056244 12.147769123315809 8.9832955002784711
leaf_count=47 28 288 34 52 34 26
internal_value=0 0.0054197 0.0142973 0.0254388 -0.0409235 -0.0767374
internal_weight=0 161.788 145.374 120.97 24.4035 18.6936
internal_count=509 455 408 340 68 54
is_linear=0
shrinkage=0.104875


Tree=8
num_leaves=10
num_cat=0
split_feature=16 0 65 51 53 35 9 45 69
split_gain=13.7438 8.03458 9.56465 6.35602 5.34759 5.31563 4.2114 3.93477 3.84365
threshold=0.35211765176826498 245.36425985397969 0.00013031015631169771 4.7100640004582788 36.564248790936688 0.0011664306216883581 870746.00000000012 -15.291249824368036 3.8157177923109491
decision_type=2 2 2 2 2 2 2 2 2
left_child=1 2 4 8 -1 -4 -2 -8 -3
right_child=6 3 5 -5 -6 -7 7 -9 -10
leaf_value=-0.021860645273907589 0.01204093792929173 0.021141012398762853 0.089321857413852318 -0.037241851391188539 -0.075875360306340581 -0.019597333544926269 0.042172703439234356 0.13387688999671346 0.095258296142693252
leaf_weight=63.499094247817993 10.635633021593096 17.957421392202381 11.102588534355165 11.832809448242186 29.544777750968933 8.8559595942497236 9.2685416042804736 11.592714905738829 13.475696206092833
leaf_count=173 29 48 30 32 81 24 25 31 36
internal_value=0 -0.010168 -0.0248831 0.0282612 -0.0390152 0.0409884 0.0657684 0.093149 0.052925
internal_weight=0 156.268 113.002 43.2659 93.0439 19.9585 31.4969 20.8613 31.4331
internal_count=509 424 308 116 254 54 85 56 84
is_linear=0
shrinkage=0.104875


Tree=9
num_leaves=12
num_cat=0
split_feature=63 12 48 41 17 25 34 60 30 27 12
split_gain=16.7094 6.31463 9.33904 5.6088 3.15987 4.58838 5.55005 2.7399 1.77356 1.71727 0.207694
threshold=0.43576248387466082 -0.016581015464032841 49.903719133365207 0.031843294873218041 -1.099938535251676 22.500000000000004 -0.00047222693662591643 -240.99999999999997 0.012884048349470307 0.012516962114780282 -0.071876294584830511
decision_type=2 2 2 2 2 2 2 2 2 2 2
left_child=1 -1 7 -4 8 9 -7 -3 10 -6 -2
right_child=4 2 3 -5 5 6 -8 -9 -10 -11 -12
leaf_value=0.12709749111512925 -0.055302247297116587 0.02615570609051629 -0.014365487496120256 0.10576675858301561 -0.072330874562694464 -0.033535541369889073 0.10589516857273037 -0.065459383368919419 -0.011745584340425139 0.0011471496265445399 -0.081596749669227975
leaf_weight=8.8430050462484342 4.1369778364896836 5.5526860803365699 5.8602518588304546 15.770950675010679 11.402244925498968 6.4435886889696121 6.1187263131141645 10.143504917621611 5.8889651447534552 5.0407590866088858 17.707268550992012
leaf_count=39 24 24 26 68 63 34 32 45 30 27 97
internal_value=0 0.0474183 0.0285316 0.0732161 -0.0375484 -0.0133396 0.0343721 -0.0330413 -0.0628593 -0.0497996 -0.0766297
internal_weight=0 46.1704 37.3274 21.6312 56.7385 29.0053 12.5623 15.6962 27.7332 16.443 21.8442
internal_count=509 202 163 94 307 156 66 69 151 90 121
is_linear=0
shrinkage=0.104875


Tree=10
num_leaves=11
num_cat=0
split_feature=38 44 31 29 9 51 39 24 11 18
split_gain=8.50658 17.5927 7.42128 12.817 5.88421 6.78336 7.61345 4.71577 2.5366 1.78043
threshold=248.55071683766667 2.3155640552830197 -0.0002469273271194643 0.012397169532065044 864746.00000000012 4.7100640004582788 -0.010555381737396004 -1.2185381828782378 -0.0064974625826295642 -0.97119849369345002
decision_type=2 2 2 2 2 2 2 2 2 2
left_child=1 9 -3 -4 5 6 -2 -7 -6 -1
right_child=4 2 3 -5 8 7 -8 -9 -10 -11
leaf_value=0.14062084906880881 0.0038094855049780932 -0.091726854060087126 0.074960091009056262 -0.079337395987006301 -0.036700347552981731 0.10550577038303277 -0.06140568671775281 -0.0036914753948231204 -0.10890525945653383 0.076835741458867346
leaf_weight=10.659666597843172 55.475143611431122 9.5028993487358075 15.760348856449129 9.4812692999839765 12.778482794761659 8.9497501850128192 30.516602486371994 8.4561585485935193 9.2203856408596021 8.8212017416954023
leaf_count=29 157 27 43 27 37 25 89 24 27 24
internal_value=0 0.0319861 -0.012741 0.0169952 -0.0177276 -0.00724646 -0.0193333 0.0524534 -0.0669781 0.111758
internal_weight=0 54.2254 34.7445 25.2416 125.397 103.398 85.9917 17.4059 21.9989 19.4809
internal_count=509 150 97 70 359 295 246 49 64 53
is_linear=0
shrinkage=0.104875


Tree=11
num_leaves=10
num_cat=0
split_feature=9 48 65 39 10 65 35 4 39
split_gain=10.8232 9.25521 8.37172 7.56647 5.51847 6.55077 4.34604 3.81836 3.65776
threshold=721739.00000000012 93.134540186414952 0.00013031015631169771 -0.18822773353793934 163.50000000000003 3.4049976230538829e-05 -0.004355895672825588 2825.5000000000005 -0.010634970101418655
decision_type=2 2 2 2 2 2 2 2 2
left_child=1 2 6 -2 7 -6 -1 -5 -4
right_child=3 -3 8 4 5 -7 -8 -9 -10
leaf_value=-0.081352880393760221 -0.053187135844586619 0.069745863874162359 -0.0077263802112360154 0.021628655948263697 0.067459694316430147 -0.049525630108744202 -0.027014226942252684 0.094712990701109293 0.085400218347487664
leaf_weight=21.395024061203003 9.1374017596244794 12.186245203018187 9.598865360021593 11.137301295995711 10.076131433248522 11.019971162080763 66.595660299062729 26.7991943359375 8.9699443876743299
leaf_count=59 25 33 26 30 27 30 183 72 24
internal_value=0 -0.0168229 -0.0267255 0.0356049 0.0493526 0.00634442 -0.0402301 0.0732634 0.0372569
internal_weight=0 118.746 106.559 68.17 59.0326 21.0961 87.9907 37.9365 18.5688
internal_count=509 325 292 184 159 57 242 102 50
is_linear=0
shrinkage=0.104875


Tree=12
num_leaves=11
num_cat=0
split_feature=7 32 21 50 4 53 17 4 60 32
split_gain=14.0295 6.61907 5.18755 5.80734 4.88262 4.49497 4.78766 4.64365 2.39183 0.716307
threshold=36.500000000000007 1.4181533256036658 -0.077677224736048253 0.45248268285776511 2918.0000000000005 33.19116265165394 -1.3935158037045208 6747.5000000000009 -6790.9999999999991 2.505206710826092
decision_type=2 2 2 2 2 2 2 2 2 2
left_child=1 2 -1 -4 8 6 -6 -7 -2 -10
right_child=4 -3 3 -5 5 7 -8 -9 9 -11
leaf_value=0.013443082735432311 0.010974219059659696 -0.015847741974599764 0.073020100716719494 0.195812618304848 -0.081836811261485287 -0.022857824169545779 0.011518666050371804 0.10766696600340384 -0.081626486762367612 -0.034565138877861785
leaf_weight=8.2257527112960833 4.5757467001676586 10.143155619502066 13.060434028506281 6.2760424166917792 9.8770568370819074 5.1880270242691022 15.549544006586077 7.0921641141176224 17.85711041092873 4.4627545475959769
leaf_count=34 27 42 56 26 54 26 80 34 101 25
internal_value=0 0.0565714 0.0832268 0.1129 -0.0239309 0.000416216 -0.0247439 0.052518 -0.0580674 -0.0722277
internal_weight=0 37.7054 27.5622 19.3365 64.6024 37.7068 25.4266 12.2802 26.8956 22.3199
internal_count=505 158 116 82 347 194 134 60 153 126
is_linear=0
shrinkage=0.104875


Tree=13
num_leaves=11
num_cat=0
split_feature=38 44 10 45 29 31 50 52 7 45
split_gain=7.4966 10.1146 8.8074 11.0929 6.38636 5.88332 5.20343 6.86521 5.12273 4.8894
threshold=248.55071683766667 2.4271419640065237 202.50000000000003 -0.38782403852161745 0.012397169532065044 4.3195656952152335e-05 0.39503439908824595 0.35447083477066582 2064.5000000000005 0.71003490621696363
decision_type=2 2 2 2 2 2 2 2 2 2
left_child=1 9 6 -4 5 -3 7 -2 -8 -1
right_child=2 4 3 -5 -6 -7 8 -9 -10 -11
leaf_value=0.035647476068243526 0.079738040833146673 -0.032466394446022118 0.12983211478054482 -0.014898818372987167 -0.076252366767509627 0.07777528547843976 -0.051176655296370749 -0.034264872022705235 0.03576767837517747 0.13656233691636746
leaf_weight=10.026000499725344 10.182065904140474 9.9154421389102989 9.6090666651725787 14.779307901859282 9.5931746959686262 11.49203711748123 67.533191919326782 13.522455304861067 8.3746294081211072 11.171155363321303
leaf_count=27 29 28 27 42 28 31 200 39 24 30
internal_value=0 0.0330201 -0.014356 0.0421261 -0.00515092 0.0267091 -0.0281868 0.0147008 -0.0415817 0.0888464
internal_weight=0 52.1978 124.001 24.3884 31.0007 21.4075 99.6123 23.7045 75.9078 21.1972
internal_count=505 144 361 69 87 59 292 68 224 57
is_linear=0
shrinkage=0.104875


Tree=14
num_leaves=7
num_cat=0
split_feature=66 41 6 63 41 63
split_gain=9.74595 6.4506 5.59264 4.54673 7.12459 3.83143
threshold=0.04915481417186441 0.7140116126212126 2706.5000000000005 0.16411876128352063 0.15865370943405691 2.208705299676172
decision_type=2 2 2 2 2 2
left_child=1 3 -3 -1 -5 -2
right_child=5 2 -4 4 -6 -7
leaf_value=-0.086905482627965436 0.090537046113916581 0.075431569182950867 -0.017464012491735632 0.009095528808958921 -0.041945242268332704 0.0036432323092666962
leaf_weight=10.920812815427778 15.452566087245943 15.519097566604616 13.176630049943922 60.608032077550888 59.705910623073578 8.741971552371977
leaf_count=31 42 42 36 166 164 24
internal_value=0 -0.0122665 0.0327723 -0.0221162 -0.0162326 0.0591498
internal_weight=0 159.93 28.6957 131.235 120.314 24.1945
internal_count=505 439 78 361 330 66
is_linear=0
shrinkage=0.104875


Tree=15
num_leaves=10
num_cat=0
split_feature=63 17 34 64 69 54 46 43 48
split_gain=11.0885 6.35573 6.51789 5.82615 2.34493 2.76039 1.27862 3.75969 0.22193
threshold=0.69869564769958292 1.2962044678715869 -0.032444498200282772 1.0058785749645542 2.6537376963413082 50.675487856337064 -0.97969573028248058 48.398627549930552 92.088969408767596
decision_type=2 2 2 2 2 2 2 2 2
left_child=1 2 -1 -4 5 -2 7 -6 -8
right_child=4 -3 3 -5 6 -7 8 -9 -10
leaf_value=0.10504856749847551 0.053620890943511183 0.11038458534351428 -0.0092208620902636436 0.11242740436714778 -0.07936857486008167 -0.057496993446547302 -0.080623437552058252 0.053001894232535401 -0.051578718333387723
leaf_weight=8.0284518599510175 5.3715786039829236 9.4943936020135862 43.207466050982475 4.8102702051401129 5.9379148632287997 4.5308109521865845 13.332722790539266 3.9125458598136902 3.7587569802999488
leaf_count=31 28 40 191 24 38 27 79 23 24
internal_value=0 0.0310433 0.0175962 0.00296711 -0.040864 0.00276307 -0.0569033 -0.026777 -0.074252
internal_weight=0 65.5406 56.0462 48.0177 36.8443 9.90239 26.9419 9.85046 17.0915
internal_count=505 286 246 215 219 55 164 61 103
is_linear=0
shrinkage=0.104875


Tree=16
num_leaves=7
num_cat=0
split_feature=46 46 69 38 17 30
split_gain=6.43074 6.0299 6.45514 5.49003 6.59058 5.21293
threshold=-2.9408388208980609 0.20174423397477906 0.43674109979433517 240.52340724825368 -3.3552169906318565 0.0095107265238926399
decision_type=2 2 2 2 2 2
left_child=-1 3 -3 -2 -5 -4
right_child=1 2 5 4 -6 -7
leaf_value=-0.074681757401579521 0.078434548658816827 -0.079331320591336352 0.02439377541443407 0.096680869733219085 -0.0018425609789328556 -0.034447156850800867
leaf_weight=11.926321029663084 16.92262077331543 14.20089942216873 37.608351409435272 8.6167832314968091 55.888490587472916 29.58571070432663
leaf_count=38 46 42 107 24 162 86
internal_value=0 0.00509227 -0.0150928 0.0252708 0.0113191 -0.00151216
internal_weight=0 162.823 81.395 81.4279 64.5053 67.1941
internal_count=505 467 235 232 186 193
is_linear=0
shrinkage=0.104875


Tree=17
num_leaves=7
num_cat=0
split_feature=16 40 38 68 54 69
split_gain=10.6371 6.2822 6.09999 6.17783 4.82078 5.50167
threshold=0.28090555674621226 0.0016382024057075564 261.63159215394535 0.00067020283084406993 45.615912376613046 9.5711504983533597
decision_type=2 2 2 2 2 2
left_child=1 2 3 -1 5 -2
right_child=4 -3 -4 -5 -6 -7
leaf_value=-0.036429100241891527 -0.040768730566947506 0.069897377159635926 0.051720962488504364 0.023100838464796325 0.10301134340430966 0.077058280812841218
leaf_weight=107.75802493095398 8.6900395750999504 9.2561810016632062 12.187907010316847 23.319201469421387 12.83459413051605 8.7388496398925763
leaf_count=300 24 25 33 64 35 24
internal_value=0 -0.0138261 -0.0192374 -0.0258371 0.0542375 0.0183037
internal_weight=0 152.521 143.265 131.077 30.2635 17.4289
internal_count=505 422 397 364 83 48
is_linear=0
shrinkage=0.104875


Tree=18
num_leaves=10
num_cat=0
split_feature=7 66 63 18 6 35 37 37 9
split_gain=15.2526 5.6787 7.12451 6.10433 4.05668 6.67862 1.62732 4.9945 0.244464
threshold=36.500000000000007 0.008509502644690586 0.28370090770021666 -1.7922482413982379 2724.5000000000005 -0.00060766254892308355 -0.00074554392885362627 0.007791014197312587 930746.00000000012
decision_type=2 2 2 2 2 2 2 2 2
left_child=1 2 3 -1 6 -6 8 -8 -2
right_child=4 -3 -4 -5 5 -7 7 -9 -10
leaf_value=0.13435697386485299 -0.081496707158913759 0.13595461101659942 -0.060203138384009099 0.022999259551293984 -0.053745210023535349 0.091143288881821674 0.017356246552706647 -0.074567406599957475 -0.051033392095209885
leaf_weight=7.801095023751258 14.235527418553831 6.8347865343093863 7.3327477723360053 17.703131332993511 7.5019521713256836 6.5535465627908689 11.570768579840662 14.827050372958182 3.6940661743283263
leaf_count=28 82 25 30 71 42 32 63 85 24
internal_value=0 0.0489923 0.0308793 0.0570752 -0.03528 0.0138042 -0.0508469 -0.0342716 -0.0752355
internal_weight=0 39.6718 32.837 25.5042 58.3829 14.0555 44.3274 26.3978 17.9296
internal_count=482 154 129 99 328 74 254 148 106
is_linear=0
shrinkage=0.104875


Tree=19
num_leaves=9
num_cat=0
split_feature=16 41 44 16 52 0 28 28
split_gain=5.11486 6.8211 9.58777 5.75174 5.32935 5.42368 4.95222 3.17799
threshold=0.84947664701535885 0.14392360154767889 2.0726693737760944 0.19256127243367641 45.446114644510544 76.481819080948199 0.0075120476776925566 0.010445038661449111
decision_type=2 2 2 2 2 2 2 2
left_child=1 4 3 -3 5 -1 -4 -2
right_child=7 2 6 -5 -6 -7 -8 -9
leaf_value=0.027544435471365973 -0.010391972294107777 0.075962321220739024 -0.087379844560609474 -0.015962633310976561 -0.082100458316599192 -0.038271095355796439 0.0050788881473612579 -0.1042905242419718
leaf_weight=26.477925509214401 7.6987605988979331 35.583957374095917 8.1988708376884443 9.477071136236189 12.67162638902664 28.690833270549774 28.550729036331177 8.1803168058395368
leaf_count=75 24 99 24 28 38 86 82 26
internal_value=0 0.0038138 0.0242035 0.0566259 -0.0207725 -0.00668085 -0.0155488 -0.058782
internal_weight=0 149.651 81.8106 45.061 67.8404 55.1688 36.7496 15.8791
internal_count=482 432 233 127 199 161 106 50
is_linear=0
shrinkage=0.104875


Tree=20
num_leaves=10
num_cat=0
split_feature=16 28 28 43 68 21 12 9 5
split_gain=7.63066 5.69202 5.23254 9.38788 3.88923 7.52418 3.90347 3.30469 1.17929
threshold=0.29015934025964601 0.013225442064761206 0.015043972423144871 52.596376412844236 0.00023045170631621052 -0.01321289778453527 0.0074086042019821949 870746.00000000012 1144.5000000000002
decision_type=2 2 2 2 2 2 2 2 2
left_child=1 4 -3 -4 6 -6 -1 -2 -9
right_child=7 2 3 -5 5 -7 -8 8 -10
leaf_value=-0.020220320866978708 0.0091625195405355339 0.075623389699259635 -0.071602591804485125 0.058442003773946261 -0.05855646340265272 0.042077107219081311 -0.078197572101683654 0.053834850319649796 0.10883655906284925
leaf_weight=51.403756529092789 11.844144821166994 14.989496082067488 11.579381972551348 12.910712808370588 12.389332473278044 23.993083953857422 16.999929487705231 8.6575732529163378 8.5397157967090589
leaf_count=144 33 41 32 35 35 66 48 24 24
internal_value=0 -0.00711049 0.0268253 -0.00304055 -0.0198979 0.00780281 -0.0346332 0.0518085 0.0811662
internal_weight=0 144.266 39.4796 24.4901 104.786 36.3824 68.4037 29.0414 17.1973
internal_count=482 401 108 67 293 101 192 81 48
is_linear=0
shrinkage=0.104875


end of trees

feature_importances:
mfi=9
price_momentum_100=8
vwap=8
realized_volatility_5=8
parkinson_volatility=6
microsecond=5
roll_spread=5
price=4
price_acceleration=4
volume_momentum_5=4
spread_5=4
spread_10=4
spread_volatility=4
spread_trend=4
bid_ask_imbalance_10=4
order_flow_imbalance=4
vwap_volatility=4
rsi_21=4
macd_signal=4
macd_histogram=4
adx=4
realized_volatility_10=4
kyle_lambda=4
volume=3
ask_qty1=3
bid_qty2=3
tick_id=3
price_momentum_1=3
price_momentum_5=3
price_jerk=3
volume_acceleration=3
spread_2=3
bid_ask_imbalance_5=3
vwap_trend=3
macd=3
stochastic_d=3
atr_21=3
order_flow_pressure=3
garman_klass_volatility=3
volume_velocity=2
spread_momentum=2
vwap_momentum=2
atr_14=2
cci=2
bid_qty1=1
ask_qty2=1
price_momentum_50=1
volume_momentum_10=1
volume_momentum_20=1
bid_ask_ratio=1
order_book_imbalance=1

parameters:
[boosting: gbdt]
[objective: multiclass]
[metric: multi_logloss]
[tree_learner: serial]
[device_type: cpu]
[data: ]
[valid: ]
[num_iterations: 149]
[learning_rate: 0.104875]
[num_leaves: 16]
[num_threads: 0]
[deterministic: 0]
[force_col_wise: 0]
[force_row_wise: 0]
[histogram_pool_size: -1]
[max_depth: 4]
[min_data_in_leaf: 24]
[min_sum_hessian_in_leaf: 0.0261567]
[bagging_fraction: 0.733257]
[pos_bagging_fraction: 1]
[neg_bagging_fraction: 1]
[bagging_freq: 2]
[bagging_seed: 400]
[feature_fraction: 0.775562]
[feature_fraction_bynode: 1]
[feature_fraction_seed: 30056]
[extra_trees: 0]
[extra_seed: 12879]
[early_stopping_round: 31]
[first_metric_only: 0]
[max_delta_step: 0]
[lambda_l1: 0.00138334]
[lambda_l2: 0.00222448]
[linear_lambda: 0]
[min_gain_to_split: 0]
[drop_rate: 0.1]
[max_drop: 50]
[skip_drop: 0.5]
[xgboost_dart_mode: 0]
[uniform_drop: 0]
[drop_seed: 17869]
[top_rate: 0.2]
[other_rate: 0.1]
[min_data_per_group: 100]
[max_cat_threshold: 32]
[cat_l2: 10]
[cat_smooth: 10]
[max_cat_to_onehot: 4]
[top_k: 20]
[monotone_constraints: ]
[monotone_constraints_method: basic]
[monotone_penalty: 0]
[feature_contri: ]
[forcedsplits_filename: ]
[refit_decay_rate: 0.9]
[cegb_tradeoff: 1]
[cegb_penalty_split: 0]
[cegb_penalty_feature_lazy: ]
[cegb_penalty_feature_coupled: ]
[path_smooth: 0]
[interaction_constraints: ]
[verbosity: -1]
[saved_feature_importance_type: 0]
[linear_tree: 0]
[max_bin: 255]
[max_bin_by_feature: ]
[min_data_in_bin: 3]
[bin_construct_sample_cnt: 200000]
[data_random_seed: 175]
[is_enable_sparse: 1]
[enable_bundle: 1]
[use_missing: 1]
[zero_as_missing: 0]
[feature_pre_filter: 1]
[pre_partition: 0]
[two_round: 0]
[header: 0]
[label_column: ]
[weight_column: ]
[group_column: ]
[ignore_column: ]
[categorical_feature: ]
[forcedbins_filename: ]
[precise_float_parser: 0]
[parser_config_file: ]
[objective_seed: 16083]
[num_class: 3]
[is_unbalance: 0]
[scale_pos_weight: 1]
[sigmoid: 1]
[boost_from_average: 1]
[reg_sqrt: 0]
[alpha: 0.9]
[fair_c: 1]
[poisson_max_delta_step: 0.7]
[tweedie_variance_power: 1.5]
[lambdarank_truncation_level: 30]
[lambdarank_norm: 1]
[label_gain: ]
[lambdarank_position_bias_regularization: 0]
[eval_at: ]
[multi_error_top_k: 1]
[auc_mu_weights: ]
[num_machines: 1]
[local_listen_port: 12400]
[time_out: 120]
[machine_list_filename: ]
[machines: ]
[gpu_platform_id: -1]
[gpu_device_id: -1]
[gpu_use_dp: 0]
[num_gpu: 1]

end of parameters

pandas_categorical:[]
