tree
version=v4
num_class=3
num_tree_per_iteration=3
label_index=0
max_feature_idx=72
objective=multiclass num_class:3
feature_names=price bid ask spread volume bid_qty1 ask_qty1 bid_qty2 ask_qty2 microsecond tick_id price_momentum_1 price_momentum_5 price_momentum_10 price_momentum_20 price_momentum_50 price_momentum_100 price_acceleration price_jerk price_velocity volume_momentum_1 volume_momentum_5 volume_momentum_10 volume_momentum_20 volume_acceleration volume_velocity spread_1 spread_2 spread_5 spread_10 spread_volatility spread_trend spread_momentum bid_ask_imbalance_1 bid_ask_imbalance_5 bid_ask_imbalance_10 bid_ask_ratio order_flow_imbalance vwap vwap_trend vwap_momentum vwap_volatility rsi_14 rsi_21 macd macd_signal macd_histogram stochastic_k stochastic_d williams_r atr_14 atr_21 cci adx mfi hour minute second day_of_week order_book_imbalance order_flow_pressure liquidity_ratio realized_volatility_1 realized_volatility_5 realized_volatility_10 parkinson_volatility garman_klass_volatility amihud_illiquidity kyle_lambda roll_spread effective_spread quoted_spread realized_spread
feature_infos=[26.3470769077284:506.47019805154827] [26.344146023196796:506.46969158135022] [26.350007792260008:506.48988544074803] [0.001:0.091529960087620182] [798:50504.898162054131] [292:20568.666045526072] [292:20113.7290619454] [218:2935] [209:2940] [140:999431] [0:2499] [-0.89734504186142772:8.8810288408377502] [-0.8983802535762947:8.9416056310143457] [-0.61432742289148257:6.1819636364163957] [-0.65135593448304119:6.1587574231490834] [-0.67595979139248097:6.5720272969323581] [-0.67678954247885115:7.3712231176858047] [-33068.357734843157:4375.6689776422882] [-5343.7377395451622:33070.696766535933] [-381.39427105185865:381.43706682684814] [-0.91157917245803488:10.144208037825059] [-0.90951972555746141:10.247924080664294] [-0.88253456839844269:9.5698324022346366] [-0.8857560845857162:9.4340473506200677] [-3086.252745708678:198.02664702727262] [-42979.898162054131:43111.898162054131] [0.001:0.091529960087620182] [0.001:0.056807652489966429] [0.0015036726809346649:0.032213300025673866] [0.0026212562915176236:0.025262031338353828] [0.0010322040422030402:0.028586773453613674] [-0.006718172512211869:0.0016364066089370746] [-0.98653732929861515:76.623046040236645] [-0.15091678420310295:0.14105793450881612] [-0.044882720677405438:0.056756558290411541] [-0.02840558411528224:0.043309090674634239] [0.73774509803921573:1.3284457478005864] [-0.10764430577223089:0.089181286549707597] [189.81747225564857:420.45709699334333] [-0.68052422820012382:1.7816662330602762] [-0.0076531642716555215:0.0068382337287011818] [6.6922713337762768e-05:5.8685479642387959] [1.9062533613868879:100] [9.8758346054137007:100] [-29.995604259314177:47.059652152105699] [-26.326167355676525:36.312591617814306] [-13.473176536041091:24.138038725059541] [0:100] [0:100] [-100:0] [0.30198766108712299:375.39627877874256] [0.32440351284780722:373.58291686064916] [-491.75691002949651:1262.0159139162286] [0.033426041615846599:100] [13.982356436060428:100] none none [7:12] none [-0.10764430577223089:0.089181286549707597] [-73298:73377] [10346.339046727999:11776133.952423237] none [0:188.41682803619025] [0.13178432413428143:254.75844664559688] [5.2993100966923813e-06:0.00047661507602615673] [0.003199372972867614:6.2067762814284455] [1.9850082372768654e-07:0.0056960383242230213] [-0.0040686996501501224:0.032530312541480887] [0.067020197144057034:795.32637841463384] [0:1.1368683772161603e-13] [0.00099999999997635314:0.091529960087598283] [0:1.1368683772161603e-13]
tree_sizes=3216 2762 3370 3259 4054 3002 3908 2023 2479 2554 2151 1949 3198 2673 3000 2446 2257 3089 1507 2567 1948 3406 2656 1828 3214 2164 2589 2470 3099 2366 2042 3008 2480 1524 2567 3015 1496 2594 2674 2562 2152 2875 1726 3411 1948 3092 2700 2685 2251 2363 2461 1724 2366 2375 2042 3106 3189 4566 2141 2917 1731 3017 2056 2152 1957 2277 4156 4462 2980 3938 2250 4598 4585 4492 4581 4562 3715 3084 2781 4570 3725 2474 4574 1305 3006 4575 4592 2144 4277 2997 4616 4481 3956 2882 4370 4610 3096 3495 3107 3632 1732 2061 3633 4456 4508 3940 4597 4492 2682 4608 4608 4486 4611 2704 2467 4590 3960 2781 3878 3310 4577 4475 4598 4584 4610 4623 3316 3297 4597 3651 3967 2365 3740 4602 4059 4597 2584 4629 4599 4567 3129 1944 2919 4595 4609 4576 2251 4172 4579 3326 4058 3423 2472 4492 1753 3000 4605 2805 2904 2713 3437 3099 4272 4583 3567 3338 2385 4579 4591 3851 3566 2166 4612 4605 4601 3255 2387 4621 2592 2363 4189 4595 4589 4611 1865 3230 4611 4189 4621 4537 3865 4630 3657 4634 3971 2170 4643 3983 4629 4597 4599 3144 4636 4621 4621 4604 4641 4108 4635 4506 3898 4505 3540 4584 4611 3032 3679 4624 4312 4646 4636 2584 4674 3127 2811 3789 2165 3565 2806 2071 2719 3048 3129 3027 4634 4223 3766 4097 2721 4626 3256 2410 3901 3144 3229 4521 4616 3559 3555 4232 4632 2496 3648 3471 4536 3913 4537 4443 4661 4636 4658 4634 4654 3155 4670 4528 3454 4642 4649 4662 4654 3505 3777 4638 2410 4525 4227 4322 4625 3767 3566 4548 4651 4437 4635 3178 4659 4649 4642 3360 4645 3483 2704 4664 3257 2180 2514 4452 2279 1531 4116 4676 3038 4319 4338 1648 4656 3139 4025 4647 4647 4115 4677 4109 4668 3571 4624 3432 4011 4637 4649 4346 3258 4524 4109 2732 4646 2405 2513 2936 3062 3698 3167 3492 4673 3813 2728 4681 3588 3702 3248 4561 4671 2492 4235 4692 3705 4553 3707 4108 3366 2638 4676 2937 3701 4353 4231 4033 3801 3254 3119 4676 4651 4603 4460 4649 3686 3799 2288

Tree=0
num_leaves=30
num_cat=0
split_feature=63 51 0 14 18 14 4 4 71 18 33 8 50 42 7 23 23 21 51 60 5 63 21 3 47 42 4 21 65
split_gain=325.557 28.396 29.0117 14.7712 16.9042 17.8165 14.4097 18.7624 13.9464 13.5861 13.5396 20.9128 17.6334 13.4489 13.4488 24.8706 16.4035 12.7886 12.0878 11.4554 8.40779 16.0146 7.01026 6.81061 6.49181 15.7046 3.6604 1.67442 0.293685
threshold=1.4836622932646455 2.6183173821073704 491.92548572513653 -0.0081861087879612198 1.6245018483929092 -0.051649418061998124 7433.5000000000009 7445.5000000000009 0.015032319000411578 -1.7572441293928123 0.019714849809387629 270.50000000000006 0.66285500767366712 74.318459219488844 278.50000000000006 0.023150028582603736 0.0060163282228863366 -0.00039771191531223765 10.502732359329322 307.50000000000006 2976.5000000000005 1.0322907183473926 -0.0060204696235690571 0.0071236370211872433 78.499870200726306 58.3189722159781 7357.5000000000009 0.0060479926908743051 1.8808209313059056e-05
decision_type=2 2 2 2 2 2 2 2 2 2 2 2 2 2 2 2 2 2 2 2 2 2 2 2 2 2 2 2 2
left_child=1 3 6 4 8 -6 18 -8 10 -9 11 -1 -13 14 23 16 17 -16 20 -11 24 22 -22 -5 25 -3 -26 -10 -2
right_child=28 2 -4 13 5 -7 7 9 27 19 -12 12 -14 -15 15 -17 -18 -19 -20 -21 21 -23 -24 -25 26 -27 -28 -29 -30
leaf_value=-2.2579251135144283 -2.9871521509451093 -2.8867063645893514 -2.3085995690602741 -2.8703222507238833 -2.1860999545127839 -2.7137735006348316 -2.2927739142342909 -2.4671653235210886 -3.0395894869415527 -2.6763734094145488 -2.9979102169381737 -2.4697960267280092 -2.8561982629591234 -2.8901254394004088 -2.6011697647567633 -2.0209295794367721 -2.8152064761662823 -2.2394201157999003 -2.5184533045090371 -3.0396199781843709 -2.6127957933988091 -2.3994478739557965 -2.9086853324883695 -2.570381798615518 -3.0257393377156463 -2.5780518086863835 -2.8576056147242412 -2.8794806927025753 -3.0402608842995491
leaf_weight=3.2962499186396697 3.296249918639659 40.551539696753025 3.5262208431959143 4.0628196671605128 3.2195929437875748 4.7527324408292762 3.2195929437875774 3.6028778180480012 4.9060463905334455 5.2126742899417842 4.1394766420125952 5.1360173150897053 11.26857530325651 3.4495638683438292 6.2858719378709837 3.3729068934917441 4.5994184911251059 5.5959591642022142 3.296249918639659 5.1360173150897026 3.2195929437875739 3.2195929437875739 9.1988369822502118 5.1360173150897026 12.11180202662945 5.5959591642022124 5.6726161390542975 3.2195929437875748 263.77665046602488
leaf_count=43 43 529 46 53 42 62 42 47 64 68 54 67 147 45 82 44 60 73 43 67 42 42 120 67 158 73 74 42 3441
internal_value=-2.91834 -2.73655 -2.79472 -2.65345 -2.72416 -2.49905 -2.81201 -2.66784 -2.78059 -2.75536 -2.71392 -2.6542 -2.73471 -2.56679 -2.52847 -2.44829 -2.53697 -2.42973 -2.84195 -2.85655 -2.85548 -2.74185 -2.83149 -2.70234 -2.88333 -2.84911 -2.97208 -2.97617 -3.03961
internal_weight=0 176.004 103.564 72.4408 39.9383 7.97233 100.037 17.1712 31.966 13.9516 23.8403 19.7008 16.4046 32.5026 29.053 19.8542 16.4812 11.8818 82.8662 10.3487 79.5699 15.638 12.4184 9.19884 63.9319 46.1475 17.7844 8.12564 267.073
internal_count=5780 2296 1351 945 521 104 1305 224 417 182 311 257 214 424 379 259 215 155 1081 135 1038 204 162 120 834 602 232 106 3484
is_linear=0
shrinkage=1


Tree=1
num_leaves=25
num_cat=0
split_feature=19 19 0 41 42 7 31 31 29 29 9 28 40 9 40 46 5 17 14 50 17 30 53 14
split_gain=1865.64 457.662 16.9384 19.5135 13.3295 9.00733 8.97394 8.42268 9.82356 8.21872 7.1092 9.02284 6.3959 8.66945 7.71539 5.96365 5.51523 4.92553 4.10206 3.65964 3.60718 2.3783 0.0127345 0.0030529
threshold=-21.214539416223882 41.33966058452345 462.49073312636989 0.18763314832930109 36.767623555852587 2275.5000000000005 -0.00044953054682761196 -0.00025799413884369159 0.0096393690749940215 0.0069742475257102482 863188.50000000012 0.0043576338970165215 -0.00041560790753003557 631265.00000000012 0.0001571102031480143 0.41935178694651937 2990.5000000000005 -0.63774812189756647 0.11796996531094818 54.508759704914318 -0.88728815568182662 0.0068988660177409381 0.063123892514798996 -0.081762689520764251
decision_type=2 2 2 2 2 2 2 2 2 2 2 2 2 2 2 2 2 2 2 2 2 2 2 2
left_child=19 2 3 4 5 7 9 21 -9 -5 11 -6 -8 14 -14 -13 -12 -15 20 -1 -4 -2 -3 -21
right_child=1 22 18 6 10 -7 12 8 -10 -11 16 15 13 17 -16 -17 -18 -19 -20 23 -22 -23 -24 -25
leaf_value=-0.59838929682560327 -0.7956880572646936 -0.96946651481236501 -0.95004633034503627 -0.74259621848254675 -0.71059528957791196 -0.64313615943168356 -0.64928684111152679 -0.64928684111152679 -0.78102241916335302 -0.90996413559766531 -0.82462356296562711 -0.83458086458896563 -0.7789866542859436 -0.63454293958228658 -0.6982477321670516 -0.78479469262760093 -0.95920399611183682 -0.75290576354473193 -0.80256503650874134 -0.52594083222019172 -0.84518027584527888 -0.88444760138909673 -0.9792127836865836 -0.51573816338007961
leaf_weight=16.797883808612823 17.917742729187012 18.291029036045074 23.890323638916016 17.544456422328949 25.756755173206329 19.0376016497612 24.636896252632141 24.636896252632141 54.126514494419098 17.544456422328949 19.0376016497612 204.56089615821838 139.98236507177353 30.609477162361145 47.407360970973969 111.2393194437027 17.544456422328949 16.051311194896698 15.678024888038633 17.544456422328949 16.797883808612823 18.291029036045074 626.00113660097122 616.66897892951965
leaf_count=45 48 49 64 47 69 51 66 66 145 47 51 548 375 82 127 298 47 43 42 47 45 49 1677 1652
internal_value=-0.763141 -0.868629 -0.786198 -0.779783 -0.800173 -0.75329 -0.744239 -0.771547 -0.739799 -0.826312 -0.816788 -0.809016 -0.7331 -0.741935 -0.758557 -0.817048 -0.889266 -0.675224 -0.877872 -0.518129 -0.906838 -0.840588 -0.978945 -0.516011
internal_weight=0 1506.58 862.291 805.925 512.149 134.01 293.776 114.972 78.7634 35.0889 378.139 341.557 258.687 234.051 187.39 315.8 36.5821 46.6608 56.3662 651.011 40.6882 36.2088 644.292 634.213
internal_count=5780 4036 2310 2159 1372 359 787 308 211 94 1013 915 693 627 502 846 98 125 151 1744 109 97 1726 1699
is_linear=0
shrinkage=1


Tree=2
num_leaves=31
num_cat=0
split_feature=11 19 1 44 29 9 30 1 10 10 40 41 60 9 53 53 24 27 6 52 44 37 18 9 6 16 10 63 14 8
split_gain=1776.16 533.212 13.0418 8.20944 11.321 13.2288 12.5444 11.1172 12.073 10.4376 9.26019 8.11164 10.8592 8.03863 6.90083 6.85926 6.59294 6.51558 6.0839 6.02923 5.21257 5.1279 5.8949 4.68667 4.26553 4.06709 2.95594 0.903041 0.0116829 0.00845694
threshold=0.42776928384857177 -21.214539416223882 442.8975487124597 -1.6913823570199182 0.009723041048181261 714265.00000000012 0.0062100237704979305 166.51209461035756 1001.5000000000001 1073.5000000000002 -6.1616864599489663e-07 0.41168382374436302 14683.000000000002 391265.00000000006 25.284676769281422 32.826183782591187 -0.20519186924725 0.0069044772958530469 380.50000000000006 -90.633200849648532 6.4276325238030418 -0.0029199281749429907 -1.0156373060593149 535265.00000000012 2952.5000000000005 -0.097540506906329746 339.50000000000006 17.933720791049648 -0.081762689520764251 246.50000000000003
decision_type=2 2 2 2 2 2 2 2 2 2 2 2 2 2 2 2 2 2 2 2 2 2 2 2 2 2 2 2 2 2
left_child=1 27 3 7 5 10 -7 25 21 -8 15 12 13 -6 -14 -5 19 26 -12 -10 -19 22 -9 -23 -22 -3 -4 -1 -29 -2
right_child=29 2 17 4 11 6 9 8 16 -11 18 -13 14 -15 -16 -17 -18 20 -20 -21 24 23 -24 -25 -26 -27 -28 28 -30 -31
leaf_value=-0.91385272491948499 -0.50464708384077506 -0.89822480140719696 -0.69948918457524478 -0.83022927945478742 -0.66650056296186755 -0.61279911184620528 -0.85630196273795989 -0.67897948976109013 -0.7726077311400017 -0.67722195429175147 -0.63391372691729886 -0.82817745705135959 -0.56641762404865825 -0.74832544872898332 -0.70666110960347561 -0.74082519400711644 -0.80723310774520718 -0.67134944742754621 -0.77636513446616295 -0.67285354381454709 -0.70974403198232217 -0.88166561931755894 -0.81121588333516859 -0.78645392742935238 -0.83084004571884995 -0.80203047831463148 -0.60817532366701188 -0.94621743734320596 -0.95614470607023194 -0.49403203370515769
leaf_weight=16.473008155822754 16.847394704818726 26.955831527709961 16.847394704818726 116.80860328674316 50.167797565460205 27.704604625701904 19.093713998794556 16.847394704818726 25.458285331726074 19.842487096786499 16.098621606826782 17.596167802810669 23.960739135742188 126.54265356063843 18.719327449798584 32.946016311645508 22.088806390762329 27.330218076705933 20.216873645782471 62.896940231323242 16.847394704818726 32.571629762649536 25.083898782730103 29.576537370681763 17.970554351806641 25.832671880722046 28.827764272689819 17.970554351806641 618.48657894134521 629.34378886222839
leaf_count=44 45 72 45 312 134 74 51 45 68 53 43 47 64 338 50 88 59 73 54 168 45 87 67 79 48 69 77 48 1652 1681
internal_value=-0.734434 -0.8368 -0.747694 -0.755713 -0.742399 -0.767873 -0.70174 -0.780098 -0.762586 -0.76505 -0.791562 -0.715236 -0.706166 -0.725092 -0.627867 -0.810567 -0.722745 -0.691405 -0.713203 -0.701604 -0.727881 -0.80486 -0.758074 -0.836399 -0.772257 -0.851212 -0.641811 -0.95482 -0.955873 -0.4943
internal_weight=0 1517.76 864.833 757.01 489.698 252.711 66.6408 267.312 214.523 38.9362 186.07 236.987 219.391 176.71 42.6801 149.755 110.444 107.823 36.3155 88.3552 62.1482 104.079 41.9313 62.1482 34.8179 52.7885 45.6752 652.93 636.457 646.191
internal_count=5780 4054 2310 2022 1308 675 178 714 573 104 497 633 586 472 114 400 295 288 97 236 166 278 112 166 93 141 122 1744 1700 1726
is_linear=0
shrinkage=1


Tree=3
num_leaves=30
num_cat=0
split_feature=50 65 38 9 71 51 38 71 22 44 17 28 34 34 16 24 64 32 27 48 13 5 6 3 27 22 17 28 0
split_gain=223.302 13.6303 10.8291 14.2147 11.1691 10.6152 9.60487 8.49168 12.7563 8.6714 8.26222 7.76485 9.63919 15.1494 15.8819 13.4895 8.7941 8.14023 7.06052 5.76401 9.39449 4.99842 4.94487 7.46912 3.24782 2.77728 1.24444 0.171335 0.170431
threshold=12.473702617330568 4.1980090558743116e-05 189.9931035643697 770410.50000000012 0.011483166375228395 10.502732359329322 415.53671235099199 0.018385485970497942 -0.0012310223238252702 -0.64179448157942065 -1.1506939671796546 0.0048542448363940224 -8.3034971565341029e-05 -0.0035413879530157817 -0.10925125775922805 -0.94274670629762425 0.68783499776974999 -0.66758853485098868 0.014510660330971939 91.450816777150564 -0.02907113501665198 3051.5000000000005 2907.5000000000005 0.02095831293811011 0.012654990084928814 0.012786887028083284 -1.108335074162295 0.015587832130391692 399.79179717380117
decision_type=2 2 2 2 2 2 2 2 2 2 2 2 2 2 2 2 2 2 2 2 2 2 2 2 2 2 2 2 2
left_child=1 5 3 10 11 6 7 18 -9 -10 -3 -4 13 16 -15 17 -13 -14 19 20 -1 22 23 -6 -24 -21 -2 -26 -20
right_child=26 2 4 -5 21 -7 -8 8 9 -11 -12 12 15 14 -16 -17 -18 -19 28 25 -22 -23 24 -25 27 -27 -28 -29 -30
leaf_value=-4.1122968663598169e-05 -0.12096406077632638 0.26186986455753719 0.015393475791141595 0.065364018969282678 -0.043882633080378056 0.33838598910295564 0.29447677486490442 0.0041404974054309795 0.14610181454624829 0.48691347339000923 0.54953507889468489 0.037640380356692975 -0.12441170282740623 0.23050752334994865 0.68615966623775038 0.34383272429141654 0.34114808239666439 0.14584468512617307 -0.12278186906046729 -0.10244999571343084 0.12687963690796258 0.22443090997046886 0.080405300674896707 0.26868769678992099 -0.12331219795089456 0.083078744624853221 -0.01009464813269904 -0.072585545322982892 -0.071383732937948779
leaf_weight=28.043515793979161 229.25314830988646 6.2424992695450792 6.1487094759941092 5.442861206829547 4.3244183585047775 4.826679863035678 5.7590055987238875 6.8014022707939139 4.4732732698321334 4.5108638294041148 5.8803573101758966 6.3607011660933512 5.2946646958589563 4.371961236000061 4.87782324105501 6.6249621585011491 5.1802943870425224 8.92705439776182 5.2593101114034635 8.5965383313596231 46.193298786878593 4.431779831647872 4.2012896686792365 4.8178863525390625 5.4117425605654699 3.3322405368089667 3.0841957554221144 3.4726526439189911 3.3546508476138115
leaf_count=320 3447 63 62 55 46 43 59 81 50 49 61 62 52 46 45 67 54 89 60 106 509 44 43 50 60 38 40 41 38
internal_value=0 0.125703 0.175912 0.298127 0.146982 0.0875391 0.0770587 0.0656682 0.183076 0.318117 0.402258 0.197026 0.223813 0.307185 0.472003 0.140386 0.174338 0.0451599 0.0460676 0.0610066 0.0789444 0.0571671 0.0235914 0.121067 -0.0445763 -0.0505252 -0.119495 -0.103783 -0.10307
internal_weight=0 213.162 92.0117 17.5657 74.4459 121.151 116.324 110.565 15.7855 8.98414 12.1229 47.7862 41.6375 20.7908 9.24978 20.8467 11.541 14.2217 94.7796 86.1656 74.2368 26.6598 22.228 9.1423 13.0857 11.9288 232.337 8.8844 8.61396
internal_count=5780 2293 940 179 761 1353 1310 1251 180 99 124 477 415 207 91 208 116 141 1071 973 829 284 240 96 144 144 3487 101 98
is_linear=0
shrinkage=0.173016


Tree=4
num_leaves=37
num_cat=0
split_feature=11 50 39 52 46 68 38 28 16 29 67 31 38 0 42 45 32 15 15 15 44 30 16 66 28 15 54 66 45 15 18 30 0 18 38 14
split_gain=1186.78 307.874 11.5175 11.3626 9.66169 11.8008 10.5745 8.5541 8.15883 8.09242 8.93485 7.69121 7.64597 7.63071 7.20357 6.75038 6.71725 6.54492 8.22169 6.90097 6.4384 6.2069 6.10659 5.9812 5.71089 5.45763 4.59525 4.5413 4.40934 3.24568 2.48502 2.36751 2.11792 1.51028 0.0258058 0.0102842
threshold=-0.05256354840035609 12.473702617330568 -0.054952017241125931 -54.087582585931308 0.58426006298151045 0.00055785308406411805 397.79269006366366 0.014687646361524172 0.016902162943440938 0.0082182536268517962 2.9389297904614371e-06 -0.00021901653812493721 367.20054453551012 440.54981796733654 43.480769067617295 -4.4851315394697835 -0.17775936517931054 -0.065687790560790812 -0.1577428248693489 0.11511785162360523 -8.5020202124596533 0.0059836817161419446 0.13877308013041181 0.016486654064338104 0.0086316533820851912 -0.052585695905663303 63.941368445357845 0.022151493380231532 -0.29152936072793745 -0.18269032177929592 -0.93142689453542893 0.0068988660177409381 205.71334605705886 0.55858404944262274 190.7217776174962 -0.083689431543999812
decision_type=2 2 2 2 2 2 2 2 2 2 2 2 2 2 2 2 2 2 2 2 2 2 2 2 2 2 2 2 2 2 2 2 2 2 2 2
left_child=32 2 9 8 6 13 7 12 11 10 21 25 -5 26 15 29 -7 18 -16 27 -13 -2 -10 -22 -15 31 -6 -19 -9 -11 -8 -4 35 -3 -35 -1
right_child=1 33 3 4 5 16 30 28 22 14 -12 20 -14 24 17 -17 -18 19 -20 -21 23 -23 -24 -25 -26 -27 -28 -29 -30 -31 -32 -33 -34 34 -36 -37
leaf_value=0.18925510879797974 -0.033507073018888313 -0.13007907114004758 -0.02471456653841551 -0.045284802830308259 0.12425945204171573 -0.0027782996310414883 -0.093968677716458934 -0.067786559851589392 -0.11144438277324263 0.048561588841111315 0.15566292172418422 -0.055116247072257742 0.074037399879370247 -0.097394452348520219 0.00055409244325426582 0.11492581127515264 -0.12483975107181965 -0.026618845967276986 -0.15406216328371919 -0.062772718693367188 0.03060177473074753 0.10072942185820756 0.022331190088081775 0.12200470045712367 0.045730666319650275 0.051609104113978267 0.012754665622028332 0.088858212633551592 -0.17803333728618129 -0.062810530744697154 -0.17253731757184654 -0.11334508312584711 0.13625963414775052 -0.17057281894531653 -0.1812972766764411 0.19901145056386702
leaf_weight=15.399660557508467 25.764862924814224 18.300672054290771 17.421842008829117 161.53857529163361 27.225418716669083 24.07948425412178 21.383904904127121 23.605186432600021 28.243582963943481 15.638662666082384 22.041918218135834 15.651105433702467 17.82733815908432 17.612684100866318 18.59137374162674 23.915598899126053 30.706012308597565 16.396358281373978 23.030071586370468 30.07482635974884 57.183169692754745 17.154885470867157 15.975613087415693 34.292089641094208 15.815995782613752 15.60515248775482 18.651022613048553 26.867879062891006 20.194957256317139 15.6431388258934 28.042313665151596 18.75833335518837 16.930600523948669 15.310523539781569 577.25015476346016 605.2345050573349
leaf_count=42 69 51 47 437 73 65 58 64 76 42 59 42 48 48 50 64 83 44 62 81 154 46 43 92 43 42 50 72 55 42 76 51 46 44 1663 1656
internal_value=0 -0.0859344 -0.0182802 -0.030823 -0.0475134 -0.00948467 -0.066216 -0.0501658 0.0025919 0.0142494 0.0661868 0.0208861 -0.0334145 0.0331692 -0.00558303 0.0457763 -0.0712235 -0.0302509 -0.0850283 0.000848539 0.0473486 0.0201637 -0.0631184 0.0648946 -0.0296816 -0.0338444 0.0789671 0.0450944 -0.118698 -0.00712459 -0.138616 -0.0707235 0.197123 -0.179507 -0.181028 0.198777
internal_weight=0 1455.79 844.933 609.814 406.683 134.091 272.592 223.166 203.131 235.12 64.9617 158.912 179.366 79.3051 170.158 55.1974 54.7855 114.961 41.6214 73.3391 107.126 42.9197 44.2192 91.4753 33.4287 51.7853 45.8764 43.2642 43.8001 31.2818 49.4262 36.1802 637.565 610.861 592.561 620.634
internal_count=5780 4036 2278 1647 1100 362 738 604 547 631 174 428 485 214 457 148 148 309 112 197 288 115 119 246 91 140 123 116 119 84 134 98 1744 1758 1707 1698
is_linear=0
shrinkage=0.173016


Tree=5
num_leaves=27
num_cat=0
split_feature=11 19 15 31 37 42 29 30 0 32 53 67 20 11 17 29 25 46 37 67 40 42 48 54 0 8
split_gain=1133.09 351.976 11.7571 10.5469 8.83809 8.46854 11.7777 10.8402 8.09268 7.50187 6.79305 6.94094 6.40336 6.5454 6.84521 6.29657 5.87526 5.98041 5.7148 5.2838 4.632 3.98708 3.75779 3.6852 0.829455 0.0167626
threshold=0.42776928384857177 -21.214539416223882 0.10355932641807732 -0.00059842860790788887 -0.0094854454202893592 36.767623555852587 0.0081447873836293684 0.0055076895291128738 165.87275349107705 -0.41319944167275563 16.159177176405009 1.8178312385189585e-06 0.012940144993522919 -0.0064845828095991811 -0.29411918644313106 0.0088444986308052094 -32.499999999999993 -1.8539553071340142 -0.016603783042382646 2.7692902746771973e-06 -7.703304769068885e-07 31.112545240281232 8.0984065356257116 29.165964760749187 205.71334605705886 246.50000000000003
decision_type=2 2 2 2 2 2 2 2 2 2 2 2 2 2 2 2 2 2 2 2 2 2 2 2 2 2
left_child=1 24 3 9 -4 8 7 19 22 -3 11 -8 13 -6 15 -15 21 -18 -12 -7 -9 -10 -5 -24 -1 -2
right_child=25 2 4 5 12 6 10 20 16 -11 18 -13 -14 14 -16 -17 17 -19 -20 -21 -22 -23 23 -25 -26 -27
leaf_value=-0.18397534704723104 0.18542757562979562 -0.019196233671923142 -0.052139042071199487 -0.15338276635546028 -0.038941253072320173 0.0640073773512366 0.11126077069679938 -0.12447072951222579 -0.031216601917792262 0.11614679628480912 0.047898405374807447 0.011213878160557755 0.12198874286836861 -0.05383625273161282 0.15561842697850345 0.076572540415185228 -0.048909838450687616 0.053480807058068819 -0.025529613645425185 -0.065670977333032468 -0.029995021781518871 -0.14193699795652864 -0.0071501326369396382 -0.12067376396071551 -0.14364353016508158 0.19540448132817981
leaf_weight=596.30253446102142 16.35728332400322 21.996606230735779 29.814885705709457 29.623948335647583 28.353284001350403 23.487652689218521 27.64055523276329 57.971843302249908 20.460167557001114 27.640111178159714 37.008118242025375 83.218669503927231 30.201205193996429 17.858546495437622 16.806400239467621 29.121953099966049 35.662130653858185 32.719392627477646 221.44693863391876 15.651452004909514 21.260937362909317 18.601592391729355 15.652946323156355 18.895514398813248 16.265438824892044 609.83319696784019
leaf_count=1698 45 59 80 80 76 63 74 156 55 74 99 223 81 48 45 78 96 88 593 42 57 50 42 51 46 1681
internal_value=0 -0.0826618 -0.0113427 -0.0207091 0.0322914 -0.0265004 -0.0148657 -0.0623516 -0.0595538 0.0561808 0.000356359 0.0361812 0.0528769 0.0301932 0.0609331 0.0269896 -0.0305006 7.78157e-05 -0.0150103 0.0121307 -0.0991418 -0.0840088 -0.108161 -0.0692925 -0.182911 0.195152
internal_weight=0 1473.66 861.095 708.939 152.156 659.302 487.686 118.372 171.616 49.6367 369.314 110.859 122.341 92.1402 63.7869 46.9805 107.443 68.3815 258.455 39.1391 79.2328 39.0618 64.1724 34.5485 612.568 626.19
internal_count=5780 4054 2310 1902 408 1769 1307 318 462 133 989 297 328 247 171 126 289 184 692 105 213 105 173 93 1744 1726
is_linear=0
shrinkage=0.173016


Tree=6
num_leaves=36
num_cat=0
split_feature=63 65 44 69 66 11 28 63 6 15 42 66 68 35 23 64 3 30 38 41 24 15 28 3 20 28 41 38 51 42 32 44 33 41 65
split_gain=166.821 7.99023 8.16967 10.2556 10.0631 10.7193 12.322 10.176 8.7463 9.23077 21.4342 7.93256 9.52538 7.97239 7.49349 8.15226 7.25059 6.97777 8.33093 7.57668 6.62926 6.45204 6.41693 6.41319 9.0206 7.54145 5.60149 5.3358 5.11132 4.01291 2.96256 2.92488 1.71781 0.714932 0.538756
threshold=1.2755151628309722 4.1980090558743116e-05 2.5157367982136809 0.86112326437881281 0.010729275412217696 -0.0093183496244857982 0.012594454135324179 0.52044124923725954 2973.5000000000005 -0.078741871257324167 41.16093854803772 0.017515310098304451 0.00061264823221573376 0.0027929812915603231 -0.0060169172564130116 0.61556317392726767 0.016704283774329965 0.011379726526615258 400.29863125786341 0.25367352994069942 -0.36926606378038251 0.0062690158479108424 0.011868710979555585 0.0066704208153815347 -0.00053973885590113946 0.0059245121199173953 0.13592893591767297 400.29863125786341 5.3285157469173408 52.829160068936908 0.17669443295868462 6.0188187427125408 -0.0061728402321283337 0.43441064780174227 0.00010544501598426691
decision_type=2 2 2 2 2 2 2 2 2 2 2 2 2 2 2 2 2 2 2 2 2 2 2 2 2 2 2 2 2 2 2 2 2 2 2
left_child=1 11 3 8 -5 6 -6 29 14 10 -10 21 13 20 15 -3 -9 18 -15 -20 23 28 26 25 -25 -13 -11 -2 30 -7 -1 33 -23 -22 -16
right_child=27 2 -4 4 5 7 -8 16 9 22 -12 12 -14 17 34 -17 -18 -19 19 -21 31 32 -24 24 -26 -27 -28 -29 -30 -31 -32 -33 -34 -35 -36
leaf_value=0.057429396449120193 -0.12007705073205231 0.26198679504412237 -0.088326592884162392 0.38434035037184072 0.43246273964230747 0.067687240172615307 0.094494549409261025 0.26874338701029254 0.068808251026856143 0.2497520254727951 0.53049444574574456 0.15526116167422566 0.28656894727578947 0.086619692757861175 -0.12865149920129698 -0.024777609633961851 0.030628140799384172 -0.014853132075024566 0.46998671294354372 0.1474900472357536 -0.12419287256778405 -0.008008767854315162 -0.071555702146487044 0.018493907597394353 0.23771592326979982 -0.04946869552965228 0.019113429943460141 0.044148473730744979 -0.082586555758623031 -0.12840788510572082 0.24431298368362542 0.07128303223718728 -0.12548550901597974 -0.032137676284178185 -0.049772197702510124
leaf_weight=5.6351286545395869 196.11167667433619 5.3104706630110758 4.7576623260974875 7.3954024091362944 7.9946576729416829 8.87732967361808 5.4405866861343384 12.61482844501734 7.0676368847489375 6.8193245679140109 5.2331904135644436 8.0070585273206252 7.1052380315959445 7.3638974390924039 6.294170990586279 6.6740382313728333 5.5068212151527396 4.7241723723709574 5.2179232127964479 3.7950191386044025 7.8103987723588926 5.875954352319245 6.1556604206562033 9.7219886071980017 13.317006900906561 16.326315090060234 5.8597322218120098 6.091325268149375 4.2665466554462901 4.7886742129921904 4.6389606297016144 4.3782088831067076 10.213262006640431 3.7785772904753685 4.5124436244368553
leaf_count=52 3473 46 48 59 65 80 48 104 64 55 42 82 71 80 50 54 53 49 54 40 81 56 54 109 132 182 50 58 48 39 41 42 98 41 41
internal_value=0 0.0995384 0.133079 0.142987 0.197334 0.166554 0.296051 0.111625 0.0898863 0.149465 0.265916 0.0689591 0.0944544 0.0782064 0.00840345 0.102528 0.196545 0.170265 0.223634 0.335001 0.0474779 -0.0072414 0.0731456 0.0799677 0.145343 0.0179693 0.143433 -0.115123 0.0762061 -0.00110115 0.142228 -0.0488637 -0.0826843 -0.0943441 -0.0959381
internal_weight=0 233.478 111.303 106.545 52.6183 45.2229 13.4352 31.7877 53.9267 31.1355 12.3008 122.176 91.5458 84.4406 22.7911 11.9845 18.1216 21.101 16.3768 9.01294 63.3396 30.6299 18.8347 47.3724 23.039 24.3334 12.6791 202.203 14.5406 13.666 10.2741 15.9672 16.0892 11.589 10.8066
internal_count=5741 2210 952 904 448 389 113 276 456 265 106 1258 963 892 191 100 157 223 174 94 669 295 159 505 241 264 105 3531 141 119 93 164 154 122 91
is_linear=0
shrinkage=0.173016


Tree=7
num_leaves=18
num_cat=0
split_feature=19 19 50 39 12 19 35 64 30 10 68 35 29 7 30 43 43
split_gain=796.41 230.904 11.45 9.53508 8.94576 12.9701 8.72749 8.23614 8.634 6.63013 8.22721 6.00428 5.62279 5.348 5.0933 3.63922 3.43352
threshold=-47.231816357267405 41.33966058452345 0.49172229130610418 -0.054952017241125931 -0.049164768246709838 -4.1497240600050835 -0.002825892943323641 1.3661550251226078 0.0078769784728785555 1433.5000000000002 -0.00015427883682057092 -0.013865823847090968 0.017128191083895319 2191.5000000000005 0.01001866389170627 47.742371891932393 36.604560619405667
decision_type=2 2 2 2 2 2 2 2 2 2 2 2 2 2 2 2 2
left_child=-1 2 -2 6 5 13 15 9 -9 10 -8 -6 14 -5 -13 -4 -7
right_child=1 -3 3 4 11 16 7 8 -10 -11 -12 12 -14 -15 -16 -17 -18
leaf_value=0.17261047727817957 0.10053415318777663 -0.16150509124556192 0.12437600699088103 -0.12036425537062835 0.059182459456762489 0.1595699071018816 0.026904574605831552 0.1536392168217913 -0.0040476884023725275 0.072453641869227384 -0.069668127629071194 -0.033472661896771914 0.055432369189743286 0.012750368108333075 -0.07192521525587664 0.02967450487272948 0.052589414674765494
leaf_weight=571.93784365057945 24.81893852353096 518.09779584407806 23.844398945569992 16.248545557260513 18.289948463439941 15.916279733180998 37.922912955284119 17.505471110343933 25.520409017801285 17.817308753728867 86.813937246799469 341.9680939912796 17.22502788901329 20.291420698165894 147.72203102707863 24.804924935102463 20.691846162080765
leaf_count=1717 68 1692 64 44 50 43 102 47 69 48 235 933 47 55 404 67 56
internal_value=0 -0.0703156 -0.0152094 -0.018663 -0.0302473 0.0264289 0.0109281 -0.00617187 0.0601493 -0.0261988 -0.0403049 -0.0381426 -0.0416577 -0.046472 -0.0450763 0.0761378 0.099188
internal_weight=0 1375.5 857.401 832.583 598.353 73.1481 234.229 185.58 43.0259 142.554 124.737 525.205 506.915 36.54 489.69 48.6493 36.6081
internal_count=5741 4024 2332 2264 1632 198 632 501 116 385 337 1434 1384 99 1337 131 99
is_linear=0
shrinkage=0.173016


Tree=8
num_leaves=22
num_cat=0
split_feature=19 63 51 42 46 60 10 31 43 35 29 68 10 27 17 63 16 15 29 46 52
split_gain=766.437 254.132 12.9939 7.34483 7.5047 9.61769 12.4013 7.25268 7.79364 7.33809 5.77104 5.44465 7.95543 7.23298 5.35021 5.17213 4.94692 3.97009 4.38656 0.300738 0.0106437
threshold=41.33966058452345 8.9061989553965066 0.5081657579682316 71.216856103535278 0.76700891568482865 1803.0000000000002 1370.5000000000002 -0.00024912372258027542 31.632513137627303 0.0028535472055207164 0.012380095522826364 6.3759494872472547e-05 578.50000000000011 0.0056001601128467231 -0.79069324270734986 0.90507703965241193 -0.016232559349696748 0.10355932641807732 0.0095537314138865719 -0.61687437656952115 -71.111111216112221
decision_type=2 2 2 2 2 2 2 2 2 2 2 2 2 2 2 2 2 2 2 2 2
left_child=1 2 -1 4 5 7 15 9 -9 -4 17 14 16 -14 -6 -7 -13 18 -5 20 -3
right_child=-2 19 3 10 11 6 -8 8 -10 -11 -12 12 13 -15 -16 -17 -18 -19 -20 -21 -22
leaf_value=-0.13253640312511727 0.17074033361229149 -0.15650552463233869 0.049640636300274689 -0.031740900026713072 -0.047189460551066334 0.10138823421745587 -0.052544561707419057 -0.090905103375172727 -0.016238627412364565 -0.038577146418291006 -0.046774811828962759 -0.0082032694203156235 0.081367502530677108 -0.029257058322756626 -0.17344231422264303 -0.00053703326300347232 -0.13057490720627168 0.12621782186713221 0.096298472439315219 -0.13589305435709473 -0.16346509762205394
leaf_weight=25.488213181495667 556.29970329999924 23.767327278852463 87.97467976808548 15.948965460062029 24.693783789873123 62.862759381532669 30.06256777048111 48.521932810544968 303.57878920435905 41.527901381254196 15.633143424987791 15.400523394346235 25.529563009738922 57.482488721609116 16.961551040410995 19.520861774682999 27.661966800689697 23.453332841396332 16.04072904586792 13.466680914163588 501.80976587533951
leaf_count=69 1692 76 237 43 67 169 81 133 820 112 42 42 69 155 46 53 75 63 43 42 1612
internal_value=0 -0.0693814 -0.010909 -0.0071825 -0.0121463 -0.00301993 0.0425336 -0.0136584 -0.0265349 0.0213465 0.0459987 -0.0444616 -0.0265292 0.00477325 -0.0986791 0.0772388 -0.0868498 0.0721744 0.0324737 -0.162484 -0.163158
internal_weight=0 1397.39 858.344 832.856 761.779 594.049 112.446 481.603 352.101 129.503 71.0762 167.73 126.075 83.0121 41.6553 82.3836 43.0625 55.443 31.9897 539.044 525.577
internal_count=5741 4049 2319 2250 2059 1605 303 1302 953 349 191 454 341 224 113 222 117 149 86 1730 1688
is_linear=0
shrinkage=0.173016


Tree=9
num_leaves=23
num_cat=0
split_feature=63 17 38 21 21 15 35 38 51 29 65 34 19 48 21 23 22 3 42 19 46 53
split_gain=122.95 6.71567 5.6155 6.84998 12.3051 10.0892 6.81896 8.73059 9.41898 6.7193 8.48918 8.1809 5.70415 4.92757 4.53641 6.14712 4.73211 4.36606 2.63808 1.61575 1.51692 0.459103
threshold=1.2755151628309722 -13.362585980024562 189.98524391453145 -0.024041639283841062 -0.019368128275088822 -0.020716870579729093 -0.0021435247095190398 415.53671235099199 0.5081657579682316 0.0093731200402547392 6.7378352459034727e-05 -0.0020811934027396661 11.376653570046843 73.402112115944178 -0.012852373638613022 -0.0037133554433533829 0.015582640158819385 0.0057296774456678653 40.310800370686934 -0.79787400154959431 0.90747619568152194 31.883564612275894
decision_type=2 2 2 2 2 2 2 2 2 2 2 2 2 2 2 2 2 2 2 2 2 2
left_child=2 -2 9 13 5 -5 14 8 -8 17 11 -11 -10 19 -6 20 -17 -1 -3 -4 -16 -20
right_child=1 18 3 4 6 -7 7 -9 12 10 -12 -13 -14 -15 15 16 -18 -19 21 -21 -22 -23
leaf_value=-0.0711023628236679 0.47370306014356844 0.043780748258421397 -0.0093372315084558361 0.077120639159800233 0.15641678908142875 0.41226016561760365 0.29810191173651646 0.30971565681276714 0.060965173395332056 0.39364679173042832 0.027507076747120225 0.14956436351847824 0.24854347421457498 0.095078695935304269 -0.12653747096890561 -0.0066079589270511474 0.13041660807135858 0.14822782942772822 -0.11931046153613002 -0.12539377154842818 -0.0050420437180735368 -0.033739080478131032
leaf_weight=5.8972350805997831 0.55768969282507797 3.045597154647111 5.8819143027067193 5.0646867863833904 6.0367768555879584 5.7497379183769208 5.5756881684064856 5.0627326220273963 119.17425816133618 7.5077978149056461 6.569460652768611 9.1766587123274821 5.0398808643221846 6.9824489019811145 11.102840099483727 22.715080052614212 11.266738094389437 4.995673805475235 163.71907656267285 9.2450383454561234 4.2645334340631953 1.9356179460883129
leaf_count=47 6 29 53 46 52 51 34 33 1070 48 48 61 43 63 101 197 93 41 3474 88 41 22
internal_value=0 -0.113372 0.0764796 0.0664645 0.0765163 0.255867 0.0662873 0.0872776 0.0785415 0.141826 0.194315 0.259835 0.0686264 -0.0249064 0.0151572 -0.00218264 0.0388711 0.0295537 -0.115383 -0.0803815 -0.09291 -0.118318
internal_weight=0 169.258 257.309 223.162 201.053 10.8144 190.239 134.853 129.79 34.1468 23.2539 16.6845 124.214 22.1094 55.386 49.3492 33.9818 10.8929 168.7 15.127 15.3674 165.655
internal_count=5741 3531 2210 1965 1761 97 1664 1180 1147 245 157 109 1113 204 484 432 290 88 3525 141 142 3496
is_linear=0
shrinkage=0.173016


Tree=10
num_leaves=19
num_cat=0
split_feature=12 11 50 0 41 35 52 16 52 53 37 64 66 0 40 6 24 14
split_gain=562.151 180.038 7.97792 6.68537 7.44103 8.90742 7.71549 6.86212 6.42807 6.12577 5.84578 5.68943 4.99382 3.76064 5.58539 3.67255 2.40382 0.0441758
threshold=-0.32453724840795239 0.42776928384857177 0.49172229130610418 466.81785173917677 0.17982342376481791 -0.002825892943323641 -51.560477753780205 0.059730535627072874 -37.635349624708077 41.876172770898513 0.017569519754969624 1.4015747844739022 0.014797599425712668 370.38259461079429 -0.00028772450838027147 2947.5000000000005 -1.8606797808325783 -0.083689431543999812
decision_type=2 2 2 2 2 2 2 2 2 2 2 2 2 2 2 2 2 2
left_child=17 2 -2 4 6 13 7 12 16 11 -10 -7 -4 14 -6 -5 -8 -1
right_child=1 -3 3 15 5 9 8 -9 10 -11 -12 -13 -14 -15 -16 -17 -18 -19
leaf_value=0.14378564342777084 0.08311572569188308 -0.14891128162888873 -0.015451142617427216 -0.13047424413896158 0.035909197860481606 -0.013128197807063331 -0.062119305579654671 -0.099018338528841038 -0.043139507354993459 -0.091929624263654142 0.032397731995306531 0.056618141918184164 0.046616421076099382 0.0058333260622255327 0.15344243468485563 -0.031621115115712563 -0.15507637100127478 0.15677290795014523
leaf_weight=12.418213814496992 25.097621917724609 443.19794872403145 78.576303988695145 22.317331969738007 26.694605261087418 163.68658924102783 15.206463217735289 17.502576053142548 235.10863396525383 23.181233376264572 35.244180619716644 44.509711802005768 76.608650594949722 24.168918341398239 22.16686949133873 22.730733066797256 18.57867157459259 487.87100270390511
leaf_count=42 68 1692 215 64 72 444 42 48 649 63 97 121 209 66 60 64 51 1674
internal_value=0 -0.0594879 -0.0129338 -0.015854 -0.012115 0.00901674 -0.0256062 0.00359889 -0.042189 -0.00761044 -0.0332886 0.00178553 0.0151889 0.0616863 0.0892884 -0.0806472 -0.113324 0.156458
internal_weight=0 1294.58 851.379 826.281 781.233 304.408 476.825 172.688 304.138 231.378 270.353 208.196 155.185 73.0304 48.8615 45.0481 33.7851 500.289
internal_count=5741 4025 2333 2265 2137 826 1311 472 839 628 746 565 424 198 132 128 93 1716
is_linear=0
shrinkage=0.173016


Tree=11
num_leaves=17
num_cat=0
split_feature=11 12 44 30 31 29 12 35 43 68 21 7 24 32 69 14
split_gain=541.16 196.214 7.80236 6.38223 6.4754 7.39957 7.41108 7.02032 6.94669 5.56079 5.19159 5.52417 4.31116 3.69019 2.98343 0.0550215
threshold=0.42776928384857177 -0.32453724840795239 14.618524504707297 0.0179598032894886 -0.00061573876940440597 0.0079334393304858319 0.03470529924500166 -0.012641914053593826 56.308273451435191 -0.00028211576304004396 -0.0073210445788687286 2268.5000000000005 -1.8898304377569908 -0.10406074684594145 7.438385057215041 -0.083689431543999812
decision_type=2 2 2 2 2 2 2 2 2 2 2 2 2 2 2 2
left_child=1 15 3 4 9 10 7 -7 -8 -3 12 -12 -6 -11 -4 -1
right_child=-2 2 14 -5 5 6 8 -9 -10 13 11 -13 -14 -15 -16 -17
leaf_value=-0.13580087291963458 0.15527802790869752 -0.028878966642049225 0.12491194315297195 -0.10075640943707977 -0.029998132464103162 -0.12066816445829355 0.081518802451892719 -0.0095445991022635578 -0.011058655768402649 0.035620561529883597 -0.0060444171260255735 -0.10024237116600186 -0.12668947424585159 0.15357317864041348 0.019058857182734045 -0.15021605783054814
leaf_weight=11.409433782100676 484.89117604494095 17.079928010702133 16.616690784692768 24.023645639419556 23.064203411340714 17.645821034908295 52.391038000583649 462.34587332606316 45.150536626577377 16.237636804580692 94.79834395647049 23.176722258329391 34.473810881376266 15.570096284151075 15.337358534336088 447.26770469546318
leaf_count=42 1692 46 45 65 63 48 142 1255 122 44 260 64 95 42 42 1674
internal_value=0 -0.0585219 -0.00968224 -0.0129289 -0.0102943 -0.0142566 -0.00480041 -0.0136366 0.0386697 0.050707 -0.0453651 -0.0245704 -0.0879668 0.0934453 0.0741704 -0.149866
internal_weight=0 1316.59 857.912 825.958 801.934 753.046 577.533 479.992 97.5416 48.8877 175.513 117.975 57.538 31.8077 31.954 458.677
internal_count=5741 4049 2333 2246 2181 2049 1567 1303 264 132 482 324 158 86 87 1716
is_linear=0
shrinkage=0.173016


Tree=12
num_leaves=29
num_cat=0
split_feature=50 22 8 61 8 31 31 4 23 60 68 23 27 35 18 46 44 15 40 8 30 5 24 21 15 44 34 23
split_gain=91.9274 5.23522 6.02687 12.711 8.61777 8.393 11.3605 8.21369 6.68798 6.12308 8.57485 4.8618 4.51101 4.26423 4.12994 3.35389 5.3839 3.31132 6.79704 3.68755 3.29375 2.12869 3.02966 1.00968 0.983316 0.57932 0.495881 0.4543
threshold=12.473702617330568 0.019789065624046923 2296.5000000000005 871339.40820977825 2244.5000000000005 0.00020572566428439672 0.00014616721767617914 7525.5000000000009 0.019749308978998629 -3797.9999999999995 3.2617178507452143e-05 -0.015638751638651745 0.010267134583630865 -0.0043579142706594099 -0.83933222825143983 -0.68679680979932278 -1.6469111873089799 0.016336101938554729 -0.0001838896180988425 2277.5000000000005 0.013825161333939221 2972.5000000000005 -0.91437281884773314 -0.0017584201593195401 -0.077536268084323054 22.926046962619839 0.0022409488360597353 0.028917685711286171
decision_type=2 2 2 2 2 2 2 2 2 2 2 2 2 2 2 2 2 2 2 2 2 2 2 2 2 2 2 2
left_child=1 2 4 -4 5 6 7 8 -1 24 11 -11 -8 14 -3 16 -15 18 19 26 -12 27 -23 -19 -7 -2 -6 -17
right_child=25 13 3 -5 17 9 12 -9 -10 10 20 -13 -14 15 -16 21 -18 23 -20 -21 -22 22 -24 -25 -26 -27 -28 -29
leaf_value=0.08336850862345431 -0.11850837921064218 0.19219400663997119 0.33828107707025534 0.038547035698291252 -0.12717784154504622 -0.029273815056333963 0.33979029410388578 0.29164878290821078 -0.07189447311848142 0.0049621366962833346 -0.077158690265199684 0.18793278336533575 0.14398613320082057 -0.050537996337326495 -0.010498539722252755 -0.12648010019760972 0.18017234423696055 -0.026985766727412978 0.16292735434203159 0.071458754397427479 0.090790171246119475 -0.070060776424305832 0.095436232889524089 -0.12728056222686462 -0.12710695101003305 -0.01399192244691151 -0.052575128133332323 -0.059962126833527238
leaf_weight=98.367412831634283 133.02594617381692 6.3557343780994415 7.3254742212593582 10.020239770412443 6.5732228159904498 5.2102841213345528 7.2829468324780446 5.2435636520385733 9.0492234453558904 6.4103368334472206 13.73469438776374 13.522580668330191 6.937811516225338 6.6115779876708984 5.6837984658777696 8.7261245250701922 5.5463675409555417 4.9580379724502563 7.0995347164571312 5.9724020287394515 4.6617455184459677 8.6137564703822118 5.3448419272899619 7.7131673879921419 7.5917832255363447 1.622908130288123 4.6101306304335594 4.8990544006228438
leaf_count=834 3462 45 53 70 56 47 51 32 71 51 125 101 54 53 43 79 42 39 59 45 37 63 40 68 66 32 39 37
internal_value=0 0.0562954 0.0673843 0.165451 0.0594506 0.0752279 0.0990737 0.0806392 0.0702714 0.0160283 0.0506356 0.129189 0.244701 0.00653564 0.0966404 -0.0207928 0.0548251 -0.0165957 0.0208426 -0.0380786 -0.0345135 -0.0541566 -0.00660536 -0.0881962 -0.0874532 -0.117255 -0.0966418 -0.102743
internal_weight=0 284.066 232.285 17.3457 214.939 178.012 126.881 112.66 107.417 51.1314 38.3294 19.9329 14.2208 51.7813 12.0395 39.7417 12.1579 36.9265 24.2553 17.1558 18.3964 27.5838 13.9586 12.6712 12.8021 134.649 11.1834 13.6252
internal_count=5794 2300 1898 123 1775 1469 1042 937 905 427 314 152 105 402 88 314 95 306 199 140 162 219 103 107 113 3494 95 116
is_linear=0
shrinkage=0.173016


Tree=13
num_leaves=24
num_cat=0
split_feature=12 12 38 63 53 5 41 48 17 9 22 53 39 16 59 9 69 64 10 17 8 42 6
split_gain=409.021 145.513 8.16491 11.4121 7.19653 10.2881 6.9229 6.66986 6.35023 6.13082 5.62621 5.33854 5.3324 4.92256 4.41282 3.10867 2.57464 6.44614 2.50083 0.817386 0.0812722 0.0519299 0.220368
threshold=-0.32453724840795239 0.1184351107174041 410.5463666906067 1.410614748557617 16.337065844492894 2956.5000000000005 0.0017623466787934513 2.9746216087851836 -0.43403107492592019 627265.00000000012 -0.017514808183752281 19.752002762417316 -0.00037596740639510198 -0.20406543145454717 -0.0040270966746464515 387265.00000000006 6.1621142554765767 0.88803642700248242 389.50000000000006 -2.4919508386729268 246.50000000000003 49.861869831911399 2940.5000000000005
decision_type=2 2 2 2 2 2 2 2 2 2 2 2 2 2 2 2 2 2 2 2 2 2 2
left_child=21 2 3 4 5 8 9 15 10 12 -2 -9 -6 -4 -10 -8 17 -7 -15 20 -3 22 -1
right_child=1 19 13 -5 6 16 7 11 14 -11 -12 -13 -14 18 -16 -17 -18 -19 -20 -21 -22 -23 -24
leaf_value=0.11593806459978702 -0.055700739350901161 -0.12241167075639808 0.013933807817043864 0.14049933588467522 0.066458236007277752 -0.10666465106024525 0.033678016222393622 0.046449112317968645 -0.11748395196889541 -0.11922645731273415 0.053030770353914528 -0.0049928041192134221 -0.037629950737339567 -0.055177201863743107 -0.0069419207393678767 0.13158717299355713 -0.13462151073196357 0.017195279822565312 -0.13508444296528491 -0.086704395560389641 -0.14039931674300807 0.1459156545980676 0.14733396893196554
leaf_weight=10.616732910275458 19.065088957548141 9.5655558556318265 15.473902016878126 15.590860113501547 18.250808238983154 37.952535361051559 20.988533288240433 73.646358042955399 19.925579994916916 21.805027306079865 56.109159886837006 334.91864347457886 75.973175585269928 21.762512117624283 23.622178137302399 18.096820741891861 22.752005517482758 18.789812862873077 25.594092905521393 9.0198493152856809 370.63969264924526 393.46090562641621 22.959161430597305
leaf_count=42 53 43 42 44 50 107 57 203 55 60 154 921 211 61 65 49 64 51 71 29 1687 1584 91
internal_value=0 -0.0512763 -0.0107662 -0.00591636 -0.00891743 -0.0372714 0.0010536 0.0108164 -0.00500938 -0.0366028 0.0254405 0.0042811 -0.0174521 -0.0707476 -0.057568 0.0790749 -0.0854321 -0.0656521 -0.0984193 -0.138728 -0.139956 0.145264 0.13751
internal_weight=0 1229.54 840.317 777.487 761.896 198.216 563.679 447.65 118.722 116.029 75.1742 408.565 94.224 62.8305 43.5478 39.0854 79.4944 56.7423 47.3566 389.225 380.205 427.037 33.5759
internal_count=5794 4077 2318 2144 2100 549 1551 1230 327 321 207 1124 261 174 120 106 222 158 132 1759 1730 1717 133
is_linear=0
shrinkage=0.173016


Tree=14
num_leaves=27
num_cat=0
split_feature=11 67 43 0 46 54 39 39 21 61 31 17 28 67 13 6 10 43 36 48 15 50 45 35 11 52
split_gain=394.01 159.801 6.45834 6.19273 6.43337 7.36101 6.65383 9.29865 7.95887 7.45206 6.06642 5.89908 5.55643 5.02137 8.01747 4.99752 4.73974 4.1467 3.51131 3.26235 2.66791 1.77232 0.240111 0.0542336 0.0474627 0.0410128
threshold=0.42776928384857177 5.5654879794900059e-05 32.231725588180701 59.974486969860472 0.5030727383196224 72.720030620996667 -0.054505405079694473 -0.071605973356464056 -0.0050536196270400393 852750.68057939154 3.7890840572111317e-05 -1.1045061236282678 0.0056466081555531658 2.7369789303844109e-06 0.040514036641374214 2928.5000000000005 319.50000000000006 48.458457673128883 1.0051265698587131 2.9746216087851836 -0.10920307892859264 2.5220753681153663 8.2192882465574648 -0.013865823847090968 -0.38110646812326332 -71.111111216112221
decision_type=2 2 2 2 2 2 2 2 2 2 2 2 2 2 2 2 2 2 2 2 2 2 2 2 2 2
left_child=1 2 10 11 6 13 7 8 -5 12 19 18 -8 14 -6 -11 -15 -13 -4 -1 -21 -12 24 -2 25 -3
right_child=23 22 3 4 5 -7 9 -9 -10 15 21 17 -14 16 -16 -17 -18 -19 -20 20 -22 -23 -24 -25 -26 -27
leaf_value=-0.073379924771508537 0.13175295425209324 -0.13000546774831406 -0.16180464385326518 -0.063652520683253444 -0.046856895554583999 0.091712539769619739 -0.080627177954732052 -0.11971913870061222 0.052476886526004969 0.099659521865568687 -0.15543695589932266 -0.057048935748751708 0.016147795563886347 -0.13918534731851859 0.047775463584903116 0.031889914042319001 -0.036765915332622384 0.048227119455890581 -0.049808930088307335 -0.036405709743625655 0.062206343442977791 -0.073604563754705879 -0.1122293404312609 0.1449086306990017 -0.1533099707685085 -0.14119482671389449
leaf_weight=18.682981073856354 13.403308391571043 15.186483368277548 15.812362551689146 29.309462249279022 52.152736097574234 16.989284604787827 19.654847830533981 22.978728026151657 44.388013005256653 54.518891781568527 14.78116738796234 23.368723958730698 182.03871923685074 15.28497803211212 55.076845794916153 81.02160182595253 116.77450010180473 21.461961030960083 17.895699143409729 15.130149781703947 17.901120245456696 17.291862145066261 9.4882505536079389 410.52620027959347 13.237882658839224 351.53610670566559
leaf_count=52 55 67 44 80 143 46 53 64 121 148 42 64 493 42 150 221 319 59 49 42 49 48 38 1685 53 1567
internal_value=0 -0.0486741 -0.00672601 -0.00175311 0.00348534 -0.0182482 0.0163229 -0.023686 0.00628084 0.0277946 -0.0523324 -0.0477802 0.00670654 -0.0260655 0.00174549 0.0591651 -0.0486468 -0.00664159 -0.102437 -0.0156435 0.0170303 -0.11142 -0.140492 0.144501 -0.14119 -0.140741
internal_weight=0 1241.96 852.515 768.727 690.189 256.278 433.91 96.6762 73.6975 337.234 83.7873 78.5387 201.694 239.289 107.23 135.54 132.059 44.8307 33.7081 51.7143 33.0313 32.073 389.449 423.93 379.96 366.723
internal_count=5794 4054 2329 2096 1880 700 1180 265 201 915 233 216 546 654 293 369 361 123 93 143 91 90 1725 1740 1687 1634
is_linear=0
shrinkage=0.173016


Tree=15
num_leaves=22
num_cat=0
split_feature=50 43 22 50 44 31 34 37 37 29 29 67 8 28 0 61 63 60 11 43 48
split_gain=70.419 4.50915 8.88233 5.38485 5.85375 8.82565 5.14276 8.21787 7.47018 6.23462 4.90797 8.2522 10.0328 5.74955 3.65845 2.92736 2.59701 2.58971 1.779 0.64145 0.627256
threshold=12.473702617330568 35.238467111022381 0.01207765450038434 11.026611877695428 -3.4806621543995955 -0.000427234587037156 -0.0090812241919475383 -0.025861859299258706 -0.014379172322273358 0.016316768492979649 0.0098015974912233038 3.0307737567706674e-06 2217.5000000000005 0.010707413330852195 278.99358480038296 670054.93987261946 0.4984995328732007 -14476.999999999998 0.0034848382948470262 53.158425635725813 60.886799190904426
decision_type=2 2 2 2 2 2 2 2 2 2 2 2 2 2 2 2 2 2 2 2 2
left_child=1 2 10 4 5 -3 15 -8 18 -10 11 12 -1 -12 -7 16 -6 -4 -9 -2 -16
right_child=19 3 17 -5 6 14 7 8 9 -11 13 -13 -14 -15 20 -17 -18 -19 -20 -21 -22
leaf_value=0.30778553144860593 -0.11789185361039656 0.15910065532437329 -0.10380906016443285 0.20380359287265101 0.011190581588443277 0.019701466263493467 0.23887691156370211 -0.1291039275282809 0.063803483203815112 -0.10407048247047604 0.33475081960916725 -0.097758319254914378 -0.0087585322827672431 0.125556523080052 -0.1264391336694041 0.069213510285303689 -0.11592448941369946 0.049380634451190814 0.00080447636163462051 -0.00046639773458388451 -0.052623655407423552
leaf_weight=6.2959648668766039 108.59616244770586 6.0090225860476485 6.4748551845550537 5.5948295667767516 8.3756218701601082 9.3324371539056319 6.8916640281677237 8.0547673180699331 156.44347101822495 6.8920284807682028 6.5487993806600597 5.5039710067212573 5.6935194954276085 9.943335719406603 16.2650600373745 6.8852330073714247 11.25085800886154 6.6930804997682554 5.1670673713088027 1.4180751182138909 4.4618881754577151
leaf_count=51 3471 51 48 34 59 81 45 67 1199 58 40 43 46 70 149 52 83 51 36 23 37
internal_value=0 0.0455164 0.0946128 0.036306 0.0324756 -0.0318909 0.0435373 0.0538313 0.0465741 0.056703 0.141329 0.0772889 0.157717 0.209019 -0.0701824 -0.0276604 -0.0617098 -0.0259655 -0.0783958 -0.116382 -0.110649
internal_weight=0 298.777 47.1535 251.624 246.029 36.0684 209.961 183.449 176.557 163.335 33.9856 17.4935 11.9895 16.4921 30.0594 26.5117 19.6265 13.1679 13.2218 110.014 20.7269
internal_count=5794 2300 349 1951 1917 318 1599 1405 1360 1257 250 140 97 110 267 194 142 99 103 3494 186
is_linear=0
shrinkage=0.173016


Tree=16
num_leaves=20
num_cat=0
split_feature=19 19 38 63 42 46 71 32 68 38 32 44 41 54 30 44 4 8 14
split_gain=300.33 118.479 6.58819 7.48537 5.80531 6.40746 6.07248 8.22007 5.86951 6.19679 5.35243 5.10551 6.46927 4.16671 5.25783 6.40141 3.53297 0.0995336 0.0712864
threshold=-47.231816357267405 41.33966058452345 410.5463666906067 1.410614748557617 38.709824085690904 0.58426006298151045 0.016920299899823025 -0.83125175914718408 0.00069358054886128862 373.27809849886211 -0.20332112067459093 4.3896370740848321 0.29011052780755558 44.05287523156084 0.005073052695991352 -7.8685112927593215 7477.5000000000009 246.50000000000003 -0.083689431543999812
decision_type=2 2 2 2 2 2 2 2 2 2 2 2 2 2 2 2 2 2 2
left_child=18 2 3 4 13 6 7 -6 9 -7 -10 12 -4 14 -2 -16 -8 -3 -1
right_child=1 17 11 -5 5 8 16 -9 10 -11 -12 -13 -14 -15 15 -17 -18 -19 -20
leaf_value=0.12115935997119291 0.080712712505460263 -0.1131007197705029 -0.086556986232136368 0.10803596558887836 -0.094478008553455686 0.059908838259155453 -0.056109888840557967 -0.0083210003537717066 0.016190493034396177 -0.0066423594427508096 -0.11074140745593311 -0.15389276789128548 0.043697768939601374 0.09002730397418994 -0.069205364741159736 0.014773938178110827 -0.14915987077844811 -0.13428834659284677 0.13839025760907125
leaf_weight=9.3509358614683133 26.058348268270493 8.0329351872205716 29.685958743095398 17.050358578562737 38.620050102472305 69.799312561750412 49.329033046960831 233.25646448135376 18.124568730592728 104.62565809488297 21.981402516365051 14.404355704784392 18.510811299085617 20.858160555362701 34.413333684206009 128.73371890187263 16.252227008342743 308.52719008922577 347.74545568227768
leaf_count=43 71 43 83 49 109 190 138 654 50 289 63 43 51 57 93 354 46 1697 1671
internal_value=0 -0.0435341 -0.00959698 -0.00525651 -0.00779525 -0.0171112 -0.0319733 -0.0205685 0.00626603 0.0199915 -0.0533932 -0.0635867 -0.0365249 0.0166816 0.00858319 -0.00294527 -0.0792223 -0.133761 0.137948
internal_weight=0 1158.26 841.704 779.103 762.052 551.989 337.458 271.877 214.531 174.425 40.106 62.6011 48.1968 210.064 189.205 163.147 65.5813 316.56 357.096
internal_count=5794 4080 2340 2163 2114 1539 947 763 592 479 113 177 134 575 518 447 184 1740 1714
is_linear=0
shrinkage=0.173016


Tree=17
num_leaves=28
num_cat=0
split_feature=19 63 53 42 31 19 54 29 40 44 63 0 68 5 35 30 45 24 18 31 68 0 43 29 19 8 52
split_gain=289.501 128.154 6.47121 7.29703 5.79379 6.71596 8.4687 6.50056 7.9792 7.83919 6.20346 5.20945 5.76736 5.98487 5.2861 5.3327 5.18881 5.113 4.77137 4.50572 7.0239 6.25643 4.27277 6.57479 2.31004 0.0845933 0.0323239
threshold=41.33966058452345 1.4836622932646455 16.337065844492894 75.566949481646944 0.00038614957173111142 1.0066641855411833 63.83018232662841 0.01498773580933504 -3.5331909161162574e-06 -0.97204946438165851 0.69770849966496795 458.08632976679058 -0.00044707302535344605 2912.5000000000005 -0.0033119573868071908 0.0083156596086478834 -1.3870064634481891 -1.4924435524820672 0.49668076983394355 -0.00057079568455305045 -8.1540797923586141e-05 168.01382288624214 44.058647771505598 0.0081447873836293684 -12.363592196926275 246.50000000000003 -71.111111216112221
decision_type=2 2 2 2 2 2 2 2 2 2 2 2 2 2 2 2 2 2 2 2 2 2 2 2 2 2 2
left_child=1 2 11 4 5 19 18 8 9 -6 -8 12 -1 14 -14 -16 -9 -5 -7 20 -4 -21 -15 -24 26 -2 -3
right_child=25 24 3 17 7 6 10 16 -10 -11 -12 -13 13 22 15 -17 -18 -19 -20 21 -22 -23 23 -25 -26 -27 -28
leaf_value=0.11178120522670941 0.11883850443964142 -0.12501084074147265 -0.054993842418595527 0.11873383336380343 -0.15703911471592036 0.040878620574713136 0.0056660312793665856 0.15672458273808412 0.057623507472849368 0.01608995193703441 -0.13352776102016931 0.11621029852196803 0.040520244113961892 -0.036310371150492855 -0.14525842555519775 -0.023343653593249143 0.014724202697420988 -0.0055438291184479668 -0.03608528677509782 -0.080093809141887587 0.10039833204894504 -0.028045111926102061 -0.023208869512047862 0.078683693898230919 -0.043864580542696111 0.13764681102376 -0.13514936343156961
leaf_weight=16.272352308034897 8.975875183939932 15.507804691791533 18.385719418525696 20.215894043445587 15.792653620243074 101.29679647088051 17.733402341604233 15.484799057245256 26.492380708456039 15.486200094223021 20.81390517950058 15.940997153520582 18.315816015005112 23.91658291220665 17.251728504896164 28.446751534938812 15.329548060894011 19.399886190891266 31.616659253835678 109.42837873101234 16.496686428785324 187.89308807253838 27.809727281332016 59.428343057632446 8.6533894538879377 345.68416292965412 307.40141935646534
leaf_count=44 43 80 50 55 44 277 48 42 72 42 57 44 50 66 48 77 42 53 87 305 45 516 78 162 24 1697 1646
internal_value=0 -0.041243 -0.0052626 -0.0139667 -0.0187767 -0.0259537 0.00185334 0.0220204 -0.0122067 -0.0713632 -0.0695185 0.0212542 0.0133315 0.00416938 -0.0379608 -0.0694297 0.0861628 0.0578982 0.0225645 -0.0403061 0.0185014 -0.0472079 0.028439 0.0462002 -0.132308 0.13718 -0.134673
internal_weight=0 1170.81 839.248 631.866 592.25 503.665 171.461 88.5856 57.7712 31.2789 38.5473 207.382 191.441 175.169 64.0143 45.6985 30.8143 39.6158 132.913 332.204 34.8824 297.321 111.155 87.2381 331.563 354.66 322.909
internal_count=5794 4054 2304 1735 1627 1385 469 242 158 86 105 569 525 481 175 125 84 108 364 916 95 821 306 240 1750 1740 1726
is_linear=0
shrinkage=0.173016


Tree=18
num_leaves=13
num_cat=0
split_feature=63 46 28 27 17 44 14 49 60 25 67 35
split_gain=56.8851 6.84934 5.53671 6.96573 4.72623 5.47417 4.79891 6.60644 4.15485 2.84744 1.70058 0.472579
threshold=8.9061989553965066 -4.5614539807966112 0.0039210814231509282 0.0017993635293361914 -7.4946900838083197 -12.497750413577043 -0.09689797124346787 -94.887063732602869 23.500000000000004 -25.499999999999996 2.4761326455597575e-06 0.0017541615220254749
decision_type=2 2 2 2 2 2 2 2 2 2 2 2
left_child=1 11 10 -4 8 -6 9 -8 -5 -7 -3 -1
right_child=-2 2 3 4 5 6 7 -9 -10 -11 -12 -13
leaf_value=-0.12670896456684855 -0.11731249542269984 -0.12947811467780104 0.18785812914378214 0.20994323304561968 0.16199291167255334 0.029016751156493718 0.11022028750426467 0.029289845319428943 0.028596983711335809 -0.11173456150944314 -0.0052019801653977321 -0.052512173684873709
leaf_weight=6.1013407073914987 86.589236760511994 6.2073220834135991 10.653388444334267 9.4475116841495019 10.55011300742626 7.4357811659574535 35.483140029013157 202.25661585852504 6.3197426311671725 10.147288542240856 7.0169617608189583 4.5657662712037563
leaf_count=53 3446 48 74 58 82 55 259 1491 44 81 61 39
internal_value=0 0.0409441 0.0457054 0.0506615 0.0454546 0.039986 0.0349281 0.0413806 0.137439 -0.0522299 -0.0636974 -0.0951812
internal_weight=0 316.185 305.518 292.294 281.64 265.873 255.323 237.74 15.7673 17.5831 13.2243 10.6671
internal_count=5791 2345 2253 2144 2070 1968 1886 1750 102 136 109 92
is_linear=0
shrinkage=0.173016


Tree=19
num_leaves=23
num_cat=0
split_feature=19 19 48 50 5 53 15 43 45 43 68 53 20 5 22 23 8 7 43 37 53 14
split_gain=223.59 94.4005 5.64387 5.30218 4.90055 6.38277 5.70446 6.86047 4.43674 4.36011 6.98824 8.26551 5.03719 6.92529 4.17466 3.89087 3.43299 3.42836 3.1563 2.65608 0.126412 0.085089
threshold=-47.231816357267405 41.33966058452345 99.963822295382371 0.49172229130610418 2977.5000000000005 16.337065844492894 0.032830382423717837 62.601190436530338 -0.42506203417757177 46.096630189570277 -4.9664247889973946e-05 29.292310730051717 -0.016170520996214462 2932.5000000000005 0.0183523205651317 -0.0054189557958858039 2188.5000000000005 2228.5000000000005 47.366668221435688 0.0011584130713814605 0.063123892514798996 -0.081762689520764251
decision_type=2 2 2 2 2 2 2 2 2 2 2 2 2 2 2 2 2 2 2 2 2 2
left_child=21 2 3 -2 9 8 15 -8 18 10 14 -12 16 -14 -5 -7 -11 -10 -6 -4 -3 -1
right_child=1 20 19 4 5 6 7 -9 17 12 11 -13 13 -15 -16 -17 -18 -19 -20 -21 -22 -23
leaf_value=0.11351506862154981 0.072809199137128994 -0.10466993389969621 -0.13524970020299942 -0.013610627858698083 -0.084369572438466878 -0.082501136158599067 0.11576039822281953 -0.034245559224299935 -0.057727404054687272 0.039609944862855448 0.11120021752476758 -0.012851450749580381 -0.046791313330262541 0.018959641918832572 0.057468668946426472 -0.012710803333322692 -0.041941052349202604 -0.17084780034843197 0.028833629822880225 -0.03235853008232966 -0.12987715707267583 0.13291762707713953
leaf_weight=8.4044354856014234 24.436966389417648 6.9265197664499274 14.727504670619966 142.10966172814369 15.007633924484255 31.571284532546997 20.027949750423431 16.728438824415207 14.29274934530258 69.102732419967651 42.383071750402451 25.880028873682022 160.30939212441444 68.38599020242691 29.921538412570953 98.476673811674118 19.874533355236053 18.396909445524216 14.444671288132666 15.367696285247801 249.2086978405714 286.76683695614338
leaf_count=46 67 46 42 393 43 89 56 48 42 194 117 72 451 193 83 273 56 55 43 44 1671 1667
internal_value=0 -0.037245 -0.00924837 -0.00651753 -0.00898366 -0.0302971 -0.0126571 0.0475013 -0.077617 -0.000236604 0.0173469 0.0641755 -0.0135388 -0.0271283 -0.00123896 -0.029669 0.021383 -0.121481 -0.0288576 -0.082792 -0.129207 0.132376
internal_weight=0 1097.58 841.445 811.35 786.913 228.946 166.804 36.7564 62.142 557.967 240.294 68.2631 317.673 228.695 172.031 130.048 88.9773 32.6897 29.4523 30.0952 256.135 295.171
internal_count=5791 4078 2361 2275 2208 649 466 104 183 1559 665 189 894 644 476 362 250 97 86 86 1717 1713
is_linear=0
shrinkage=0.173016


Tree=20
num_leaves=17
num_cat=0
split_feature=19 67 44 40 44 0 15 44 35 44 44 34 37 67 53 14
split_gain=213.606 103.021 7.43558 8.23562 6.59196 8.97337 6.56567 6.52948 5.42747 5.27202 5.27357 3.65225 6.70201 0.361606 0.109495 0.0605249
threshold=41.33966058452345 5.5654879794900059e-05 14.618524504707297 0.00098232643498719096 6.7460498770007016 458.08632976679058 0.10355932641807732 3.7688687594666139 -0.001355385048503302 4.3896370740848321 2.645299270566952 0.00049537363157868867 -0.0032713682653051275 0.00082731309944582179 0.063123892514798996 -0.081762689520764251
decision_type=2 2 2 2 2 2 2 2 2 2 2 2 2 2 2 2
left_child=1 2 4 -4 5 6 9 8 -8 10 -1 12 -6 15 -2 -3
right_child=14 13 3 -5 11 -7 7 -9 -10 -11 -12 -13 -14 -15 -16 -17
leaf_value=-0.012139617049086341 0.11003746612061933 -0.113066962283335 0.15887766889079805 -0.015096698595087185 -0.013580836475919964 0.10236062667419908 0.021424909214684852 -0.026211395371274634 0.14545094348095466 0.07395402633496978 -0.091569915907877025 -0.0040885467925461886 -0.14088931449872044 -0.088051608982354479 0.13239673568359395 -0.13057875760342133
leaf_weight=603.96677602827549 7.8065452128648749 7.8120205551385871 16.941878706216812 15.651073306798933 22.214454174041748 23.025362640619278 20.467036873102188 24.831458121538162 21.841576159000397 20.366182863712311 26.081300109624863 25.439665079116821 27.970251888036728 6.5614286214113227 281.34529320895672 251.55345596373081
leaf_count=1676 46 46 47 43 61 64 57 68 60 56 72 70 77 33 1671 1644
internal_value=0 -0.0350726 -0.00563044 0.0753735 -0.00886777 -0.00389765 -0.00731126 0.044189 0.0855091 -0.0126296 -0.0154318 -0.0575171 -0.0845778 -0.129037 0.131804 -0.130064
internal_weight=0 1114.72 848.797 32.593 816.204 740.58 717.554 67.1401 42.3086 650.414 630.048 75.6244 50.1847 265.927 289.152 259.365
internal_count=5791 4074 2351 90 2261 2053 1989 185 117 1804 1748 208 138 1723 1717 1690
is_linear=0
shrinkage=0.173016


Tree=21
num_leaves=31
num_cat=0
split_feature=63 31 53 44 31 63 63 71 61 24 31 32 45 8 16 23 35 11 53 53 27 30 6 32 18 17 33 63 67 11
split_gain=43.8023 5.06688 6.87796 5.07886 5.56411 7.04529 6.60979 6.9709 6.32374 5.98366 4.86412 6.30759 4.32624 4.08667 4.56671 4.60857 4.20863 4.06673 3.89625 3.55623 3.26575 4.25102 3.14817 2.5818 2.55693 2.44835 2.13413 2.50088 2.98162 0.814994
threshold=8.9061989553965066 -7.8161744703045079e-05 10.89410204526745 13.163266852641017 0.00020572566428439672 0.47990404930960157 0.47990404930960157 0.0066440766822353234 798852.67678688338 -1.1916715992552176 3.6247695489875367e-06 0.12499567994233675 -0.13686156653073525 2191.5000000000005 -0.099295005900047126 -0.032452052612095932 -0.0047717105751904397 -0.0093183496244857982 31.2278385314732 17.341964378592944 0.0060629038309048958 0.010427365709405074 3057.5000000000005 0.40723241726014531 -0.7923921372194177 -1.2929252860568414 -0.00049801028741768667 0.45233193066787375 2.4394399768205069e-06 -0.010312113775894026
decision_type=2 2 2 2 2 2 2 2 2 2 2 2 2 2 2 2 2 2 2 2 2 2 2 2 2 2 2 2 2 2
left_child=1 13 -3 4 6 9 10 12 -9 23 -4 -12 -8 14 17 -16 -15 -1 19 -17 -7 -22 26 -6 -21 -20 29 -28 -29 -18
right_child=-2 2 3 -5 5 20 7 8 -10 -11 11 -13 -14 16 15 18 22 -19 25 24 21 -23 -24 -25 -26 -27 27 28 -30 -31
leaf_value=0.20733776250281488 -0.11690819014604262 0.18980846876605509 -0.085589968453951754 -0.10303779425645197 0.087452933749235323 0.071257424974461275 -0.013505605109351879 0.12581532731817804 0.31470285158567191 0.20252592931590271 0.130269306703335 -0.056344284690085164 0.11361601932556997 0.097607357993460722 -0.10940287105780179 -0.015785610652565174 -0.054244501596891093 0.042220866434147887 0.024015505564078457 0.04980015293166281 -0.10809599602305538 0.0027991956017304727 0.061068298424268613 -0.044816653961895131 0.17520629158685863 -0.12908458713905838 -0.096445060064467278 0.075233351879384458 -0.066493352104137177 -0.12877361865453479
leaf_weight=7.5840686485171345 69.862462796270847 10.196350675076244 10.242398634552954 6.7532272450625888 10.024909615516668 9.2657736949622613 16.150835577398535 28.407679062336683 6.5311171859502783 8.9533177092671377 13.935641493648292 8.8431788310408574 15.863337434828283 7.4244520328938952 8.1257250234484655 10.260097578167917 6.9404641278088119 10.867479413747786 6.5998800247907639 10.209625750780104 17.297472849488258 25.680065605789423 7.7471566386520854 7.8576729856431475 9.3453681021928805 5.9004206508398038 9.9749540500342864 9.8635924533009547 8.0447483062744123 12.322345927357672
leaf_count=51 3446 74 63 55 65 69 123 188 45 50 83 57 113 53 59 78 56 78 46 71 149 207 46 54 60 46 74 66 66 100
internal_value=0 0.0339845 0.0515986 0.0439882 0.049549 0.0152423 0.076671 0.107905 0.16133 0.0872584 0.0132956 0.0578211 0.0495097 0.00766447 0.0367015 0.0097328 -0.0244312 0.110294 0.0326695 0.0666542 -0.0217657 -0.0418596 -0.0409807 0.0293278 0.109896 -0.0483277 -0.0577812 -0.0271257 0.01154 -0.102044
internal_weight=0 327.213 196.003 185.807 179.053 79.0792 99.9742 66.953 34.9388 26.8359 33.0212 22.7788 32.0142 131.21 68.8927 50.4411 62.3177 18.4515 42.3154 29.8151 52.2433 42.9775 54.8933 17.8826 19.555 12.5003 47.1461 27.8833 17.9083 19.2628
internal_count=5791 2345 1395 1321 1266 594 672 469 233 169 203 140 236 950 489 360 461 129 301 209 425 356 408 119 131 92 362 206 132 156
is_linear=0
shrinkage=0.173016


Tree=22
num_leaves=24
num_cat=0
split_feature=11 50 48 41 9 38 12 60 23 50 21 39 21 16 12 1 37 24 53 38 14 44 12
split_gain=168.043 80.1593 4.6729 5.02066 7.82925 10.6218 6.11561 5.58929 5.45223 4.79192 4.101 7.59192 4.22405 4.10071 3.61611 2.41807 2.23008 0.5915 0.603263 0.435549 0.098928 0.0338941 0.020481
threshold=-0.05256354840035609 12.473702617330568 99.963822295382371 0.41168382374436302 487265.00000000006 353.00803927064743 -0.0050814542591040559 -266.49999999999994 0.0078637215883561335 0.49172229130610418 0.046722849704284204 -0.00048068991540451555 -0.026338895035369788 0.1601100908649912 0.020303246504872145 211.72841891818786 0.0011584130713814605 -0.42373457485821936 1.2020094880159622 190.96084675197321 -0.077772550448422725 -1.6469111873089799 -0.35950486793794051
decision_type=2 2 2 2 2 2 2 2 2 2 2 2 2 2 2 2 2 2 2 2 2 2 2
left_child=15 2 3 9 5 -5 7 -7 -8 -2 12 -12 14 -14 -11 20 -4 18 19 -3 -1 -21 -22
right_child=1 17 16 4 -6 6 8 -9 -10 10 11 -13 13 -15 -16 -17 -18 -19 -20 21 22 -23 -24
leaf_value=0.10763876621850436 0.064194549331697937 -0.077331318200868818 -0.12404635735415935 0.13420415277123066 0.11431456954388421 -0.014808314752251727 -0.01675039818556847 0.106984975717192 -0.14391598985872775 0 0.13309343407286736 -0.032893936558147367 -0.029549259128697849 0.014234404445224119 0.087437586643235476 0.016473135182118265 -0.028621771444019339 -0.087992927608571497 -0.1696495557070665 -0.11005346615584408 0.12882349801743537 -0.12674558635276378 0.14249761586481946
leaf_weight=7.684350296854972 24.429119139909744 5.7892055436968795 14.218908727169039 16.50428968667984 24.407759070396423 35.450126051902771 27.093237400054932 16.512373387813568 16.075745016336441 65.967872351408005 15.588593542575834 17.464962035417557 434.67148587107658 75.066762000322342 18.005869179964066 5.9206374138593665 15.175453305244444 12.679932579398153 9.6787309646606428 5.5443903878331176 230.20646005868912 186.68589635938406 6.157361611723899
leaf_count=50 67 45 42 46 68 97 77 46 45 184 43 50 1231 211 50 19 44 79 48 44 1637 1536 32
internal_value=0 -0.0321471 -0.00715666 -0.00462596 0.0255997 0.00617894 -0.0160562 0.0239183 -0.0641696 -0.0109419 -0.0138735 0.0454159 -0.0171767 -0.0231003 0.0187719 0.125879 -0.0748598 -0.124739 -0.12697 -0.124861 0.12853 -0.12628 0.129196
internal_weight=0 1037.01 816.633 787.238 136.044 111.636 95.1315 51.9625 43.169 651.195 626.766 33.0536 593.712 509.738 83.9737 249.969 29.3944 220.378 207.698 198.019 244.048 192.23 236.364
internal_count=5791 4053 2301 2215 379 311 265 143 122 1836 1769 93 1676 1442 234 1738 86 1752 1673 1625 1719 1580 1669
is_linear=0
shrinkage=0.173016


Tree=23
num_leaves=16
num_cat=0
split_feature=19 67 44 10 44 0 30 29 51 21 23 46 0 53 14
split_gain=160.04 83.7273 5.71842 7.19984 5.40575 6.93772 4.93189 4.66147 4.87612 2.97693 3.72431 3.20909 0.441722 0.127 0.0778334
threshold=41.33966058452345 5.5654879794900059e-05 14.618524504707297 210.50000000000003 6.7460498770007016 458.08632976679058 0.0179598032894886 0.016973081538727633 0.5081657579682316 -0.011266480984701064 -0.0066133926212106333 0.76700891568482865 206.52561902627448 0.063123892514798996 -0.081762689520764251
decision_type=2 2 2 2 2 2 2 2 2 2 2 2 2 2 2
left_child=1 2 4 -4 5 6 7 8 -1 -6 -11 -12 14 -2 -3
right_child=13 12 3 -5 9 -7 -8 -9 -10 10 11 -13 -14 -15 -16
leaf_value=-0.094372921908289442 0.10266021213478649 -0.10625828199491089 -0.019300191378204285 0.14456193918297944 -0.11271436328489172 0.091145192859490812 -0.082302667781220404 0.084397702518678216 -0.0033096707345591199 0.034635191249311179 -0.10762560093155792 -0.0089059662155862203 -0.076148608947975427 0.12847926222743744 -0.12714168600762391
leaf_weight=18.064796060323715 6.6186804026365271 6.6606499403715125 15.282388538122175 16.861183375120163 18.228953570127487 22.5982785820961 24.571709364652634 17.592148810625076 654.5915063470602 17.269388407468796 21.122392266988754 18.490775793790817 5.5240842252969733 230.21044620871544 205.31199160218239
leaf_count=53 46 46 42 48 51 64 68 48 1820 48 58 51 29 1671 1648
internal_value=0 -0.0295093 -0.00485829 0.0666862 -0.007691 -0.0031857 -0.00617145 -0.0034579 -0.00575919 -0.0519015 -0.032366 -0.0615891 -0.125231 0.12777 -0.1265
internal_weight=0 1062.17 844.674 32.1436 812.53 737.418 714.82 690.248 672.656 75.1115 56.8826 39.6132 217.497 236.829 211.973
internal_count=5791 4074 2351 90 2261 2053 1989 1921 1873 208 157 109 1723 1717 1694
is_linear=0
shrinkage=0.173016


Tree=24
num_leaves=29
num_cat=0
split_feature=53 39 31 37 11 21 31 31 16 16 13 65 22 9 16 16 10 15 11 51 60 14 3 12 40 53 7 11
split_gain=29.383 5.85343 4.05045 4.99055 8.94318 4.40088 5.11247 6.22866 5.68597 4.88408 4.85056 4.40311 3.76376 3.76003 3.29966 4.46322 7.15326 5.3915 3.86795 3.23174 2.93248 6.03185 3.09433 1.06162 0.446724 0.16412 0.155059 0.129387
threshold=1.2020094880159622 -0.10760933063651724 -7.8161744703045079e-05 0.017203537986974788 -0.001712279896493307 0.030676597438894285 0.00020572566428439672 0.00034225516221107326 0.27288140253223075 -0.063695615329350239 0.02652187763951808 5.5517754760347223e-05 0.048873835834579944 856410.50000000012 0.24781963788583464 0.016902162943440938 632.50000000000011 -0.012146341060370545 -0.0086928990002198541 2.3022015567832814 169.00000000000003 -0.022987106128500853 0.0037524876679093399 0.055319143288822044 -1.4136928315200412e-06 29.653364469226123 2197.5000000000005 -0.003298307832508673
decision_type=2 2 2 2 2 2 2 2 2 2 2 2 2 2 2 2 2 2 2 2 2 2 2 2 2 2 2 2
left_child=-1 20 12 5 -5 6 8 9 13 -8 -9 -7 14 -4 15 17 -17 18 -3 -18 21 22 -2 25 -19 -22 -16 -24
right_child=1 2 3 4 -6 11 7 10 -10 -11 -12 -13 -14 -15 26 16 19 24 -20 -21 23 -23 27 -25 -26 -27 -28 -29
leaf_value=-0.11657062982617612 0.057930650145912289 0.065895850555245855 0.069032743803407612 0.23481569373343228 0.005269827509977198 -0.13315410325723179 0.040158462015174069 0.076947155317648702 0.19844239420468479 -0.13023198408419639 -0.061905696212284464 0.05703670805338662 0.13307211844112843 -0.053544767983057864 -0.12634133148972654 0.16826439719293285 0.068907523225625683 -0.1305129488428792 -0.029212481528889115 -0.075087305610973445 -0.12676850506081616 0.13062037783234451 -0.12791914970021592 -0.020377151174256026 -0.069167192015938531 -0.084684748241358035 -0.078329474590449186 -0.0876039473009355
leaf_weight=55.487931471318007 4.5953212548047331 20.233025828376412 65.117041666060686 10.551433758810164 9.7879677824676019 8.8927068635821325 7.8445905484259155 32.477773087099195 9.2989906445145589 13.977827748283742 9.7790740486234409 6.1396663375198832 6.2175680957734576 8.4425069279968721 5.086085628718136 11.302264593541624 8.9384019076824206 10.162849713116882 34.744280435144901 9.7066324055194837 10.156830418854954 7.2506689801812163 6.262356324121356 4.7977496758103362 5.6722241714596739 4.2437044344842425 3.7487357035279274 4.4818364828824979
leaf_count=3412 41 129 399 59 65 62 57 229 59 114 82 48 39 55 48 79 51 76 239 87 91 58 52 43 48 41 42 43
internal_value=0 0.0191939 0.0276956 0.0437676 0.124509 0.0336088 0.0427334 0.00602341 0.0711083 -0.0689853 0.0447869 -0.05548 0.00238778 0.0549457 -0.00505024 0.00384564 0.0598159 -0.0198312 0.00579578 -0.00603416 -0.0414282 0.000819005 -0.0606174 -0.0910995 -0.108704 -0.114559 -0.106286 -0.111376
internal_weight=0 339.91 298.122 182.31 20.3394 161.97 146.938 64.0793 82.8585 21.8224 42.2568 15.0324 115.812 73.5595 109.595 100.76 29.9473 70.8124 54.9773 18.645 41.7885 22.5902 15.3395 19.1983 15.8351 14.4005 8.83482 10.7442
internal_count=5848 2436 2067 1229 124 1105 995 482 513 171 311 110 838 454 799 709 217 492 368 138 369 194 136 175 124 132 90 95
is_linear=0
shrinkage=0.173016


Tree=25
num_leaves=19
num_cat=0
split_feature=11 11 31 9 34 9 39 13 41 11 30 22 35 22 67 54 8 14
split_gain=122.528 68.4789 6.57915 4.47476 6.17679 5.60179 9.34359 5.06988 8.79719 7.78942 5.64153 6.31341 4.8573 3.851 3.24866 3.02629 0.201608 0.138667
threshold=-0.3328502265587226 0.42776928384857177 -0.00084596352784818338 190410.50000000003 0.0050676166747152902 242265.00000000003 -0.042086688415220765 -0.06087802871262276 0.46160418360859207 -0.027198866135131779 0.017243003063668081 -0.012468379848493636 -0.0025611481369645977 0.012540972180023814 1.5449427784241513e-06 57.582405368109974 246.50000000000003 -0.083689431543999812
decision_type=2 2 2 2 2 2 2 2 2 2 2 2 2 2 2 2 2 2
left_child=17 2 -2 4 12 6 -5 8 9 -7 11 -9 15 14 -14 -4 -3 -1
right_child=1 16 3 5 -6 7 -8 10 -10 -11 -12 -13 13 -15 -16 -17 -18 -19
leaf_value=0.097120637409094462 -0.10987850523840922 -0.085428941990439683 0.015385243610515392 0.0047175966392119838 0.10812239022990899 -0.094234076372200826 -0.1440580534922645 0.019066571672699352 0.13773004747300671 0.039211897424539441 0.081619835897977444 -0.022699878870263427 -0.056106775053384683 -0.096671317876019597 0.039866121164444927 0.12199626930876173 -0.12408541081660765 0.1258671280182167
leaf_weight=5.7507723420858374 16.823314636945724 4.4461020529270163 17.273353934288025 28.619386538863182 24.379256010055542 17.053229451179504 22.593145608901978 149.89323545992374 19.914762884378433 56.102435499429703 20.353030204772949 390.54981565475464 16.341991186141968 14.386910438537596 29.721823036670685 14.804112806916235 166.15089280158281 194.23155396431684
leaf_count=44 50 42 49 80 69 47 65 424 55 155 56 1112 48 42 86 43 1689 1692
internal_value=0 -0.0231751 -0.00285047 -0.000656282 0.0306895 -0.00585512 -0.0609459 -0.00153753 0.0358533 0.00807785 -0.00774499 -0.0111147 0.01026 -0.0186117 0.00579729 0.0646554 -0.123093 0.125054
internal_weight=0 1009.41 838.81 821.986 116.907 705.079 51.2125 653.867 93.0704 73.1557 560.796 540.443 92.5282 60.4507 46.0638 32.0775 170.597 199.982
internal_count=5848 4112 2381 2331 337 1994 145 1849 257 202 1592 1536 268 176 134 92 1731 1736
is_linear=0
shrinkage=0.173016


Tree=26
num_leaves=23
num_cat=0
split_feature=19 67 31 9 9 39 60 31 67 53 16 34 60 9 42 27 23 18 15 8 19 14
split_gain=122.862 69.7392 6.60614 4.81887 8.01085 10.0889 5.56287 6.09985 5.74038 5.53979 6.15997 5.52998 4.72992 4.23226 3.92925 3.23996 3.33449 2.15999 0.216766 0.174139 0.12372 0.169215
threshold=41.33966058452345 5.5654879794900059e-05 -0.00084596352784818338 190410.50000000003 242265.00000000003 -0.042086688415220765 1803.0000000000002 -0.00022733848615231732 1.2177984598734084e-05 36.223226124377739 -0.021655448907264615 0.0063429030456099694 14751.500000000002 149410.50000000003 35.142925147282121 0.0077722624129208029 -0.00041348086088821562 -1.0552614680968075 0.14702700615919354 246.50000000000003 -56.456085213426704 -0.083689431543999812
decision_type=2 2 2 2 2 2 2 2 2 2 2 2 2 2 2 2 2 2 2 2 2 2
left_child=1 2 -1 11 5 -5 7 8 -6 10 -8 13 -11 15 -9 16 -4 -17 20 -2 21 -3
right_child=19 18 3 4 6 -7 9 14 -10 12 -12 -13 -14 -15 -16 17 -18 -19 -20 -21 -22 -23
leaf_value=0.098989847208506399 0.091572406506450738 -0.090480729447129024 -0.092779617730041675 -0.00017375249604766673 0.032051080926162746 0.15842198667672552 0.039745881678992588 -0.063328039713509532 -0.074931601174154538 0.15327177626992319 -0.0224805390509666 -0.1245402533239497 0.016963624294753486 -0.079221940866748233 -0.019037388151073347 -0.016147648752875114 0.014904306163731437 0.068536393006815147 -0.083872615859444374 0.12555578238809664 -0.15263013859844582 -0.12432112377578453
leaf_weight=18.043667554855347 5.037684202194213 4.9568884894251815 17.122029736638069 28.832373976707458 99.805868774652481 20.544750541448593 85.221759587526321 80.040249168872833 17.64615772664547 15.04796375334263 107.86641895771027 18.970131993293762 15.442860811948774 28.410658836364746 239.13624006509781 14.979618281126021 17.263224869966507 22.568308472633362 4.360487349331378 189.50110374391079 4.9968858510255805 165.1079136505723
leaf_count=50 42 43 49 80 276 57 238 231 49 42 302 53 43 81 666 42 49 63 30 1689 32 1641
internal_value=0 -0.0252648 -0.00450505 -0.00676128 -0.00135072 0.0658514 -0.00637965 -0.0177444 0.0159621 0.0158123 0.00498321 -0.0389287 0.084317 -0.0227134 -0.0301495 -0.000369852 -0.038732 0.0347522 -0.123243 0.124689 -0.124209 -0.12335
internal_weight=0 1026.36 846.942 828.899 709.585 49.3771 660.208 436.629 117.452 223.579 193.088 119.314 30.4908 100.344 319.176 71.9332 34.3853 37.5479 179.422 194.539 175.062 170.065
internal_count=5848 4117 2371 2321 1984 137 1847 1222 325 625 540 337 85 284 897 203 98 105 1746 1731 1716 1684
is_linear=0
shrinkage=0.173016


Tree=27
num_leaves=22
num_cat=0
split_feature=63 39 11 46 40 42 65 40 14 7 48 39 12 68 11 54 3 45 65 0 63
split_gain=23.88 4.08448 3.2518 3.84397 3.65723 3.66421 5.53467 8.25497 4.65064 4.41065 5.7559 3.17273 2.87203 4.06258 2.61831 2.06796 2.81264 1.60108 0.605961 0.155525 0.00114861
threshold=1.2369722414816977 -0.10760933063651724 -0.035874286400218107 -4.5614539807966112 -0.00023486492040619697 46.411915848907405 4.4694451389732581e-05 -0.00018637495232282084 -0.11430942718643154 2239.5000000000005 37.690775220449957 0.10801290822601663 0.026757060464534414 0.00014519120186473142 0.030077209327173952 43.683822384703269 0.0062606489476199232 -13.028269054116469 1.6982260516548063e-05 325.59166832766471 8.9061989553965066
decision_type=2 2 2 2 2 2 2 2 2 2 2 2 2 2 2 2 2 2 2 2 2
left_child=1 12 -3 -4 -5 6 8 -8 -6 14 -11 17 15 -14 -7 16 -1 -2 -19 -17 -20
right_child=11 2 3 4 5 9 7 -9 -10 10 -12 -13 13 -15 -16 19 -18 18 20 -21 -22
leaf_value=0.067999579242173855 0.043854704888812691 0.13745273969431382 -0.10325638511489872 0.13988166126985363 0.079369050069608219 0.01422112846061771 -0.033522050223415673 0.083850656949222904 -0.073937972476631447 0.21702614303348272 0.056703718370072959 0.10645771376644773 0.14075918478796776 -0.065634770266776207 0.12707001688542324 -0.12667898994622126 -0.098440790782972798 -0.049130371862633936 -0.12530277769486733 -0.085389981208411153 -0.11631389464971402
leaf_weight=6.0684582106769103 2.0194742791354647 7.6227683573961249 7.0044494420289984 8.212321422994135 7.0459932014346114 100.62584985420108 33.646334946155548 38.361213684082031 36.516604464501143 8.1381061822175962 37.783443551510572 2.1435189470648757 5.6722439378499967 5.6989249177277088 6.5337361469864836 9.1341041773557645 6.0392072275280952 4.2668737685307851 6.6060346812009803 4.3697921484708777 45.198161934502423
leaf_count=48 34 52 62 61 46 667 215 206 285 45 216 15 42 56 46 83 55 51 73 44 3446
internal_value=0 0.0192265 0.0260997 0.0230966 0.0263035 0.0228177 -0.000434636 0.0290083 -0.0491015 0.0403723 0.0852243 -0.0992595 -0.0349175 0.0373638 0.0211328 -0.0670306 -0.0150159 -0.106899 -0.112352 -0.113526 -0.117526
internal_weight=0 328.474 291.491 283.868 276.864 268.651 115.57 72.0075 43.5626 153.081 45.9215 60.2341 36.9827 11.3712 107.16 25.6116 12.1077 58.0905 56.0711 13.5039 51.8042
internal_count=5848 2229 1901 1849 1787 1726 752 421 331 974 261 3619 328 98 713 230 103 3604 3570 127 3519
is_linear=0
shrinkage=0.173016


Tree=28
num_leaves=28
num_cat=0
split_feature=12 11 29 30 46 40 16 8 8 13 45 52 17 7 8 63 21 63 24 31 35 21 30 67 53 8 52
split_gain=93.6437 55.3307 4.53002 7.67572 5.93317 5.49387 6.12406 6.14682 5.11564 6.78042 4.76056 4.5931 11.8227 4.18547 3.95934 3.22846 4.56582 4.66354 4.3651 4.2188 4.93958 2.89383 2.77528 2.5231 2.41755 0.233578 0.096615
threshold=-0.32453724840795239 0.42776928384857177 0.0080754036081543707 0.0059836817161419446 -0.10663070389731376 -0.00037912885984758832 0.20173631912483539 2236.5000000000005 2280.5000000000005 0.027061779623842822 -0.69028086506476372 -100.62596653436971 -0.60572558524262787 2188.5000000000005 2183.5000000000005 0.44003081603205435 0.026768535589485335 1.3127714794365264 -1.0398333240504474 0.00035651601043708352 0.0030962833193746374 -0.0039620274169075423 0.0069954328231533287 2.3612785348702378e-06 27.35126195995878 246.50000000000003 -71.111111216112221
decision_type=2 2 2 2 2 2 2 2 2 2 2 2 2 2 2 2 2 2 2 2 2 2 2 2 2 2 2
left_child=26 2 3 5 24 -2 7 13 11 10 -10 12 14 -7 -4 19 17 -17 -18 20 -13 -14 -6 -24 -5 -3 -1
right_child=1 25 8 4 22 6 -8 -9 9 -11 -12 15 21 -15 -16 16 18 -19 -20 -21 -22 -23 23 -25 -26 -27 -28
leaf_value=0.10234353730686074 0.089333502928115108 -0.077557415974400676 0.05467212434260009 -0.037705518687784399 0.12819535414391042 -0.032082097427279709 0.080359608371845304 0.026565257861708217 -0.03381192809970858 0.042365383377082816 -0.14380369257540432 0.062432716490687358 0.026931955396042078 -0.11980152551759886 0.17934473657657035 -0.030292968998013526 0.094311036409408855 0.055735963007309042 -0.030585415135780721 -0.050129975487059102 -0.02451586823963281 -0.072917833483406719 0.0066345490977995662 0.099262353741317338 0.044221569467770019 -0.12216226942134967 0.12360414771583228
leaf_weight=7.7819575890898696 14.446399599313734 3.8266917616128913 15.423906356096269 21.641529873013496 27.09592067450285 39.071863621473312 14.579971402883528 29.044337153434753 23.181130662560463 15.392373189330099 23.989855721592903 56.940787762403488 15.150406092405317 27.945472434163094 15.140889197587965 310.05619740486145 19.703469425439835 20.05912421643734 14.535141557455061 23.423996657133102 29.760407418012619 20.301852643489838 17.063965857028961 18.189637005329132 21.436923742294312 133.87539217621088 154.56343019008636
leaf_count=76 40 42 43 62 76 112 42 83 67 44 73 162 42 82 42 886 56 58 42 68 84 58 48 51 60 1689 1660
internal_value=0 -0.0193483 -0.00256248 0.0180654 0.05245 -0.0109162 -0.0240262 -0.0398902 -0.0104485 -0.0572766 -0.0898047 -0.00502493 0.0377239 -0.0686964 0.116538 -0.0109753 -0.0188218 -0.0250605 0.0412931 0.0149796 0.0325841 -0.0302463 0.0865563 0.0544745 0.0030557 -0.12094 0.122603
internal_weight=0 971.278 833.576 230.516 105.428 125.088 110.642 96.0617 603.06 62.5634 47.171 540.496 66.0171 67.0173 30.5648 474.479 364.354 330.115 34.2386 110.125 86.7012 35.4523 62.3495 35.2536 43.0785 137.702 162.345
internal_count=5848 4112 2381 656 297 359 319 277 1725 184 140 1541 185 194 85 1356 1042 944 98 314 246 100 175 99 122 1731 1736
is_linear=0
shrinkage=0.173016


Tree=29
num_leaves=21
num_cat=0
split_feature=11 69 38 31 12 43 63 68 53 15 53 32 13 48 13 69 14 8 52 19
split_gain=93.1529 56.4974 4.27992 4.00062 4.15894 7.09434 6.0767 6.03643 5.50057 5.28137 4.72277 5.68602 3.71207 3.63688 3.61596 1.34712 0.23899 0.202164 0.143049 0.117105
threshold=0.42776928384857177 113.10187858714889 418.54324905956577 -0.00084596352784818338 -0.03118512683648372 31.632513137627303 1.0322907183473926 -0.00022286081581831795 14.420778295616058 -0.049877794216159281 34.624340685756913 3.6241623099178102 -0.065017584060477238 17.717924690964235 0.027061779623842822 2.4981086929991938 0.099399298914904746 246.50000000000003 -71.111111216112221 -61.294817190148265
decision_type=2 2 2 2 2 2 2 2 2 2 2 2 2 2 2 2 2 2 2 2
left_child=1 2 3 -1 5 15 8 9 -7 12 11 -9 -6 -11 -12 -5 18 -2 -3 -20
right_child=17 16 -4 4 7 6 -8 10 -10 13 14 -13 -14 -15 -16 -17 -18 -19 19 -21
leaf_value=0.076954821303169482 0.084067394964312411 -0.095347329755994484 0.082292189372665747 -0.069012617161557391 -0.075840532329127547 0.07112393738137808 -0.10701770922444777 -0.024722754791135025 -0.018886591773116791 0.1273984834949794 -0.0057447714480011753 0.032298230972808317 0.02932099892889416 0.036430621898364803 0.057997786096531952 -0.14230165244152335 -0.075025547823184255 0.12330289917912511 -0.12237236631992222 -0.15455178657582472
leaf_weight=17.17295703291893 4.328703172504901 6.3154887333512297 16.892529636621475 14.729145646095278 14.855137944221495 24.892354816198349 18.8832653388381 356.49436871707439 110.21335092186928 22.872881382703781 56.2869553565979 61.33169212937355 30.9168501496315 31.033511146903038 50.529620349407196 15.546675026416777 3.4943639114499083 153.27867043763399 130.62954729795456 3.9329478815197936
leaf_count=49 42 72 47 45 43 69 67 1003 309 63 158 173 86 86 140 46 25 1689 1606 30
internal_value=0 -0.0209895 -0.0038538 -0.00561895 -0.00737545 -0.0302137 -0.0151499 -0.000633284 -0.00228986 0.0383911 -0.00804987 -0.0163504 -0.00482175 0.0750766 0.0244111 -0.106744 -0.120984 0.122241 -0.122108 -0.123344
internal_weight=0 987.024 842.651 825.759 808.586 184.265 153.989 624.321 135.106 99.6784 524.643 417.826 45.772 53.9064 106.817 30.2758 144.372 157.607 140.878 134.562
internal_count=5848 4117 2384 2337 2288 536 445 1752 378 278 1474 1176 129 149 298 91 1733 1731 1708 1636
is_linear=0
shrinkage=0.173016


Tree=30
num_leaves=18
num_cat=0
split_feature=63 27 34 31 40 63 13 5 8 16 32 15 33 13 32 32 19
split_gain=18.6427 5.91626 5.22462 4.56323 3.58604 5.09823 4.7521 5.25036 4.64726 5.49586 4.58487 4.25359 5.2701 4.44965 3.83989 1.89933 0.133069
threshold=8.9061989553965066 0.0019552289443156997 0.0028064577240084132 -0.00059842860790788887 -0.00019765625189516187 0.4726980534780722 0.11250576485257603 3068.5000000000005 2282.5000000000005 -0.27577577320970759 0.089438075124614005 0.0070410070035022984 0.0028173683239833503 -0.014754306099791835 0.3656468763419029 -0.47165435128435129 1.0000000180025095e-35
decision_type=2 2 2 2 2 2 2 2 2 2 2 2 2 2 2 2 2
left_child=1 2 -1 15 5 16 7 11 9 10 -7 13 -13 -6 -11 -3 -5
right_child=-2 3 -4 4 6 8 -8 -9 -10 14 -12 12 -14 -15 -16 -17 -18
leaf_value=0.033762047885696179 -0.1160929313389816 -0.011131248468175526 0.21913301312688038 -0.13184688785929793 0.062757141671988981 0.19658950949946763 0.13309544178694516 0.12019287401924197 0.1559706699378294 -0.1010127774328166 -0.017835866674479565 0.014932440173790588 -0.071865196370466011 -0.002060597113959103 0.015041380106121958 -0.12901548148746519 -0.094633779719522429
leaf_weight=11.296872179955246 36.069413456134498 7.1468269079923656 7.6178071722388259 8.0928724855184537 66.63092328608036 5.7714566662907583 11.292219106107948 14.170756533741949 5.2753305025398722 19.362189158797264 6.1409434638917446 56.403500618413091 33.269167527556419 60.435576003044844 15.226109739392994 9.5868956148624402 5.2266058288514605
leaf_count=82 3422 55 44 58 398 46 78 73 32 179 48 376 239 377 125 79 44
internal_value=0 0.0146304 0.108626 0.00913457 0.0139292 -0.0221135 0.0236192 0.0182503 0.0024536 -0.0150255 0.0862046 0.0115705 -0.0172761 0.0319306 -0.0499378 -0.078782 -0.117474
internal_weight=0 342.946 18.9147 324.031 307.298 65.0955 242.202 230.91 51.776 46.5007 11.9124 216.739 89.6727 127.066 34.5883 16.7337 13.3195
internal_count=5755 2333 126 2207 2073 532 1541 1463 430 398 94 1390 615 775 304 134 102
is_linear=0
shrinkage=0.173016


Tree=31
num_leaves=27
num_cat=0
split_feature=12 12 6 32 32 9 65 3 33 3 47 53 1 35 24 35 13 54 67 17 66 53 53 42 33 45
split_gain=70.0406 43.8611 6.18126 5.9792 5.08971 4.82769 4.33639 3.98142 4.34946 5.90805 4.81662 3.48265 3.90553 3.08163 7.06795 4.81892 2.65719 4.55571 4.50344 2.56647 2.42529 4.53287 0.280383 0.244664 0.687965 0.00211911
threshold=-0.32453724840795239 0.43496887174283333 340.50000000000006 -0.35510474328986924 -0.84484761698711763 856410.50000000012 1.6982260516548063e-05 0.0029365096276175863 0.003868159891748772 0.022769050105785702 92.491256488743105 23.066743550900309 429.12380067090493 -0.003556381332545096 -1.2253563523508386 0.0015157239765907968 -0.028096625020326112 57.582405368109974 2.3097818949772851e-06 -1.0137648374737029 0.020880388809693538 30.718701679985724 0.063123892514798996 49.861869831911399 0.0056719697518332656 6.9119266883332191
decision_type=2 2 2 2 2 2 2 2 2 2 2 2 2 2 2 2 2 2 2 2 2 2 2 2 2 2
left_child=23 2 -2 4 16 13 11 19 10 -10 -9 12 -5 14 -6 -15 -4 18 -18 -8 -13 -22 -3 24 -1 -24
right_child=1 22 3 6 5 -7 7 8 9 -11 -12 20 -14 15 -16 -17 17 -19 -20 -21 21 -23 25 -25 -26 -27
leaf_value=0.1232287659551701 0.082940313703755042 -0.069149949986179085 -0.065930061909580853 0.045219324968326417 0.13151990611607883 0.11213750621073582 -0.13423013702273379 -0.023271722452455058 0.01987300485430693 -0.060545807433614526 -0.089633395538878474 0.096097061745701762 -0.068142152554367799 -0.022341059478339961 -0.011920241416197642 0.039548166006619569 -0.027281357101924853 -0.061583605312767353 0.10535441376166063 -0.039186194273644621 0.081921433496765589 -0.050542156179951857 -0.1206971403010582 0.12175258250589766 0.029998534038908863 -0.13462218688622157
leaf_weight=7.5980204194784147 24.152018278837204 3.3562990799546233 28.217012599110603 15.299364894628523 21.129628255963326 18.593066297471523 15.158884495496748 179.26081804186106 124.17456743121147 35.043129026889801 40.050821796059608 19.048682034015656 22.363251432776451 75.860027641057968 19.993609994649887 74.738309368491173 14.521321281790735 21.222246646881104 16.172593474388123 19.440811097621918 15.900813952088358 15.007208079099653 104.10885977745056 117.06788290292025 3.4851027578115463 2.7280563674867144
leaf_count=90 68 48 81 43 60 55 44 514 353 101 117 54 69 218 57 213 42 64 46 56 46 46 1631 1562 39 38
internal_value=0 -0.0170846 -0.00323632 -0.00586994 0.0138774 0.0280149 -0.0173249 -0.0247399 -0.0196002 0.00216402 -0.0354012 0.0176296 -0.0220817 0.0198414 0.061805 0.00837171 -0.0232195 6.03564e-06 0.0426187 -0.0809039 0.0475728 0.0176018 -0.119525 0.119381 0.0940795 -0.121087
internal_weight=0 925.541 815.348 791.196 290.448 210.315 500.748 413.129 378.529 159.218 219.312 87.6193 37.6626 191.722 41.1232 150.598 80.1332 51.9162 30.6939 34.5997 49.9567 30.908 110.193 128.151 11.0831 106.837
internal_count=5755 4064 2347 2279 836 603 1443 1185 1085 454 631 258 112 548 117 431 233 152 88 100 146 92 1717 1691 129 1669
is_linear=0
shrinkage=0.173016


Tree=32
num_leaves=22
num_cat=0
split_feature=12 67 34 24 60 60 10 24 67 36 30 53 67 20 64 24 53 14 70 15 17
split_gain=70.0826 46.0076 5.1958 3.92265 4.07797 8.16454 6.69853 5.3144 5.02267 4.66531 4.56543 5.76509 5.80788 4.14245 3.54149 2.30604 0.243618 0.166879 0.084642 0.0624367 0.00457937
threshold=0.43496887174283333 5.5654879794900059e-05 0.020621008939317731 3.13441559981035 -14673.499999999998 -140.49999999999997 339.50000000000006 -2.509880529440657 3.1279767246125291e-06 0.95730988274706885 0.01404981656190619 15.081616889037932 2.2102832352055326e-06 0.0088974131074578428 0.82309169341791832 -4.4222456915050916 0.063123892514798996 -0.070564658936694988 4.2632564145606017e-14 0.135887900986183 -2.5684661571851577
decision_type=2 2 2 2 2 2 2 2 2 2 2 2 2 2 2 2 2 2 2 2 2
left_child=1 2 3 4 10 7 8 15 -7 -8 11 -1 -13 -9 -5 -6 -2 -3 19 -19 -18
right_child=16 17 -4 14 5 6 9 13 -10 -11 -12 12 -14 -15 -16 -17 20 18 -20 -21 -22
leaf_value=0.083765125430878981 0.07641599612602544 -0.09011071628774879 0.093108361880708784 -0.1125434175409801 -0.045479410896069175 -0.018254897224762225 0.074277472504766948 0.00097584295814211175 -0.13276209947624448 0.0061852538918478576 0.090689258937760989 -0.03629278581178863 0.03387014885003127 -0.067213450612513409 -0.0143221589194101 -0.13186541233243643 0.12158224718262825 -0.12117720011867546 -0.092356874457520582 -0.14879417135087328 0.13514569328867618
leaf_weight=26.863019749522209 3.8238710463047019 5.9511405527591696 16.704305320978165 18.242739379405975 15.275227032601832 38.380778402090073 33.151380822062492 72.685374230146408 16.340774700045586 327.38159307837486 24.163438051939011 75.795659646391869 66.083228945732117 42.088116385042667 27.629785984754562 23.642643943428993 119.27452454715967 101.59320621564984 3.4832961559295645 3.128099873661994 3.3266699910163871
leaf_count=75 48 77 46 52 44 110 92 206 49 925 68 216 188 122 78 68 1629 1547 42 33 40
internal_value=0 -0.016587 -0.00233107 -0.00430808 -0.00134814 -0.0087194 0.00388929 -0.0427844 -0.0524999 0.0124521 0.0203885 0.0103076 -0.0036097 -0.0240348 -0.053431 -0.0980191 0.12062 -0.119517 -0.12111 -0.12204 0.12198
internal_weight=0 938.584 824.428 807.724 761.851 568.946 415.255 153.691 54.7216 360.533 192.905 168.742 141.879 114.773 45.8725 38.9179 126.425 114.156 108.205 104.721 122.601
internal_count=5755 4038 2339 2293 2163 1616 1176 440 159 1017 547 479 404 328 130 112 1717 1699 1622 1580 1669
is_linear=0
shrinkage=0.173016


Tree=33
num_leaves=13
num_cat=0
split_feature=63 27 29 31 29 9 40 45 20 30 31 32
split_gain=14.6158 3.91287 4.49403 3.72125 3.40683 3.34685 3.50527 4.74179 3.94889 3.66915 3.59528 1.83113
threshold=8.9061989553965066 0.0019552289443156997 0.0077848311028683682 -0.00059842860790788887 0.017128191083895319 954785.50000000012 -0.00019765625189516187 -9.5473243231213818 0.057606471835876645 0.0099277010012231316 -0.00015087946922880162 -0.47165435128435129
decision_type=2 2 2 2 2 2 2 2 2 2 2 2
left_child=1 2 -1 11 5 6 7 -5 9 -8 -9 -3
right_child=-2 3 -4 4 -6 -7 8 10 -10 -11 -12 -13
leaf_value=0.1966873034121327 -0.11590622169686224 -0.0088052752241922026 0.026539165022680566 0.092900752659929267 -0.092327573249119235 0.11618504196043052 0.0090207271781418651 0.023940707994594346 -0.096703863183364408 0.055220458499116616 -0.078652086324109194 -0.12759038246696053
leaf_weight=7.0789680853486088 28.887553720735013 7.0358094796538344 13.484693743288515 8.3970291763544065 9.1235377043485624 9.4264633283019048 147.05148395337164 14.61627735942602 8.2203305438160879 79.168714486062527 33.896887931972742 8.6826073266565782
leaf_count=46 3422 55 80 65 71 56 917 126 54 489 295 79
internal_value=0 0.0121425 0.085295 0.00751541 0.0116843 0.0148479 0.0115584 -0.0269483 0.0209094 0.025195 -0.0477373 -0.0745423
internal_weight=0 346.183 20.5637 325.619 309.901 300.777 291.351 56.9102 234.441 226.22 48.5132 15.7184
internal_count=5755 2333 126 2207 2073 2002 1946 486 1460 1406 421 134
is_linear=0
shrinkage=0.173016


Tree=34
num_leaves=23
num_cat=0
split_feature=11 12 6 29 42 64 27 54 43 23 53 43 68 59 31 48 43 9 31 53 33 6
split_gain=54.6594 35.3765 4.8123 4.73611 6.77784 6.18356 5.12165 4.73495 4.54383 4.52741 3.75812 3.57511 6.17325 5.76315 3.39826 4.76502 4.65181 2.79313 2.61908 0.316747 0.137552 0.226303
threshold=-0.3328502265587226 0.43496887174283333 340.50000000000006 0.0078999284946378468 68.680240915057894 1.335331079784825 0.0079499676573014811 57.418282858943492 65.695287969441893 0.024319473572464004 23.855407908225821 43.71155412576266 4.8095659289223556e-05 -0.0049323212674643501 0.00020156763323796479 67.392263281424349 57.966862058942432 571265.00000000012 3.7890840572111317e-05 0.063123892514798996 0.022425155033111512 2885.5000000000005
decision_type=2 2 2 2 2 2 2 2 2 2 2 2 2 2 2 2 2 2 2 2 2 2
left_child=20 2 -2 4 5 6 9 -7 11 -4 -8 12 13 -5 16 -16 -13 18 -10 -3 -1 -22
right_child=1 19 3 8 -6 7 10 -9 17 -11 -12 14 -14 -15 15 -17 -18 -19 -20 -21 21 -23
leaf_value=0.12047226811165555 0.073024735240216535 -0.061114080677654219 0.0053105381456573439 -0.04911943850451464 -0.072339009669882839 0.043665856195709937 0.001131022547875344 0.16581674818542891 0.1137117566509956 -0.098365257117479746 0.10593123531592359 -0.05755033129645435 0.10469607429215257 0.012931841696011852 0.022832052474700087 -0.0467399593381113 0.0057432320062559784 -0.023489755462154108 0.019738326387591858 -0.11990699963490008 0.11997662306290939 0.051966621466447864
leaf_weight=96.841568034142256 24.260666072368622 2.9443633183836928 82.45034795999527 68.80287703871727 22.300890788435936 26.580566346645355 17.723514318466187 14.792418196797369 16.34456729888916 14.859071522951124 24.27141135931015 154.28159411996603 15.469253510236738 128.34155774116516 69.851731434464455 50.934374764561653 44.846054956316948 16.386316984891891 19.45544558763504 85.624300967901945 3.7240630872547618 2.5500557385385036
leaf_count=1591 68 48 235 196 69 76 51 43 47 44 68 458 43 363 204 149 128 47 58 1669 58 42
internal_value=0 -0.0141601 -0.00283221 -0.00517129 0.0175966 0.0287078 0.011255 0.0874211 -0.0130761 -0.0105369 0.0617375 -0.0178515 -0.000459933 -0.00872514 -0.0294077 -0.00650585 -0.0432948 0.0356315 0.0627017 -0.117974 0.118809 0.0927073
internal_weight=0 900.521 811.953 787.692 202.978 180.677 139.304 41.373 584.714 97.3094 41.9949 532.527 212.614 197.144 319.914 120.786 199.128 52.1863 35.8 88.5687 103.116 6.27412
internal_count=5755 4064 2347 2279 586 517 398 119 1693 279 119 1541 602 559 939 353 586 152 105 1717 1691 100
is_linear=0
shrinkage=0.173016


Tree=35
num_leaves=27
num_cat=0
split_feature=12 67 29 42 42 31 26 53 21 53 35 12 46 35 26 12 10 43 64 35 5 30 35 14 70 46
split_gain=53.799 37.1433 4.45131 5.6262 8.16672 5.32135 4.98447 4.78368 5.91167 4.70702 3.70464 4.03617 5.67434 6.16321 5.13646 4.31723 3.44947 3.27405 2.70841 2.29624 2.02732 1.68076 0.278129 0.250003 0.121424 0.12707
threshold=0.43496887174283333 5.5654879794900059e-05 0.0078999284946378468 68.680240915057894 51.59875195744592 -0.00040940295086075174 0.003682274104883585 22.354826428763555 0.005668668712402015 22.611431992315605 -0.015293361634677665 -0.03799735728673536 -0.92496201329656424 0.0089195433394320695 0.020268012924814484 -0.054648772934925587 1172.5000000000002 34.642336120708222 0.8745212734696407 0.00031204723296470127 2921.5000000000005 0.0058200150196951799 -0.013865823847090968 -0.074477689608551431 4.2632564145606017e-14 -0.20803325110287194
decision_type=2 2 2 2 2 2 2 2 2 2 2 2 2 2 2 2 2 2 2 2 2 2 2 2 2 2
left_child=1 2 3 4 7 9 -6 8 20 -4 -7 15 14 -14 -13 17 19 -12 -17 -9 -1 -8 -2 -3 25 -25
right_child=22 23 5 -5 6 10 21 16 -10 -11 11 12 13 -15 -16 18 -18 -19 -20 -21 -22 -23 -24 24 -26 -27
leaf_value=-0.062484014691843032 0.069379828232756138 -0.07506841252650262 0.11259986587148728 0.054871981155041348 -0.02594193095826643 -0.094379541698038902 -0.075621376120500475 -0.025675500732273648 0.1038486823988152 0.0085813667995209755 -0.064499658707140944 0.029010731434197447 -0.0048386427145764932 0.086106440525124159 0.13838202296150917 -0.11282534795535891 0.020797413948910059 0.032651792449746905 -0.030868429680086927 -0.10482649287501077 0.028849166564227636 -0.14997924920632588 0.12063562064023027 -0.11970785349859292 -0.0838248509732019 -0.16396042447773523
